
    // !!! This file is generated using emlearn !!!

    #include <eml_trees.h>
    

EmlTreesNode decision_tree0_nodes[167] = {
  { 180, -0.4018714427947998, 1, 6 },
  { 513, -0.5608730912208557, 2, 5 },
  { 1009, -0.6352003216743469, 3, 4 },
  { -1, 1, -1, -1 },
  { -1, 5, -1, -1 },
  { 1013, -0.4284021854400635, 4, 3 },
  { 261, 0.3084232956171036, 7, 162 },
  { 151, -0.24795911461114883, 8, 58 },
  { 514, -0.3344375938177109, 9, 50 },
  { 508, -0.5474613606929779, 10, 34 },
  { 1019, 0.08984655747190118, 11, 33 },
  { 712, -0.38843901455402374, 12, 20 },
  { 498, -0.6632866263389587, 13, 4 },
  { 531, -0.5664256513118744, 4, 14 },
  { 473, -0.5461107492446899, 15, 16 },
  { -1, 2, -1, -1 },
  { 658, -0.21950284391641617, 17, 18 },
  { -1, 8, -1, -1 },
  { 560, -0.4808899164199829, 3, 19 },
  { -1, 3, -1, -1 },
  { 830, -0.39234577119350433, 3, 21 },
  { 508, -0.5698129236698151, 22, 33 },
  { 978, -0.2894798666238785, 23, 15 },
  { 609, -0.5360859334468842, 24, 4 },
  { 595, -0.6072990894317627, 25, 31 },
  { 919, -0.5690083205699921, 4, 26 },
  { 714, -0.1856735348701477, 27, 30 },
  { 479, -0.6665498912334442, 15, 28 },
  { 558, -0.7474526464939117, 29, 19 },
  { -1, 9, -1, -1 },
  { -1, 7, -1, -1 },
  { 176, -0.4843955934047699, 32, 17 },
  { -1, 4, -1, -1 },
  { -1, 0, -1, -1 },
  { 1013, -0.4550423324108124, 35, 43 },
  { 409, -0.3351484388113022, 36, 42 },
  { 465, -0.4389294981956482, 37, 3 },
  { 464, -0.605210691690445, 38, 29 },
  { 517, 0.03710457411943935, 39, 33 },
  { 298, -0.23589912801980972, 32, 40 },
  { 288, -0.1893489956855774, 19, 41 },
  { 1001, -0.3517306447029114, 30, 17 },
  { 366, -0.16734091192483902, 4, 15 },
  { 49, -0.30415719747543335, 44, 46 },
  { 741, -0.19033532589673996, 45, 17 },
  { 877, -0.0746675506234169, 15, 33 },
  { 76, -0.472537636756897, 4, 47 },
  { 976, -0.07875197380781174, 48, 15 },
  { 1001, -0.05552509427070618, 29, 49 },
  { 124, -0.4577767252922058, 32, 3 },
  { 293, -0.2708114832639694, 51, 56 },
  { 1020, -0.18849709630012512, 52, 54 },
  { 726, -0.3506633937358856, 53, 17 },
  { 905, -0.4831204265356064, 33, 32 },
  { 417, -0.3722849041223526, 33, 55 },
  { 845, -0.45107361674308777, 17, 32 },
  { 975, 0.6064832732081413, 57, 4 },
  { 754, 0.0855657048523426, 30, 29 },
  { 1021, 1.401219129562378, 59, 154 },
  { 518, 1.5868974328041077, 60, 153 },
  { 453, 0.10218632966279984, 61, 123 },
  { 1, -0.043372560292482376, 62, 110 },
  { 502, -0.28428298234939575, 63, 92 },
  { 1022, -0.5386160016059875, 64, 76 },
  { 521, -0.6851137578487396, 65, 67 },
  { 157, -0.358179971575737, 29, 66 },
  { -1, 6, -1, -1 },
  { 967, -0.2844565063714981, 68, 75 },
  { 898, 0.12518698163330555, 69, 17 },
  { 201, -0.1388268619775772, 70, 71 },
  { 6, 0.4068591743707657, 29, 17 },
  { 548, -0.36101099848747253, 72, 29 },
  { 828, -0.2933994084596634, 73, 66 },
  { 472, -0.5791724026203156, 4, 74 },
  { 810, -0.33101001381874084, 19, 15 },
  { 819, -0.3458240330219269, 19, 33 },
  { 362, -0.36177630722522736, 77, 81 },
  { 1, -0.38617420196533203, 78, 17 },
  { 824, -0.35092444717884064, 33, 79 },
  { 387, -0.4670102894306183, 80, 19 },
  { 300, -0.18171575665473938, 15, 30 },
  { 453, -0.10898369178175926, 82, 32 },
  { 376, 0.04459260404109955, 83, 88 },
  { 584, -0.6493991613388062, 32, 84 },
  { 67, -0.0710060391575098, 85, 66 },
  { 955, -0.024096960201859474, 86, 87 },
  { 14, 0.5007423758506775, 19, 15 },
  { 337, -0.10617462545633316, 29, 33 },
  { 254, -0.2204888015985489, 33, 89 },
  { 885, 0.46314579248428345, 90, 17 },
  { 888, 0.36019665002822876, 30, 91 },
  { 960, -0.3988720029592514, 15, 66 },
  { 333, -0.19715720415115356, 93, 104 },
  { 975, -0.28485892713069916, 94, 99 },
  { 638, -0.35084040462970734, 95, 98 },
  { 15, -0.4589831382036209, 29, 96 },
  { 553, -0.44655852019786835, 97, 19 },
  { 308, -0.321828231215477, 32, 17 },
  { 489, -0.33806103467941284, 33, 17 },
  { 479, 0.49157315492630005, 100, 101 },
  { 825, -0.1383119523525238, 15, 17 },
  { 880, -0.5339429974555969, 3, 102 },
  { 200, -0.2738696336746216, 29, 103 },
  { 934, 0.6370397806167603, 33, 4 },
  { 434, -0.2613487094640732, 105, 107 },
  { 852, 0.6079406440258026, 29, 106 },
  { 148, -0.005984596908092499, 33, 19 },
  { 632, -0.3355399966239929, 15, 108 },
  { 508, 0.027502775192260742, 109, 29 },
  { 230, -0.18350183218717575, 33, 19 },
  { 669, 0.3375396132469177, 111, 17 },
  { 8, 0.310982346534729, 112, 118 },
  { 432, -0.5121691823005676, 113, 114 },
  { 32, -0.25508743710815907, 29, 17 },
  { 607, -0.11411013454198837, 115, 116 },
  { 566, -0.13346287608146667, 32, 19 },
  { 579, 0.03595264069736004, 117, 32 },
  { 526, -0.10232642106711864, 17, 29 },
  { 62, -0.4064343124628067, 30, 119 },
  { 443, -0.21300139278173447, 29, 120 },
  { 792, -0.3137156814336777, 15, 121 },
  { 463, 0.23959964513778687, 66, 122 },
  { 327, -0.10306990891695023, 33, 4 },
  { 554, -0.2724272757768631, 124, 129 },
  { 57, -0.30699992179870605, 125, 128 },
  { 861, -0.16041582822799683, 33, 126 },
  { 811, -0.20507486164569855, 29, 127 },
  { 120, 0.44300903379917145, 19, 4 },
  { 285, -0.05123213678598404, 66, 4 },
  { 75, 1.8428245186805725, 130, 151 },
  { 514, -0.33711013197898865, 131, 135 },
  { 32, 0.023928068578243256, 132, 29 },
  { 86, -0.025448527187108994, 133, 66 },
  { 304, -0.10127439349889755, 29, 134 },
  { 519, -0.3804532587528229, 4, 15 },
  { 502, -0.06279590167105198, 136, 139 },
  { 701, -0.24329839646816254, 137, 138 },
  { 198, -0.2514306455850601, 33, 32 },
  { 1007, 1.2940359711647034, 19, 15 },
  { 1023, 0.29527415335178375, 140, 147 },
  { 428, 0.45720265805721283, 15, 141 },
  { 945, 0.15273594856262207, 142, 143 },
  { 659, -0.28771810233592987, 30, 29 },
  { 912, 0.09881364554166794, 144, 146 },
  { 997, 0.1721490453928709, 145, 15 },
  { 953, 0.4552460014820099, 32, 19 },
  { 114, 0.4287511259317398, 66, 17 },
  { 676, 0.0734548163600266, 33, 148 },
  { 418, 0.20816712081432343, 149, 32 },
  { 57, 0.28987471014261246, 66, 150 },
  { 937, 0.2866442948579788, 29, 17 },
  { 588, 5.506007432937622, 66, 152 },
  { 353, -0.03970111161470413, 17, 19 },
  { 298, -0.07363113760948181, 33, 30 },
  { 33, 0.527839869260788, 155, 159 },
  { 966, 0.5415124595165253, 156, 157 },
  { 218, 0.7916891872882843, 32, 30 },
  { 85, 0.3117489814758301, 30, 158 },
  { 852, -0.11226639989763498, 66, 19 },
  { 692, 1.0219864249229431, 160, 32 },
  { 606, 2.057092547416687, 19, 161 },
  { 229, 0.06368324160575867, 32, 30 },
  { 3, 2.9412803649902344, 163, 32 },
  { 1020, -0.10520901111885905, 164, 166 },
  { 334, 0.510541707277298, 30, 165 },
  { 550, 0.675830751657486, 29, 17 },
  { 1, -0.20697998255491257, 19, 30 } 
};

int32_t decision_tree0_tree_roots[1] = { 0 };

EmlTrees decision_tree0 = {
        167,
        decision_tree0_nodes,	  
        1,
        decision_tree0_tree_roots,
    };

static inline int32_t decision_tree0_predict_tree_0(const float *features, int32_t features_length) {
          if (features[180] < -0.4018714427947998) {
              if (features[513] < -0.5608730912208557) {
                  if (features[1009] < -0.6352003216743469) {
                      return 1;
                  } else {
                      return 5;
                  }
              } else {
                  if (features[1013] < -0.4284021854400635) {
                      return 5;
                  } else {
                      return 1;
                  }
              }
          } else {
              if (features[261] < 0.3084232956171036) {
                  if (features[151] < -0.24795911461114883) {
                      if (features[514] < -0.3344375938177109) {
                          if (features[508] < -0.5474613606929779) {
                              if (features[1019] < 0.08984655747190118) {
                                  if (features[712] < -0.38843901455402374) {
                                      if (features[498] < -0.6632866263389587) {
                                          if (features[531] < -0.5664256513118744) {
                                              return 5;
                                          } else {
                                              if (features[473] < -0.5461107492446899) {
                                                  return 2;
                                              } else {
                                                  if (features[658] < -0.21950284391641617) {
                                                      return 8;
                                                  } else {
                                                      if (features[560] < -0.4808899164199829) {
                                                          return 1;
                                                      } else {
                                                          return 3;
                                                      }
                                                  }
                                              }
                                          }
                                      } else {
                                          return 5;
                                      }
                                  } else {
                                      if (features[830] < -0.39234577119350433) {
                                          return 1;
                                      } else {
                                          if (features[508] < -0.5698129236698151) {
                                              if (features[978] < -0.2894798666238785) {
                                                  if (features[609] < -0.5360859334468842) {
                                                      if (features[595] < -0.6072990894317627) {
                                                          if (features[919] < -0.5690083205699921) {
                                                              return 5;
                                                          } else {
                                                              if (features[714] < -0.1856735348701477) {
                                                                  if (features[479] < -0.6665498912334442) {
                                                                      return 2;
                                                                  } else {
                                                                      if (features[558] < -0.7474526464939117) {
                                                                          return 9;
                                                                      } else {
                                                                          return 3;
                                                                      }
                                                                  }
                                                              } else {
                                                                  return 7;
                                                              }
                                                          }
                                                      } else {
                                                          if (features[176] < -0.4843955934047699) {
                                                              return 4;
                                                          } else {
                                                              return 8;
                                                          }
                                                      }
                                                  } else {
                                                      return 5;
                                                  }
                                              } else {
                                                  return 2;
                                              }
                                          } else {
                                              return 0;
                                          }
                                      }
                                  }
                              } else {
                                  return 0;
                              }
                          } else {
                              if (features[1013] < -0.4550423324108124) {
                                  if (features[409] < -0.3351484388113022) {
                                      if (features[465] < -0.4389294981956482) {
                                          if (features[464] < -0.605210691690445) {
                                              if (features[517] < 0.03710457411943935) {
                                                  if (features[298] < -0.23589912801980972) {
                                                      return 4;
                                                  } else {
                                                      if (features[288] < -0.1893489956855774) {
                                                          return 3;
                                                      } else {
                                                          if (features[1001] < -0.3517306447029114) {
                                                              return 7;
                                                          } else {
                                                              return 8;
                                                          }
                                                      }
                                                  }
                                              } else {
                                                  return 0;
                                              }
                                          } else {
                                              return 9;
                                          }
                                      } else {
                                          return 1;
                                      }
                                  } else {
                                      if (features[366] < -0.16734091192483902) {
                                          return 5;
                                      } else {
                                          return 2;
                                      }
                                  }
                              } else {
                                  if (features[49] < -0.30415719747543335) {
                                      if (features[741] < -0.19033532589673996) {
                                          if (features[877] < -0.0746675506234169) {
                                              return 2;
                                          } else {
                                              return 0;
                                          }
                                      } else {
                                          return 8;
                                      }
                                  } else {
                                      if (features[76] < -0.472537636756897) {
                                          return 5;
                                      } else {
                                          if (features[976] < -0.07875197380781174) {
                                              if (features[1001] < -0.05552509427070618) {
                                                  return 9;
                                              } else {
                                                  if (features[124] < -0.4577767252922058) {
                                                      return 4;
                                                  } else {
                                                      return 1;
                                                  }
                                              }
                                          } else {
                                              return 2;
                                          }
                                      }
                                  }
                              }
                          }
                      } else {
                          if (features[293] < -0.2708114832639694) {
                              if (features[1020] < -0.18849709630012512) {
                                  if (features[726] < -0.3506633937358856) {
                                      if (features[905] < -0.4831204265356064) {
                                          return 0;
                                      } else {
                                          return 4;
                                      }
                                  } else {
                                      return 8;
                                  }
                              } else {
                                  if (features[417] < -0.3722849041223526) {
                                      return 0;
                                  } else {
                                      if (features[845] < -0.45107361674308777) {
                                          return 8;
                                      } else {
                                          return 4;
                                      }
                                  }
                              }
                          } else {
                              if (features[975] < 0.6064832732081413) {
                                  if (features[754] < 0.0855657048523426) {
                                      return 7;
                                  } else {
                                      return 9;
                                  }
                              } else {
                                  return 5;
                              }
                          }
                      }
                  } else {
                      if (features[1021] < 1.401219129562378) {
                          if (features[518] < 1.5868974328041077) {
                              if (features[453] < 0.10218632966279984) {
                                  if (features[1] < -0.043372560292482376) {
                                      if (features[502] < -0.28428298234939575) {
                                          if (features[1022] < -0.5386160016059875) {
                                              if (features[521] < -0.6851137578487396) {
                                                  if (features[157] < -0.358179971575737) {
                                                      return 9;
                                                  } else {
                                                      return 6;
                                                  }
                                              } else {
                                                  if (features[967] < -0.2844565063714981) {
                                                      if (features[898] < 0.12518698163330555) {
                                                          if (features[201] < -0.1388268619775772) {
                                                              if (features[6] < 0.4068591743707657) {
                                                                  return 9;
                                                              } else {
                                                                  return 8;
                                                              }
                                                          } else {
                                                              if (features[548] < -0.36101099848747253) {
                                                                  if (features[828] < -0.2933994084596634) {
                                                                      if (features[472] < -0.5791724026203156) {
                                                                          return 5;
                                                                      } else {
                                                                          if (features[810] < -0.33101001381874084) {
                                                                              return 3;
                                                                          } else {
                                                                              return 2;
                                                                          }
                                                                      }
                                                                  } else {
                                                                      return 6;
                                                                  }
                                                              } else {
                                                                  return 9;
                                                              }
                                                          }
                                                      } else {
                                                          return 8;
                                                      }
                                                  } else {
                                                      if (features[819] < -0.3458240330219269) {
                                                          return 3;
                                                      } else {
                                                          return 0;
                                                      }
                                                  }
                                              }
                                          } else {
                                              if (features[362] < -0.36177630722522736) {
                                                  if (features[1] < -0.38617420196533203) {
                                                      if (features[824] < -0.35092444717884064) {
                                                          return 0;
                                                      } else {
                                                          if (features[387] < -0.4670102894306183) {
                                                              if (features[300] < -0.18171575665473938) {
                                                                  return 2;
                                                              } else {
                                                                  return 7;
                                                              }
                                                          } else {
                                                              return 3;
                                                          }
                                                      }
                                                  } else {
                                                      return 8;
                                                  }
                                              } else {
                                                  if (features[453] < -0.10898369178175926) {
                                                      if (features[376] < 0.04459260404109955) {
                                                          if (features[584] < -0.6493991613388062) {
                                                              return 4;
                                                          } else {
                                                              if (features[67] < -0.0710060391575098) {
                                                                  if (features[955] < -0.024096960201859474) {
                                                                      if (features[14] < 0.5007423758506775) {
                                                                          return 3;
                                                                      } else {
                                                                          return 2;
                                                                      }
                                                                  } else {
                                                                      if (features[337] < -0.10617462545633316) {
                                                                          return 9;
                                                                      } else {
                                                                          return 0;
                                                                      }
                                                                  }
                                                              } else {
                                                                  return 6;
                                                              }
                                                          }
                                                      } else {
                                                          if (features[254] < -0.2204888015985489) {
                                                              return 0;
                                                          } else {
                                                              if (features[885] < 0.46314579248428345) {
                                                                  if (features[888] < 0.36019665002822876) {
                                                                      return 7;
                                                                  } else {
                                                                      if (features[960] < -0.3988720029592514) {
                                                                          return 2;
                                                                      } else {
                                                                          return 6;
                                                                      }
                                                                  }
                                                              } else {
                                                                  return 8;
                                                              }
                                                          }
                                                      }
                                                  } else {
                                                      return 4;
                                                  }
                                              }
                                          }
                                      } else {
                                          if (features[333] < -0.19715720415115356) {
                                              if (features[975] < -0.28485892713069916) {
                                                  if (features[638] < -0.35084040462970734) {
                                                      if (features[15] < -0.4589831382036209) {
                                                          return 9;
                                                      } else {
                                                          if (features[553] < -0.44655852019786835) {
                                                              if (features[308] < -0.321828231215477) {
                                                                  return 4;
                                                              } else {
                                                                  return 8;
                                                              }
                                                          } else {
                                                              return 3;
                                                          }
                                                      }
                                                  } else {
                                                      if (features[489] < -0.33806103467941284) {
                                                          return 0;
                                                      } else {
                                                          return 8;
                                                      }
                                                  }
                                              } else {
                                                  if (features[479] < 0.49157315492630005) {
                                                      if (features[825] < -0.1383119523525238) {
                                                          return 2;
                                                      } else {
                                                          return 8;
                                                      }
                                                  } else {
                                                      if (features[880] < -0.5339429974555969) {
                                                          return 1;
                                                      } else {
                                                          if (features[200] < -0.2738696336746216) {
                                                              return 9;
                                                          } else {
                                                              if (features[934] < 0.6370397806167603) {
                                                                  return 0;
                                                              } else {
                                                                  return 5;
                                                              }
                                                          }
                                                      }
                                                  }
                                              }
                                          } else {
                                              if (features[434] < -0.2613487094640732) {
                                                  if (features[852] < 0.6079406440258026) {
                                                      return 9;
                                                  } else {
                                                      if (features[148] < -0.005984596908092499) {
                                                          return 0;
                                                      } else {
                                                          return 3;
                                                      }
                                                  }
                                              } else {
                                                  if (features[632] < -0.3355399966239929) {
                                                      return 2;
                                                  } else {
                                                      if (features[508] < 0.027502775192260742) {
                                                          if (features[230] < -0.18350183218717575) {
                                                              return 0;
                                                          } else {
                                                              return 3;
                                                          }
                                                      } else {
                                                          return 9;
                                                      }
                                                  }
                                              }
                                          }
                                      }
                                  } else {
                                      if (features[669] < 0.3375396132469177) {
                                          if (features[8] < 0.310982346534729) {
                                              if (features[432] < -0.5121691823005676) {
                                                  if (features[32] < -0.25508743710815907) {
                                                      return 9;
                                                  } else {
                                                      return 8;
                                                  }
                                              } else {
                                                  if (features[607] < -0.11411013454198837) {
                                                      if (features[566] < -0.13346287608146667) {
                                                          return 4;
                                                      } else {
                                                          return 3;
                                                      }
                                                  } else {
                                                      if (features[579] < 0.03595264069736004) {
                                                          if (features[526] < -0.10232642106711864) {
                                                              return 8;
                                                          } else {
                                                              return 9;
                                                          }
                                                      } else {
                                                          return 4;
                                                      }
                                                  }
                                              }
                                          } else {
                                              if (features[62] < -0.4064343124628067) {
                                                  return 7;
                                              } else {
                                                  if (features[443] < -0.21300139278173447) {
                                                      return 9;
                                                  } else {
                                                      if (features[792] < -0.3137156814336777) {
                                                          return 2;
                                                      } else {
                                                          if (features[463] < 0.23959964513778687) {
                                                              return 6;
                                                          } else {
                                                              if (features[327] < -0.10306990891695023) {
                                                                  return 0;
                                                              } else {
                                                                  return 5;
                                                              }
                                                          }
                                                      }
                                                  }
                                              }
                                          }
                                      } else {
                                          return 8;
                                      }
                                  }
                              } else {
                                  if (features[554] < -0.2724272757768631) {
                                      if (features[57] < -0.30699992179870605) {
                                          if (features[861] < -0.16041582822799683) {
                                              return 0;
                                          } else {
                                              if (features[811] < -0.20507486164569855) {
                                                  return 9;
                                              } else {
                                                  if (features[120] < 0.44300903379917145) {
                                                      return 3;
                                                  } else {
                                                      return 5;
                                                  }
                                              }
                                          }
                                      } else {
                                          if (features[285] < -0.05123213678598404) {
                                              return 6;
                                          } else {
                                              return 5;
                                          }
                                      }
                                  } else {
                                      if (features[75] < 1.8428245186805725) {
                                          if (features[514] < -0.33711013197898865) {
                                              if (features[32] < 0.023928068578243256) {
                                                  if (features[86] < -0.025448527187108994) {
                                                      if (features[304] < -0.10127439349889755) {
                                                          return 9;
                                                      } else {
                                                          if (features[519] < -0.3804532587528229) {
                                                              return 5;
                                                          } else {
                                                              return 2;
                                                          }
                                                      }
                                                  } else {
                                                      return 6;
                                                  }
                                              } else {
                                                  return 9;
                                              }
                                          } else {
                                              if (features[502] < -0.06279590167105198) {
                                                  if (features[701] < -0.24329839646816254) {
                                                      if (features[198] < -0.2514306455850601) {
                                                          return 0;
                                                      } else {
                                                          return 4;
                                                      }
                                                  } else {
                                                      if (features[1007] < 1.2940359711647034) {
                                                          return 3;
                                                      } else {
                                                          return 2;
                                                      }
                                                  }
                                              } else {
                                                  if (features[1023] < 0.29527415335178375) {
                                                      if (features[428] < 0.45720265805721283) {
                                                          return 2;
                                                      } else {
                                                          if (features[945] < 0.15273594856262207) {
                                                              if (features[659] < -0.28771810233592987) {
                                                                  return 7;
                                                              } else {
                                                                  return 9;
                                                              }
                                                          } else {
                                                              if (features[912] < 0.09881364554166794) {
                                                                  if (features[997] < 0.1721490453928709) {
                                                                      if (features[953] < 0.4552460014820099) {
                                                                          return 4;
                                                                      } else {
                                                                          return 3;
                                                                      }
                                                                  } else {
                                                                      return 2;
                                                                  }
                                                              } else {
                                                                  if (features[114] < 0.4287511259317398) {
                                                                      return 6;
                                                                  } else {
                                                                      return 8;
                                                                  }
                                                              }
                                                          }
                                                      }
                                                  } else {
                                                      if (features[676] < 0.0734548163600266) {
                                                          return 0;
                                                      } else {
                                                          if (features[418] < 0.20816712081432343) {
                                                              if (features[57] < 0.28987471014261246) {
                                                                  return 6;
                                                              } else {
                                                                  if (features[937] < 0.2866442948579788) {
                                                                      return 9;
                                                                  } else {
                                                                      return 8;
                                                                  }
                                                              }
                                                          } else {
                                                              return 4;
                                                          }
                                                      }
                                                  }
                                              }
                                          }
                                      } else {
                                          if (features[588] < 5.506007432937622) {
                                              return 6;
                                          } else {
                                              if (features[353] < -0.03970111161470413) {
                                                  return 8;
                                              } else {
                                                  return 3;
                                              }
                                          }
                                      }
                                  }
                              }
                          } else {
                              if (features[298] < -0.07363113760948181) {
                                  return 0;
                              } else {
                                  return 7;
                              }
                          }
                      } else {
                          if (features[33] < 0.527839869260788) {
                              if (features[966] < 0.5415124595165253) {
                                  if (features[218] < 0.7916891872882843) {
                                      return 4;
                                  } else {
                                      return 7;
                                  }
                              } else {
                                  if (features[85] < 0.3117489814758301) {
                                      return 7;
                                  } else {
                                      if (features[852] < -0.11226639989763498) {
                                          return 6;
                                      } else {
                                          return 3;
                                      }
                                  }
                              }
                          } else {
                              if (features[692] < 1.0219864249229431) {
                                  if (features[606] < 2.057092547416687) {
                                      return 3;
                                  } else {
                                      if (features[229] < 0.06368324160575867) {
                                          return 4;
                                      } else {
                                          return 7;
                                      }
                                  }
                              } else {
                                  return 4;
                              }
                          }
                      }
                  }
              } else {
                  if (features[3] < 2.9412803649902344) {
                      if (features[1020] < -0.10520901111885905) {
                          if (features[334] < 0.510541707277298) {
                              return 7;
                          } else {
                              if (features[550] < 0.675830751657486) {
                                  return 9;
                              } else {
                                  return 8;
                              }
                          }
                      } else {
                          if (features[1] < -0.20697998255491257) {
                              return 3;
                          } else {
                              return 7;
                          }
                      }
                  } else {
                      return 4;
                  }
              }
          }
        }
        

int32_t decision_tree0_predict(const float *features, int32_t features_length) {

        int32_t votes[10] = {0,};
        int32_t _class = -1;

        _class = decision_tree0_predict_tree_0(features, features_length); votes[_class] += 1;
    
        int32_t most_voted_class = -1;
        int32_t most_voted_votes = 0;
        for (int32_t i=0; i<10; i++) {

            if (votes[i] > most_voted_votes) {
                most_voted_class = i;
                most_voted_votes = votes[i];
            }
        }
        return most_voted_class;
    }
    