
    // !!! This file is generated using emlearn !!!

    #include <eml_trees.h>
    

EmlTreesNode decision_tree0_nodes[169] = {
  { 180, -0.4018714427947998, 1, 6 },
  { 513, -0.5608730316162109, 2, 5 },
  { 527, -0.6352002322673798, 3, 4 },
  { -1, 1, -1, -1 },
  { -1, 5, -1, -1 },
  { 145, -0.1708178147673607, 4, 3 },
  { 251, 0.3084232956171036, 7, 164 },
  { 361, -0.24795910716056824, 8, 59 },
  { 1022, -0.33443744480609894, 9, 50 },
  { 4, -0.5474613010883331, 10, 34 },
  { 517, 0.08984788740053773, 11, 33 },
  { 712, -0.38843898475170135, 12, 20 },
  { 498, -0.6632866263389587, 13, 4 },
  { 531, -0.5664261281490326, 4, 14 },
  { 473, -0.5461107492446899, 15, 16 },
  { -1, 2, -1, -1 },
  { 553, -0.5431523323059082, 3, 17 },
  { 343, -0.6431282460689545, 18, 19 },
  { -1, 8, -1, -1 },
  { -1, 3, -1, -1 },
  { 842, -0.513082891702652, 3, 21 },
  { 4, -0.5698128640651703, 22, 33 },
  { 978, -0.2894783020019531, 23, 15 },
  { 927, -0.5360859036445618, 24, 4 },
  { 136, -0.39459431171417236, 25, 32 },
  { 925, -0.37495073676109314, 26, 31 },
  { 485, -0.4784495681524277, 27, 4 },
  { 291, -0.15916185081005096, 15, 28 },
  { 513, -0.5199182629585266, 29, 30 },
  { -1, 9, -1, -1 },
  { -1, 4, -1, -1 },
  { -1, 7, -1, -1 },
  { 772, -0.16699805855751038, 19, 18 },
  { -1, 0, -1, -1 },
  { 523, -0.4550422132015228, 35, 43 },
  { 103, -0.3351484537124634, 36, 42 },
  { 47, -0.43892955780029297, 37, 3 },
  { 50, -0.551042228937149, 38, 29 },
  { 337, -0.16540872305631638, 33, 39 },
  { 505, -0.7709943056106567, 30, 40 },
  { 560, -0.5939838588237762, 31, 41 },
  { 130, -0.30777330696582794, 18, 19 },
  { 198, -0.2828899025917053, 4, 15 },
  { 49, -0.30415719747543335, 44, 46 },
  { 659, -0.07466889172792435, 45, 33 },
  { 743, -0.16463005356490612, 15, 18 },
  { 848, -0.5977170169353485, 4, 47 },
  { 103, -0.34084565937519073, 15, 48 },
  { 1013, -0.2529519647359848, 29, 49 },
  { 468, -0.3674486577510834, 3, 30 },
  { 219, -0.27081145346164703, 51, 57 },
  { 920, -0.5400453507900238, 52, 54 },
  { 920, -0.5482278764247894, 53, 33 },
  { 713, -0.23069966584444046, 30, 18 },
  { 1020, 0.09386458620429039, 55, 56 },
  { 814, -0.2804696261882782, 30, 18 },
  { 120, -0.45926666259765625, 30, 33 },
  { 132, -0.3334398865699768, 58, 4 },
  { 54, -0.4424392580986023, 29, 31 },
  { 515, 1.401220440864563, 60, 156 },
  { 1018, 1.5868977308273315, 61, 155 },
  { 453, 0.10218632966279984, 62, 125 },
  { 511, -0.04337252303957939, 63, 112 },
  { 502, -0.28428298234939575, 64, 94 },
  { 514, -0.5386165380477905, 65, 78 },
  { 521, -0.6851139664649963, 66, 68 },
  { 164, -0.3187541663646698, 29, 67 },
  { -1, 6, -1, -1 },
  { 965, -0.24065785109996796, 69, 77 },
  { 643, 0.32702024281024933, 70, 18 },
  { 511, -0.45940692722797394, 71, 74 },
  { 646, -0.3608979284763336, 72, 73 },
  { 720, -0.11119293421506882, 4, 67 },
  { 106, 0.13383119739592075, 29, 67 },
  { 23, 0.05066421255469322, 75, 67 },
  { 723, -0.19212330877780914, 76, 15 },
  { 732, -0.2680041715502739, 19, 18 },
  { 51, -0.40479277074337006, 33, 19 },
  { 150, -0.36177612841129303, 79, 83 },
  { 511, -0.38617417216300964, 80, 18 },
  { 310, -0.1340547874569893, 33, 81 },
  { 281, -0.15594924986362457, 19, 82 },
  { 451, -0.5974199175834656, 31, 15 },
  { 453, -0.10898369178175926, 84, 30 },
  { 905, -0.028262600302696228, 85, 90 },
  { 79, -0.03209446091204882, 86, 89 },
  { 580, -0.6759541034698486, 30, 87 },
  { 143, -0.16580215841531754, 88, 19 },
  { 265, -0.05892674997448921, 29, 15 },
  { 945, 0.06850183010101318, 67, 33 },
  { 672, 0.6169090569019318, 91, 18 },
  { 76, -0.1330263502895832, 92, 67 },
  { 278, -0.22649891674518585, 33, 93 },
  { 487, -0.13051636517047882, 15, 31 },
  { 333, -0.19715720415115356, 95, 106 },
  { 975, -0.2848590910434723, 96, 101 },
  { 639, -0.32646629214286804, 97, 100 },
  { 2, -0.5390062034130096, 29, 98 },
  { 831, -0.389424130320549, 99, 19 },
  { 349, -0.14867351204156876, 30, 18 },
  { 567, -0.1684048998868093, 33, 18 },
  { 463, 0.0666382615454495, 102, 103 },
  { 953, 0.35114138573408127, 15, 33 },
  { 610, -0.5036182403564453, 3, 104 },
  { 1007, -0.5000003427267075, 4, 105 },
  { 211, -0.10633585974574089, 29, 18 },
  { 434, -0.2613487094640732, 107, 109 },
  { 678, 0.24901265650987625, 29, 108 },
  { 700, -0.12218663841485977, 33, 19 },
  { 611, -0.19377630203962326, 15, 110 },
  { 516, -0.11977947875857353, 111, 29 },
  { 202, -0.12423185259103775, 33, 19 },
  { 867, 0.337540939450264, 113, 18 },
  { 8, 0.310982346534729, 114, 120 },
  { 432, -0.5121691823005676, 115, 116 },
  { 565, -0.4744723290205002, 29, 18 },
  { 607, -0.11410995572805405, 117, 118 },
  { 457, -0.282010555267334, 30, 19 },
  { 980, -0.287496954202652, 119, 30 },
  { 263, -0.11758952587842941, 29, 18 },
  { 62, -0.4064343124628067, 31, 121 },
  { 291, -0.15773554146289825, 15, 122 },
  { 453, -0.27037201821804047, 29, 123 },
  { 638, -0.49157164990901947, 4, 124 },
  { 330, -0.1987878754734993, 67, 33 },
  { 554, -0.27242720127105713, 126, 131 },
  { 455, -0.30699992179870605, 127, 130 },
  { 620, -0.23149660602211952, 33, 128 },
  { 874, 0.043185070157051086, 29, 129 },
  { 951, -0.3987901955842972, 19, 4 },
  { 798, -0.10809564031660557, 67, 4 },
  { 437, 1.8428243398666382, 132, 153 },
  { 514, -0.33710968494415283, 133, 137 },
  { 480, 0.023928141221404076, 134, 29 },
  { 112, -0.2007136270403862, 135, 67 },
  { 715, -0.2644912749528885, 29, 136 },
  { 435, 0.5682216137647629, 15, 4 },
  { 502, -0.06279590167105198, 138, 141 },
  { 835, -0.24329835921525955, 139, 140 },
  { 306, -0.1403462290763855, 33, 30 },
  { 418, 3.2683706283569336, 19, 15 },
  { 513, 0.2952737584710121, 142, 149 },
  { 84, 0.4572026878595352, 15, 143 },
  { 945, 0.15273601561784744, 144, 145 },
  { 249, -0.06993629597127438, 29, 31 },
  { 912, 0.09881367906928062, 146, 148 },
  { 372, 0.14801781624555588, 147, 19 },
  { 390, -0.022460756823420525, 30, 15 },
  { 952, 1.4931357204914093, 67, 18 },
  { 813, -0.20011407881975174, 33, 150 },
  { 521, 0.3230704367160797, 151, 30 },
  { 700, -0.0018841084092855453, 67, 152 },
  { 236, 0.0173408892005682, 29, 18 },
  { 449, 1.6793573498725891, 154, 67 },
  { 448, 1.9573487043380737, 18, 19 },
  { 764, 0.014147110283374786, 33, 31 },
  { 33, 0.527839869260788, 157, 161 },
  { 570, 0.5415159165859222, 158, 159 },
  { 971, -0.4596530944108963, 31, 30 },
  { 740, -0.20367258042097092, 67, 160 },
  { 400, 0.20271462947130203, 19, 31 },
  { 453, 1.1671941876411438, 162, 30 },
  { 995, 0.44659896194934845, 19, 163 },
  { 446, 0.3245469629764557, 30, 31 },
  { 509, 2.9412797689437866, 165, 30 },
  { 1020, -0.10520679270848632, 166, 168 },
  { 238, 0.613204687833786, 29, 167 },
  { 231, 0.917707622051239, 31, 18 },
  { 511, -0.20698025077581406, 19, 31 } 
};

int32_t decision_tree0_tree_roots[1] = { 0 };

EmlTrees decision_tree0 = {
        169,
        decision_tree0_nodes,	  
        1,
        decision_tree0_tree_roots,
    };

static inline int32_t decision_tree0_predict_tree_0(const float *features, int32_t features_length) {
          if (features[180] < -0.4018714427947998) {
              if (features[513] < -0.5608730316162109) {
                  if (features[527] < -0.6352002322673798) {
                      return 1;
                  } else {
                      return 5;
                  }
              } else {
                  if (features[145] < -0.1708178147673607) {
                      return 5;
                  } else {
                      return 1;
                  }
              }
          } else {
              if (features[251] < 0.3084232956171036) {
                  if (features[361] < -0.24795910716056824) {
                      if (features[1022] < -0.33443744480609894) {
                          if (features[4] < -0.5474613010883331) {
                              if (features[517] < 0.08984788740053773) {
                                  if (features[712] < -0.38843898475170135) {
                                      if (features[498] < -0.6632866263389587) {
                                          if (features[531] < -0.5664261281490326) {
                                              return 5;
                                          } else {
                                              if (features[473] < -0.5461107492446899) {
                                                  return 2;
                                              } else {
                                                  if (features[553] < -0.5431523323059082) {
                                                      return 1;
                                                  } else {
                                                      if (features[343] < -0.6431282460689545) {
                                                          return 8;
                                                      } else {
                                                          return 3;
                                                      }
                                                  }
                                              }
                                          }
                                      } else {
                                          return 5;
                                      }
                                  } else {
                                      if (features[842] < -0.513082891702652) {
                                          return 1;
                                      } else {
                                          if (features[4] < -0.5698128640651703) {
                                              if (features[978] < -0.2894783020019531) {
                                                  if (features[927] < -0.5360859036445618) {
                                                      if (features[136] < -0.39459431171417236) {
                                                          if (features[925] < -0.37495073676109314) {
                                                              if (features[485] < -0.4784495681524277) {
                                                                  if (features[291] < -0.15916185081005096) {
                                                                      return 2;
                                                                  } else {
                                                                      if (features[513] < -0.5199182629585266) {
                                                                          return 9;
                                                                      } else {
                                                                          return 4;
                                                                      }
                                                                  }
                                                              } else {
                                                                  return 5;
                                                              }
                                                          } else {
                                                              return 7;
                                                          }
                                                      } else {
                                                          if (features[772] < -0.16699805855751038) {
                                                              return 3;
                                                          } else {
                                                              return 8;
                                                          }
                                                      }
                                                  } else {
                                                      return 5;
                                                  }
                                              } else {
                                                  return 2;
                                              }
                                          } else {
                                              return 0;
                                          }
                                      }
                                  }
                              } else {
                                  return 0;
                              }
                          } else {
                              if (features[523] < -0.4550422132015228) {
                                  if (features[103] < -0.3351484537124634) {
                                      if (features[47] < -0.43892955780029297) {
                                          if (features[50] < -0.551042228937149) {
                                              if (features[337] < -0.16540872305631638) {
                                                  return 0;
                                              } else {
                                                  if (features[505] < -0.7709943056106567) {
                                                      return 4;
                                                  } else {
                                                      if (features[560] < -0.5939838588237762) {
                                                          return 7;
                                                      } else {
                                                          if (features[130] < -0.30777330696582794) {
                                                              return 8;
                                                          } else {
                                                              return 3;
                                                          }
                                                      }
                                                  }
                                              }
                                          } else {
                                              return 9;
                                          }
                                      } else {
                                          return 1;
                                      }
                                  } else {
                                      if (features[198] < -0.2828899025917053) {
                                          return 5;
                                      } else {
                                          return 2;
                                      }
                                  }
                              } else {
                                  if (features[49] < -0.30415719747543335) {
                                      if (features[659] < -0.07466889172792435) {
                                          if (features[743] < -0.16463005356490612) {
                                              return 2;
                                          } else {
                                              return 8;
                                          }
                                      } else {
                                          return 0;
                                      }
                                  } else {
                                      if (features[848] < -0.5977170169353485) {
                                          return 5;
                                      } else {
                                          if (features[103] < -0.34084565937519073) {
                                              return 2;
                                          } else {
                                              if (features[1013] < -0.2529519647359848) {
                                                  return 9;
                                              } else {
                                                  if (features[468] < -0.3674486577510834) {
                                                      return 1;
                                                  } else {
                                                      return 4;
                                                  }
                                              }
                                          }
                                      }
                                  }
                              }
                          }
                      } else {
                          if (features[219] < -0.27081145346164703) {
                              if (features[920] < -0.5400453507900238) {
                                  if (features[920] < -0.5482278764247894) {
                                      if (features[713] < -0.23069966584444046) {
                                          return 4;
                                      } else {
                                          return 8;
                                      }
                                  } else {
                                      return 0;
                                  }
                              } else {
                                  if (features[1020] < 0.09386458620429039) {
                                      if (features[814] < -0.2804696261882782) {
                                          return 4;
                                      } else {
                                          return 8;
                                      }
                                  } else {
                                      if (features[120] < -0.45926666259765625) {
                                          return 4;
                                      } else {
                                          return 0;
                                      }
                                  }
                              }
                          } else {
                              if (features[132] < -0.3334398865699768) {
                                  if (features[54] < -0.4424392580986023) {
                                      return 9;
                                  } else {
                                      return 7;
                                  }
                              } else {
                                  return 5;
                              }
                          }
                      }
                  } else {
                      if (features[515] < 1.401220440864563) {
                          if (features[1018] < 1.5868977308273315) {
                              if (features[453] < 0.10218632966279984) {
                                  if (features[511] < -0.04337252303957939) {
                                      if (features[502] < -0.28428298234939575) {
                                          if (features[514] < -0.5386165380477905) {
                                              if (features[521] < -0.6851139664649963) {
                                                  if (features[164] < -0.3187541663646698) {
                                                      return 9;
                                                  } else {
                                                      return 6;
                                                  }
                                              } else {
                                                  if (features[965] < -0.24065785109996796) {
                                                      if (features[643] < 0.32702024281024933) {
                                                          if (features[511] < -0.45940692722797394) {
                                                              if (features[646] < -0.3608979284763336) {
                                                                  if (features[720] < -0.11119293421506882) {
                                                                      return 5;
                                                                  } else {
                                                                      return 6;
                                                                  }
                                                              } else {
                                                                  if (features[106] < 0.13383119739592075) {
                                                                      return 9;
                                                                  } else {
                                                                      return 6;
                                                                  }
                                                              }
                                                          } else {
                                                              if (features[23] < 0.05066421255469322) {
                                                                  if (features[723] < -0.19212330877780914) {
                                                                      if (features[732] < -0.2680041715502739) {
                                                                          return 3;
                                                                      } else {
                                                                          return 8;
                                                                      }
                                                                  } else {
                                                                      return 2;
                                                                  }
                                                              } else {
                                                                  return 6;
                                                              }
                                                          }
                                                      } else {
                                                          return 8;
                                                      }
                                                  } else {
                                                      if (features[51] < -0.40479277074337006) {
                                                          return 0;
                                                      } else {
                                                          return 3;
                                                      }
                                                  }
                                              }
                                          } else {
                                              if (features[150] < -0.36177612841129303) {
                                                  if (features[511] < -0.38617417216300964) {
                                                      if (features[310] < -0.1340547874569893) {
                                                          return 0;
                                                      } else {
                                                          if (features[281] < -0.15594924986362457) {
                                                              return 3;
                                                          } else {
                                                              if (features[451] < -0.5974199175834656) {
                                                                  return 7;
                                                              } else {
                                                                  return 2;
                                                              }
                                                          }
                                                      }
                                                  } else {
                                                      return 8;
                                                  }
                                              } else {
                                                  if (features[453] < -0.10898369178175926) {
                                                      if (features[905] < -0.028262600302696228) {
                                                          if (features[79] < -0.03209446091204882) {
                                                              if (features[580] < -0.6759541034698486) {
                                                                  return 4;
                                                              } else {
                                                                  if (features[143] < -0.16580215841531754) {
                                                                      if (features[265] < -0.05892674997448921) {
                                                                          return 9;
                                                                      } else {
                                                                          return 2;
                                                                      }
                                                                  } else {
                                                                      return 3;
                                                                  }
                                                              }
                                                          } else {
                                                              if (features[945] < 0.06850183010101318) {
                                                                  return 6;
                                                              } else {
                                                                  return 0;
                                                              }
                                                          }
                                                      } else {
                                                          if (features[672] < 0.6169090569019318) {
                                                              if (features[76] < -0.1330263502895832) {
                                                                  if (features[278] < -0.22649891674518585) {
                                                                      return 0;
                                                                  } else {
                                                                      if (features[487] < -0.13051636517047882) {
                                                                          return 2;
                                                                      } else {
                                                                          return 7;
                                                                      }
                                                                  }
                                                              } else {
                                                                  return 6;
                                                              }
                                                          } else {
                                                              return 8;
                                                          }
                                                      }
                                                  } else {
                                                      return 4;
                                                  }
                                              }
                                          }
                                      } else {
                                          if (features[333] < -0.19715720415115356) {
                                              if (features[975] < -0.2848590910434723) {
                                                  if (features[639] < -0.32646629214286804) {
                                                      if (features[2] < -0.5390062034130096) {
                                                          return 9;
                                                      } else {
                                                          if (features[831] < -0.389424130320549) {
                                                              if (features[349] < -0.14867351204156876) {
                                                                  return 4;
                                                              } else {
                                                                  return 8;
                                                              }
                                                          } else {
                                                              return 3;
                                                          }
                                                      }
                                                  } else {
                                                      if (features[567] < -0.1684048998868093) {
                                                          return 0;
                                                      } else {
                                                          return 8;
                                                      }
                                                  }
                                              } else {
                                                  if (features[463] < 0.0666382615454495) {
                                                      if (features[953] < 0.35114138573408127) {
                                                          return 2;
                                                      } else {
                                                          return 0;
                                                      }
                                                  } else {
                                                      if (features[610] < -0.5036182403564453) {
                                                          return 1;
                                                      } else {
                                                          if (features[1007] < -0.5000003427267075) {
                                                              return 5;
                                                          } else {
                                                              if (features[211] < -0.10633585974574089) {
                                                                  return 9;
                                                              } else {
                                                                  return 8;
                                                              }
                                                          }
                                                      }
                                                  }
                                              }
                                          } else {
                                              if (features[434] < -0.2613487094640732) {
                                                  if (features[678] < 0.24901265650987625) {
                                                      return 9;
                                                  } else {
                                                      if (features[700] < -0.12218663841485977) {
                                                          return 0;
                                                      } else {
                                                          return 3;
                                                      }
                                                  }
                                              } else {
                                                  if (features[611] < -0.19377630203962326) {
                                                      return 2;
                                                  } else {
                                                      if (features[516] < -0.11977947875857353) {
                                                          if (features[202] < -0.12423185259103775) {
                                                              return 0;
                                                          } else {
                                                              return 3;
                                                          }
                                                      } else {
                                                          return 9;
                                                      }
                                                  }
                                              }
                                          }
                                      }
                                  } else {
                                      if (features[867] < 0.337540939450264) {
                                          if (features[8] < 0.310982346534729) {
                                              if (features[432] < -0.5121691823005676) {
                                                  if (features[565] < -0.4744723290205002) {
                                                      return 9;
                                                  } else {
                                                      return 8;
                                                  }
                                              } else {
                                                  if (features[607] < -0.11410995572805405) {
                                                      if (features[457] < -0.282010555267334) {
                                                          return 4;
                                                      } else {
                                                          return 3;
                                                      }
                                                  } else {
                                                      if (features[980] < -0.287496954202652) {
                                                          if (features[263] < -0.11758952587842941) {
                                                              return 9;
                                                          } else {
                                                              return 8;
                                                          }
                                                      } else {
                                                          return 4;
                                                      }
                                                  }
                                              }
                                          } else {
                                              if (features[62] < -0.4064343124628067) {
                                                  return 7;
                                              } else {
                                                  if (features[291] < -0.15773554146289825) {
                                                      return 2;
                                                  } else {
                                                      if (features[453] < -0.27037201821804047) {
                                                          return 9;
                                                      } else {
                                                          if (features[638] < -0.49157164990901947) {
                                                              return 5;
                                                          } else {
                                                              if (features[330] < -0.1987878754734993) {
                                                                  return 6;
                                                              } else {
                                                                  return 0;
                                                              }
                                                          }
                                                      }
                                                  }
                                              }
                                          }
                                      } else {
                                          return 8;
                                      }
                                  }
                              } else {
                                  if (features[554] < -0.27242720127105713) {
                                      if (features[455] < -0.30699992179870605) {
                                          if (features[620] < -0.23149660602211952) {
                                              return 0;
                                          } else {
                                              if (features[874] < 0.043185070157051086) {
                                                  return 9;
                                              } else {
                                                  if (features[951] < -0.3987901955842972) {
                                                      return 3;
                                                  } else {
                                                      return 5;
                                                  }
                                              }
                                          }
                                      } else {
                                          if (features[798] < -0.10809564031660557) {
                                              return 6;
                                          } else {
                                              return 5;
                                          }
                                      }
                                  } else {
                                      if (features[437] < 1.8428243398666382) {
                                          if (features[514] < -0.33710968494415283) {
                                              if (features[480] < 0.023928141221404076) {
                                                  if (features[112] < -0.2007136270403862) {
                                                      if (features[715] < -0.2644912749528885) {
                                                          return 9;
                                                      } else {
                                                          if (features[435] < 0.5682216137647629) {
                                                              return 2;
                                                          } else {
                                                              return 5;
                                                          }
                                                      }
                                                  } else {
                                                      return 6;
                                                  }
                                              } else {
                                                  return 9;
                                              }
                                          } else {
                                              if (features[502] < -0.06279590167105198) {
                                                  if (features[835] < -0.24329835921525955) {
                                                      if (features[306] < -0.1403462290763855) {
                                                          return 0;
                                                      } else {
                                                          return 4;
                                                      }
                                                  } else {
                                                      if (features[418] < 3.2683706283569336) {
                                                          return 3;
                                                      } else {
                                                          return 2;
                                                      }
                                                  }
                                              } else {
                                                  if (features[513] < 0.2952737584710121) {
                                                      if (features[84] < 0.4572026878595352) {
                                                          return 2;
                                                      } else {
                                                          if (features[945] < 0.15273601561784744) {
                                                              if (features[249] < -0.06993629597127438) {
                                                                  return 9;
                                                              } else {
                                                                  return 7;
                                                              }
                                                          } else {
                                                              if (features[912] < 0.09881367906928062) {
                                                                  if (features[372] < 0.14801781624555588) {
                                                                      if (features[390] < -0.022460756823420525) {
                                                                          return 4;
                                                                      } else {
                                                                          return 2;
                                                                      }
                                                                  } else {
                                                                      return 3;
                                                                  }
                                                              } else {
                                                                  if (features[952] < 1.4931357204914093) {
                                                                      return 6;
                                                                  } else {
                                                                      return 8;
                                                                  }
                                                              }
                                                          }
                                                      }
                                                  } else {
                                                      if (features[813] < -0.20011407881975174) {
                                                          return 0;
                                                      } else {
                                                          if (features[521] < 0.3230704367160797) {
                                                              if (features[700] < -0.0018841084092855453) {
                                                                  return 6;
                                                              } else {
                                                                  if (features[236] < 0.0173408892005682) {
                                                                      return 9;
                                                                  } else {
                                                                      return 8;
                                                                  }
                                                              }
                                                          } else {
                                                              return 4;
                                                          }
                                                      }
                                                  }
                                              }
                                          }
                                      } else {
                                          if (features[449] < 1.6793573498725891) {
                                              if (features[448] < 1.9573487043380737) {
                                                  return 8;
                                              } else {
                                                  return 3;
                                              }
                                          } else {
                                              return 6;
                                          }
                                      }
                                  }
                              }
                          } else {
                              if (features[764] < 0.014147110283374786) {
                                  return 0;
                              } else {
                                  return 7;
                              }
                          }
                      } else {
                          if (features[33] < 0.527839869260788) {
                              if (features[570] < 0.5415159165859222) {
                                  if (features[971] < -0.4596530944108963) {
                                      return 7;
                                  } else {
                                      return 4;
                                  }
                              } else {
                                  if (features[740] < -0.20367258042097092) {
                                      return 6;
                                  } else {
                                      if (features[400] < 0.20271462947130203) {
                                          return 3;
                                      } else {
                                          return 7;
                                      }
                                  }
                              }
                          } else {
                              if (features[453] < 1.1671941876411438) {
                                  if (features[995] < 0.44659896194934845) {
                                      return 3;
                                  } else {
                                      if (features[446] < 0.3245469629764557) {
                                          return 4;
                                      } else {
                                          return 7;
                                      }
                                  }
                              } else {
                                  return 4;
                              }
                          }
                      }
                  }
              } else {
                  if (features[509] < 2.9412797689437866) {
                      if (features[1020] < -0.10520679270848632) {
                          if (features[238] < 0.613204687833786) {
                              return 9;
                          } else {
                              if (features[231] < 0.917707622051239) {
                                  return 7;
                              } else {
                                  return 8;
                              }
                          }
                      } else {
                          if (features[511] < -0.20698025077581406) {
                              return 3;
                          } else {
                              return 7;
                          }
                      }
                  } else {
                      return 4;
                  }
              }
          }
        }
        

int32_t decision_tree0_predict(const float *features, int32_t features_length) {

        int32_t votes[10] = {0,};
        int32_t _class = -1;

        _class = decision_tree0_predict_tree_0(features, features_length); votes[_class] += 1;
    
        int32_t most_voted_class = -1;
        int32_t most_voted_votes = 0;
        for (int32_t i=0; i<10; i++) {

            if (votes[i] > most_voted_votes) {
                most_voted_class = i;
                most_voted_votes = votes[i];
            }
        }
        return most_voted_class;
    }
    