
    // !!! This file is generated using emlearn !!!

    #include <eml_trees.h>
    

EmlTreesNode decision_tree0_nodes[168] = {
  { 180, -0.4018714427947998, 1, 6 },
  { 1023, -0.5608730316162109, 2, 5 },
  { 527, -0.6351998746395111, 3, 4 },
  { -1, 1, -1, -1 },
  { -1, 5, -1, -1 },
  { 966, -0.6284798979759216, 4, 3 },
  { 251, 0.3084232956171036, 7, 163 },
  { 361, -0.24795910716056824, 8, 59 },
  { 1022, -0.33443760871887207, 9, 50 },
  { 4, -0.5474613010883331, 10, 34 },
  { 1019, 0.08984655747190118, 11, 33 },
  { 824, -0.38843902945518494, 12, 20 },
  { 14, -0.663286566734314, 13, 4 },
  { 1005, -0.5664256811141968, 4, 14 },
  { 22, -0.5320474803447723, 15, 16 },
  { -1, 2, -1, -1 },
  { 941, -0.5940333008766174, 3, 17 },
  { 202, -0.14108563214540482, 18, 19 },
  { -1, 3, -1, -1 },
  { -1, 8, -1, -1 },
  { 842, -0.5130826234817505, 3, 21 },
  { 508, -0.5698129236698151, 22, 33 },
  { 558, -0.28947989642620087, 23, 15 },
  { 609, -0.5360859334468842, 24, 4 },
  { 595, -0.6072990894317627, 25, 31 },
  { 997, -0.4120848476886749, 26, 4 },
  { 740, -0.33368776738643646, 27, 30 },
  { 921, -0.43415267765522003, 15, 28 },
  { 192, -0.11990217491984367, 29, 18 },
  { -1, 9, -1, -1 },
  { -1, 7, -1, -1 },
  { 568, -0.6230989694595337, 32, 19 },
  { -1, 4, -1, -1 },
  { -1, 0, -1, -1 },
  { 523, -0.4550423324108124, 35, 43 },
  { 117, -0.5304591059684753, 36, 42 },
  { 47, -0.43892955780029297, 37, 41 },
  { 892, -0.43272627890110016, 29, 38 },
  { 794, -0.2774568647146225, 39, 33 },
  { 719, -0.16908886283636093, 19, 40 },
  { 764, -0.16648906469345093, 18, 32 },
  { 284, -0.2620391398668289, 3, 15 },
  { 274, -0.1718030720949173, 4, 30 },
  { 463, -0.3041570782661438, 44, 46 },
  { 826, -0.21665449440479279, 45, 19 },
  { 499, -0.6918448805809021, 33, 15 },
  { 34, -0.464077427983284, 4, 47 },
  { 937, -0.3914256989955902, 48, 15 },
  { 295, -0.22122608125209808, 32, 49 },
  { 242, -0.3297220319509506, 29, 3 },
  { 293, -0.2708114832639694, 51, 57 },
  { 920, -0.5400453507900238, 52, 54 },
  { 144, -0.5355180501937866, 33, 53 },
  { 785, -0.1867806762456894, 32, 19 },
  { 1020, 0.09386491402983665, 55, 56 },
  { 810, -0.3506633937358856, 32, 19 },
  { 437, -0.45316027104854584, 33, 32 },
  { 266, -0.2607514262199402, 4, 58 },
  { 665, -0.4266040772199631, 30, 29 },
  { 1021, 1.401219129562378, 60, 155 },
  { 518, 1.5868974328041077, 61, 154 },
  { 59, 0.10218637064099312, 62, 124 },
  { 511, -0.04337252303957939, 63, 111 },
  { 10, -0.28428293764591217, 64, 93 },
  { 514, -0.5386160314083099, 65, 77 },
  { 1015, -0.6851138472557068, 66, 68 },
  { 831, -0.42600491642951965, 29, 67 },
  { -1, 6, -1, -1 },
  { 569, -0.2844565361738205, 69, 76 },
  { 636, -0.06996440887451172, 70, 19 },
  { 311, -0.1388268619775772, 71, 72 },
  { 499, 0.28743205964565277, 29, 19 },
  { 708, -0.12895189970731735, 73, 29 },
  { 838, -0.2738710194826126, 74, 67 },
  { 843, -0.4567358195781708, 4, 75 },
  { 976, -0.4637172967195511, 15, 18 },
  { 53, -0.28706178069114685, 33, 18 },
  { 362, -0.36177630722522736, 78, 82 },
  { 511, -0.38617417216300964, 79, 19 },
  { 310, -0.1340547874569893, 33, 80 },
  { 287, -0.19244586676359177, 18, 81 },
  { 445, -0.4352390244603157, 30, 15 },
  { 59, -0.10898365452885628, 83, 32 },
  { 905, -0.02826267760246992, 84, 89 },
  { 79, -0.03209446091204882, 85, 88 },
  { 77, -0.4992288202047348, 32, 86 },
  { 168, -0.2907542884349823, 87, 18 },
  { 463, -0.3697114437818527, 29, 15 },
  { 400, -0.24030566215515137, 33, 67 },
  { 81, -0.06625968217849731, 90, 67 },
  { 918, 0.02413624059408903, 91, 19 },
  { 791, -0.21251103281974792, 33, 92 },
  { 1006, 1.2436867505311966, 15, 30 },
  { 333, -0.19715720415115356, 94, 105 },
  { 561, -0.28485892713069916, 95, 100 },
  { 906, -0.36725708842277527, 96, 99 },
  { 496, -0.582846075296402, 29, 97 },
  { 904, -0.5472708642482758, 98, 18 },
  { 334, -0.25485704839229584, 19, 32 },
  { 413, -0.2887164205312729, 19, 33 },
  { 479, 0.49157315492630005, 101, 102 },
  { 985, 1.4960963726043701, 15, 19 },
  { 150, -0.5380091667175293, 3, 103 },
  { 809, -0.35604310035705566, 29, 104 },
  { 724, -0.3379088044166565, 4, 33 },
  { 78, -0.26134905219078064, 106, 108 },
  { 853, 0.29094891250133514, 29, 107 },
  { 75, -0.29136696457862854, 33, 18 },
  { 611, -0.19377592206001282, 15, 109 },
  { 418, -0.05516963638365269, 18, 110 },
  { 194, -0.19944152235984802, 33, 29 },
  { 867, 0.33753956854343414, 112, 19 },
  { 504, 0.31098221242427826, 113, 119 },
  { 80, -0.5121691823005676, 114, 115 },
  { 38, -0.32044170796871185, 29, 19 },
  { 607, -0.11411013454198837, 116, 117 },
  { 55, -0.2820105403661728, 32, 18 },
  { 943, 0.10593328345566988, 118, 32 },
  { 915, 0.14297675527632236, 19, 29 },
  { 62, -0.4064343124628067, 30, 120 },
  { 811, -0.201245479285717, 121, 29 },
  { 183, -0.1055680550634861, 15, 122 },
  { 85, -0.3631137013435364, 4, 123 },
  { 367, -0.08566692098975182, 67, 33 },
  { 982, -0.2724272459745407, 125, 130 },
  { 57, -0.30699992179870605, 126, 129 },
  { 341, -0.15220197290182114, 33, 127 },
  { 425, -0.31062543392181396, 18, 128 },
  { 587, 0.008078433573246002, 4, 29 },
  { 556, 0.26655566692352295, 67, 4 },
  { 75, 1.8428245186805725, 131, 152 },
  { 1022, -0.33711016178131104, 132, 136 },
  { 480, 0.023928141221404076, 133, 29 },
  { 396, -0.16191542148590088, 134, 67 },
  { 173, -0.2161586880683899, 135, 15 },
  { 615, -0.0678143035620451, 29, 4 },
  { 10, -0.06279585510492325, 137, 140 },
  { 824, -0.27405400574207306, 138, 139 },
  { 553, 0.11376696825027466, 32, 33 },
  { 17, 1.6199395656585693, 18, 15 },
  { 513, 0.29527412354946136, 141, 148 },
  { 978, 1.2601212859153748, 142, 15 },
  { 530, 0.06382180377840996, 143, 144 },
  { 647, 0.8034594655036926, 67, 19 },
  { 34, 0.2580653093755245, 145, 29 },
  { 938, -0.07649192214012146, 15, 146 },
  { 748, -0.08842150866985321, 147, 18 },
  { 613, -0.3158276677131653, 30, 32 },
  { 709, -0.17474709451198578, 33, 149 },
  { 8, 0.1550285555422306, 150, 32 },
  { 426, -0.0034644007682800293, 19, 151 },
  { 691, 0.3293488621711731, 29, 67 },
  { 552, 1.427663505077362, 67, 153 },
  { 939, 0.7348503023386002, 18, 19 },
  { 538, 4.786232352256775, 33, 30 },
  { 33, 0.527839869260788, 156, 160 },
  { 570, 0.5415124893188477, 157, 158 },
  { 562, -0.5800748467445374, 30, 32 },
  { 969, 0.730906069278717, 67, 159 },
  { 679, 0.46578792575746775, 18, 30 },
  { 694, 0.7329464554786682, 161, 32 },
  { 542, 1.6308377385139465, 18, 162 },
  { 934, 1.6729788780212402, 32, 30 },
  { 4, 1.3754894733428955, 164, 32 },
  { 1020, -0.10520901111885905, 165, 167 },
  { 215, 0.7947780191898346, 29, 166 },
  { 700, 0.7511889338493347, 30, 19 },
  { 1, -0.20697998255491257, 18, 30 } 
};

int32_t decision_tree0_tree_roots[1] = { 0 };

EmlTrees decision_tree0 = {
        168,
        decision_tree0_nodes,	  
        1,
        decision_tree0_tree_roots,
    };

static inline int32_t decision_tree0_predict_tree_0(const float *features, int32_t features_length) {
          if (features[180] < -0.4018714427947998) {
              if (features[1023] < -0.5608730316162109) {
                  if (features[527] < -0.6351998746395111) {
                      return 1;
                  } else {
                      return 5;
                  }
              } else {
                  if (features[966] < -0.6284798979759216) {
                      return 5;
                  } else {
                      return 1;
                  }
              }
          } else {
              if (features[251] < 0.3084232956171036) {
                  if (features[361] < -0.24795910716056824) {
                      if (features[1022] < -0.33443760871887207) {
                          if (features[4] < -0.5474613010883331) {
                              if (features[1019] < 0.08984655747190118) {
                                  if (features[824] < -0.38843902945518494) {
                                      if (features[14] < -0.663286566734314) {
                                          if (features[1005] < -0.5664256811141968) {
                                              return 5;
                                          } else {
                                              if (features[22] < -0.5320474803447723) {
                                                  return 2;
                                              } else {
                                                  if (features[941] < -0.5940333008766174) {
                                                      return 1;
                                                  } else {
                                                      if (features[202] < -0.14108563214540482) {
                                                          return 3;
                                                      } else {
                                                          return 8;
                                                      }
                                                  }
                                              }
                                          }
                                      } else {
                                          return 5;
                                      }
                                  } else {
                                      if (features[842] < -0.5130826234817505) {
                                          return 1;
                                      } else {
                                          if (features[508] < -0.5698129236698151) {
                                              if (features[558] < -0.28947989642620087) {
                                                  if (features[609] < -0.5360859334468842) {
                                                      if (features[595] < -0.6072990894317627) {
                                                          if (features[997] < -0.4120848476886749) {
                                                              if (features[740] < -0.33368776738643646) {
                                                                  if (features[921] < -0.43415267765522003) {
                                                                      return 2;
                                                                  } else {
                                                                      if (features[192] < -0.11990217491984367) {
                                                                          return 9;
                                                                      } else {
                                                                          return 3;
                                                                      }
                                                                  }
                                                              } else {
                                                                  return 7;
                                                              }
                                                          } else {
                                                              return 5;
                                                          }
                                                      } else {
                                                          if (features[568] < -0.6230989694595337) {
                                                              return 4;
                                                          } else {
                                                              return 8;
                                                          }
                                                      }
                                                  } else {
                                                      return 5;
                                                  }
                                              } else {
                                                  return 2;
                                              }
                                          } else {
                                              return 0;
                                          }
                                      }
                                  }
                              } else {
                                  return 0;
                              }
                          } else {
                              if (features[523] < -0.4550423324108124) {
                                  if (features[117] < -0.5304591059684753) {
                                      if (features[47] < -0.43892955780029297) {
                                          if (features[892] < -0.43272627890110016) {
                                              return 9;
                                          } else {
                                              if (features[794] < -0.2774568647146225) {
                                                  if (features[719] < -0.16908886283636093) {
                                                      return 8;
                                                  } else {
                                                      if (features[764] < -0.16648906469345093) {
                                                          return 3;
                                                      } else {
                                                          return 4;
                                                      }
                                                  }
                                              } else {
                                                  return 0;
                                              }
                                          }
                                      } else {
                                          if (features[284] < -0.2620391398668289) {
                                              return 1;
                                          } else {
                                              return 2;
                                          }
                                      }
                                  } else {
                                      if (features[274] < -0.1718030720949173) {
                                          return 5;
                                      } else {
                                          return 7;
                                      }
                                  }
                              } else {
                                  if (features[463] < -0.3041570782661438) {
                                      if (features[826] < -0.21665449440479279) {
                                          if (features[499] < -0.6918448805809021) {
                                              return 0;
                                          } else {
                                              return 2;
                                          }
                                      } else {
                                          return 8;
                                      }
                                  } else {
                                      if (features[34] < -0.464077427983284) {
                                          return 5;
                                      } else {
                                          if (features[937] < -0.3914256989955902) {
                                              if (features[295] < -0.22122608125209808) {
                                                  return 4;
                                              } else {
                                                  if (features[242] < -0.3297220319509506) {
                                                      return 9;
                                                  } else {
                                                      return 1;
                                                  }
                                              }
                                          } else {
                                              return 2;
                                          }
                                      }
                                  }
                              }
                          }
                      } else {
                          if (features[293] < -0.2708114832639694) {
                              if (features[920] < -0.5400453507900238) {
                                  if (features[144] < -0.5355180501937866) {
                                      return 0;
                                  } else {
                                      if (features[785] < -0.1867806762456894) {
                                          return 4;
                                      } else {
                                          return 8;
                                      }
                                  }
                              } else {
                                  if (features[1020] < 0.09386491402983665) {
                                      if (features[810] < -0.3506633937358856) {
                                          return 4;
                                      } else {
                                          return 8;
                                      }
                                  } else {
                                      if (features[437] < -0.45316027104854584) {
                                          return 0;
                                      } else {
                                          return 4;
                                      }
                                  }
                              }
                          } else {
                              if (features[266] < -0.2607514262199402) {
                                  return 5;
                              } else {
                                  if (features[665] < -0.4266040772199631) {
                                      return 7;
                                  } else {
                                      return 9;
                                  }
                              }
                          }
                      }
                  } else {
                      if (features[1021] < 1.401219129562378) {
                          if (features[518] < 1.5868974328041077) {
                              if (features[59] < 0.10218637064099312) {
                                  if (features[511] < -0.04337252303957939) {
                                      if (features[10] < -0.28428293764591217) {
                                          if (features[514] < -0.5386160314083099) {
                                              if (features[1015] < -0.6851138472557068) {
                                                  if (features[831] < -0.42600491642951965) {
                                                      return 9;
                                                  } else {
                                                      return 6;
                                                  }
                                              } else {
                                                  if (features[569] < -0.2844565361738205) {
                                                      if (features[636] < -0.06996440887451172) {
                                                          if (features[311] < -0.1388268619775772) {
                                                              if (features[499] < 0.28743205964565277) {
                                                                  return 9;
                                                              } else {
                                                                  return 8;
                                                              }
                                                          } else {
                                                              if (features[708] < -0.12895189970731735) {
                                                                  if (features[838] < -0.2738710194826126) {
                                                                      if (features[843] < -0.4567358195781708) {
                                                                          return 5;
                                                                      } else {
                                                                          if (features[976] < -0.4637172967195511) {
                                                                              return 2;
                                                                          } else {
                                                                              return 3;
                                                                          }
                                                                      }
                                                                  } else {
                                                                      return 6;
                                                                  }
                                                              } else {
                                                                  return 9;
                                                              }
                                                          }
                                                      } else {
                                                          return 8;
                                                      }
                                                  } else {
                                                      if (features[53] < -0.28706178069114685) {
                                                          return 0;
                                                      } else {
                                                          return 3;
                                                      }
                                                  }
                                              }
                                          } else {
                                              if (features[362] < -0.36177630722522736) {
                                                  if (features[511] < -0.38617417216300964) {
                                                      if (features[310] < -0.1340547874569893) {
                                                          return 0;
                                                      } else {
                                                          if (features[287] < -0.19244586676359177) {
                                                              return 3;
                                                          } else {
                                                              if (features[445] < -0.4352390244603157) {
                                                                  return 7;
                                                              } else {
                                                                  return 2;
                                                              }
                                                          }
                                                      }
                                                  } else {
                                                      return 8;
                                                  }
                                              } else {
                                                  if (features[59] < -0.10898365452885628) {
                                                      if (features[905] < -0.02826267760246992) {
                                                          if (features[79] < -0.03209446091204882) {
                                                              if (features[77] < -0.4992288202047348) {
                                                                  return 4;
                                                              } else {
                                                                  if (features[168] < -0.2907542884349823) {
                                                                      if (features[463] < -0.3697114437818527) {
                                                                          return 9;
                                                                      } else {
                                                                          return 2;
                                                                      }
                                                                  } else {
                                                                      return 3;
                                                                  }
                                                              }
                                                          } else {
                                                              if (features[400] < -0.24030566215515137) {
                                                                  return 0;
                                                              } else {
                                                                  return 6;
                                                              }
                                                          }
                                                      } else {
                                                          if (features[81] < -0.06625968217849731) {
                                                              if (features[918] < 0.02413624059408903) {
                                                                  if (features[791] < -0.21251103281974792) {
                                                                      return 0;
                                                                  } else {
                                                                      if (features[1006] < 1.2436867505311966) {
                                                                          return 2;
                                                                      } else {
                                                                          return 7;
                                                                      }
                                                                  }
                                                              } else {
                                                                  return 8;
                                                              }
                                                          } else {
                                                              return 6;
                                                          }
                                                      }
                                                  } else {
                                                      return 4;
                                                  }
                                              }
                                          }
                                      } else {
                                          if (features[333] < -0.19715720415115356) {
                                              if (features[561] < -0.28485892713069916) {
                                                  if (features[906] < -0.36725708842277527) {
                                                      if (features[496] < -0.582846075296402) {
                                                          return 9;
                                                      } else {
                                                          if (features[904] < -0.5472708642482758) {
                                                              if (features[334] < -0.25485704839229584) {
                                                                  return 8;
                                                              } else {
                                                                  return 4;
                                                              }
                                                          } else {
                                                              return 3;
                                                          }
                                                      }
                                                  } else {
                                                      if (features[413] < -0.2887164205312729) {
                                                          return 8;
                                                      } else {
                                                          return 0;
                                                      }
                                                  }
                                              } else {
                                                  if (features[479] < 0.49157315492630005) {
                                                      if (features[985] < 1.4960963726043701) {
                                                          return 2;
                                                      } else {
                                                          return 8;
                                                      }
                                                  } else {
                                                      if (features[150] < -0.5380091667175293) {
                                                          return 1;
                                                      } else {
                                                          if (features[809] < -0.35604310035705566) {
                                                              return 9;
                                                          } else {
                                                              if (features[724] < -0.3379088044166565) {
                                                                  return 5;
                                                              } else {
                                                                  return 0;
                                                              }
                                                          }
                                                      }
                                                  }
                                              }
                                          } else {
                                              if (features[78] < -0.26134905219078064) {
                                                  if (features[853] < 0.29094891250133514) {
                                                      return 9;
                                                  } else {
                                                      if (features[75] < -0.29136696457862854) {
                                                          return 0;
                                                      } else {
                                                          return 3;
                                                      }
                                                  }
                                              } else {
                                                  if (features[611] < -0.19377592206001282) {
                                                      return 2;
                                                  } else {
                                                      if (features[418] < -0.05516963638365269) {
                                                          return 3;
                                                      } else {
                                                          if (features[194] < -0.19944152235984802) {
                                                              return 0;
                                                          } else {
                                                              return 9;
                                                          }
                                                      }
                                                  }
                                              }
                                          }
                                      }
                                  } else {
                                      if (features[867] < 0.33753956854343414) {
                                          if (features[504] < 0.31098221242427826) {
                                              if (features[80] < -0.5121691823005676) {
                                                  if (features[38] < -0.32044170796871185) {
                                                      return 9;
                                                  } else {
                                                      return 8;
                                                  }
                                              } else {
                                                  if (features[607] < -0.11411013454198837) {
                                                      if (features[55] < -0.2820105403661728) {
                                                          return 4;
                                                      } else {
                                                          return 3;
                                                      }
                                                  } else {
                                                      if (features[943] < 0.10593328345566988) {
                                                          if (features[915] < 0.14297675527632236) {
                                                              return 8;
                                                          } else {
                                                              return 9;
                                                          }
                                                      } else {
                                                          return 4;
                                                      }
                                                  }
                                              }
                                          } else {
                                              if (features[62] < -0.4064343124628067) {
                                                  return 7;
                                              } else {
                                                  if (features[811] < -0.201245479285717) {
                                                      if (features[183] < -0.1055680550634861) {
                                                          return 2;
                                                      } else {
                                                          if (features[85] < -0.3631137013435364) {
                                                              return 5;
                                                          } else {
                                                              if (features[367] < -0.08566692098975182) {
                                                                  return 6;
                                                              } else {
                                                                  return 0;
                                                              }
                                                          }
                                                      }
                                                  } else {
                                                      return 9;
                                                  }
                                              }
                                          }
                                      } else {
                                          return 8;
                                      }
                                  }
                              } else {
                                  if (features[982] < -0.2724272459745407) {
                                      if (features[57] < -0.30699992179870605) {
                                          if (features[341] < -0.15220197290182114) {
                                              return 0;
                                          } else {
                                              if (features[425] < -0.31062543392181396) {
                                                  return 3;
                                              } else {
                                                  if (features[587] < 0.008078433573246002) {
                                                      return 5;
                                                  } else {
                                                      return 9;
                                                  }
                                              }
                                          }
                                      } else {
                                          if (features[556] < 0.26655566692352295) {
                                              return 6;
                                          } else {
                                              return 5;
                                          }
                                      }
                                  } else {
                                      if (features[75] < 1.8428245186805725) {
                                          if (features[1022] < -0.33711016178131104) {
                                              if (features[480] < 0.023928141221404076) {
                                                  if (features[396] < -0.16191542148590088) {
                                                      if (features[173] < -0.2161586880683899) {
                                                          if (features[615] < -0.0678143035620451) {
                                                              return 9;
                                                          } else {
                                                              return 5;
                                                          }
                                                      } else {
                                                          return 2;
                                                      }
                                                  } else {
                                                      return 6;
                                                  }
                                              } else {
                                                  return 9;
                                              }
                                          } else {
                                              if (features[10] < -0.06279585510492325) {
                                                  if (features[824] < -0.27405400574207306) {
                                                      if (features[553] < 0.11376696825027466) {
                                                          return 4;
                                                      } else {
                                                          return 0;
                                                      }
                                                  } else {
                                                      if (features[17] < 1.6199395656585693) {
                                                          return 3;
                                                      } else {
                                                          return 2;
                                                      }
                                                  }
                                              } else {
                                                  if (features[513] < 0.29527412354946136) {
                                                      if (features[978] < 1.2601212859153748) {
                                                          if (features[530] < 0.06382180377840996) {
                                                              if (features[647] < 0.8034594655036926) {
                                                                  return 6;
                                                              } else {
                                                                  return 8;
                                                              }
                                                          } else {
                                                              if (features[34] < 0.2580653093755245) {
                                                                  if (features[938] < -0.07649192214012146) {
                                                                      return 2;
                                                                  } else {
                                                                      if (features[748] < -0.08842150866985321) {
                                                                          if (features[613] < -0.3158276677131653) {
                                                                              return 7;
                                                                          } else {
                                                                              return 4;
                                                                          }
                                                                      } else {
                                                                          return 3;
                                                                      }
                                                                  }
                                                              } else {
                                                                  return 9;
                                                              }
                                                          }
                                                      } else {
                                                          return 2;
                                                      }
                                                  } else {
                                                      if (features[709] < -0.17474709451198578) {
                                                          return 0;
                                                      } else {
                                                          if (features[8] < 0.1550285555422306) {
                                                              if (features[426] < -0.0034644007682800293) {
                                                                  return 8;
                                                              } else {
                                                                  if (features[691] < 0.3293488621711731) {
                                                                      return 9;
                                                                  } else {
                                                                      return 6;
                                                                  }
                                                              }
                                                          } else {
                                                              return 4;
                                                          }
                                                      }
                                                  }
                                              }
                                          }
                                      } else {
                                          if (features[552] < 1.427663505077362) {
                                              return 6;
                                          } else {
                                              if (features[939] < 0.7348503023386002) {
                                                  return 3;
                                              } else {
                                                  return 8;
                                              }
                                          }
                                      }
                                  }
                              }
                          } else {
                              if (features[538] < 4.786232352256775) {
                                  return 0;
                              } else {
                                  return 7;
                              }
                          }
                      } else {
                          if (features[33] < 0.527839869260788) {
                              if (features[570] < 0.5415124893188477) {
                                  if (features[562] < -0.5800748467445374) {
                                      return 7;
                                  } else {
                                      return 4;
                                  }
                              } else {
                                  if (features[969] < 0.730906069278717) {
                                      return 6;
                                  } else {
                                      if (features[679] < 0.46578792575746775) {
                                          return 3;
                                      } else {
                                          return 7;
                                      }
                                  }
                              }
                          } else {
                              if (features[694] < 0.7329464554786682) {
                                  if (features[542] < 1.6308377385139465) {
                                      return 3;
                                  } else {
                                      if (features[934] < 1.6729788780212402) {
                                          return 4;
                                      } else {
                                          return 7;
                                      }
                                  }
                              } else {
                                  return 4;
                              }
                          }
                      }
                  }
              } else {
                  if (features[4] < 1.3754894733428955) {
                      if (features[1020] < -0.10520901111885905) {
                          if (features[215] < 0.7947780191898346) {
                              return 9;
                          } else {
                              if (features[700] < 0.7511889338493347) {
                                  return 7;
                              } else {
                                  return 8;
                              }
                          }
                      } else {
                          if (features[1] < -0.20697998255491257) {
                              return 3;
                          } else {
                              return 7;
                          }
                      }
                  } else {
                      return 4;
                  }
              }
          }
        }
        

int32_t decision_tree0_predict(const float *features, int32_t features_length) {

        int32_t votes[10] = {0,};
        int32_t _class = -1;

        _class = decision_tree0_predict_tree_0(features, features_length); votes[_class] += 1;
    
        int32_t most_voted_class = -1;
        int32_t most_voted_votes = 0;
        for (int32_t i=0; i<10; i++) {

            if (votes[i] > most_voted_votes) {
                most_voted_class = i;
                most_voted_votes = votes[i];
            }
        }
        return most_voted_class;
    }
    