
    // !!! This file is generated using emlearn !!!

    #include <eml_trees.h>
    

EmlTreesNode myinlinetree_nodes[14346] = {
  { 679, -0.36257216334342957, 1, 15 },
  { 150, -0.6418929398059845, 2, 7 },
  { 513, -0.5620754361152649, 3, 6 },
  { 1005, -0.6331686675548553, 4, 5 },
  { 184, -0.5470435321331024, 5, 6 },
  { -1, 1, -1, -1 },
  { -1, 5, -1, -1 },
  { 475, 0.023943625390529633, 8, 14 },
  { 868, -0.43848955631256104, 9, 6 },
  { 53, -0.5131848603487015, 10, 11 },
  { -1, 8, -1, -1 },
  { 560, -0.44439567625522614, 12, 13 },
  { -1, 9, -1, -1 },
  { -1, 2, -1, -1 },
  { 564, -0.31200970709323883, 5, 13 },
  { 816, 0.14575433731079102, 16, 149 },
  { 141, -0.3963233083486557, 17, 78 },
  { 527, -0.7029892802238464, 18, 39 },
  { 835, -0.3681710809469223, 19, 23 },
  { 345, -0.21956875175237656, 20, 21 },
  { 433, -0.5579404234886169, 5, 13 },
  { 13, -0.744416743516922, 22, 6 },
  { -1, 0, -1, -1 },
  { 30, -0.6531946063041687, 24, 36 },
  { 600, -0.545220822095871, 25, 35 },
  { 506, -0.763083815574646, 26, 27 },
  { 48, -0.6852346956729889, 6, 10 },
  { 307, -0.26824577152729034, 28, 34 },
  { 577, -0.7131314277648926, 22, 29 },
  { 1018, -0.46454060077667236, 30, 13 },
  { 606, -0.6064564287662506, 31, 12 },
  { 372, -0.34893253445625305, 32, 33 },
  { -1, 4, -1, -1 },
  { -1, 3, -1, -1 },
  { -1, 7, -1, -1 },
  { -1, 6, -1, -1 },
  { 534, -0.43283411860466003, 12, 37 },
  { 74, -0.41579675674438477, 38, 33 },
  { 435, -0.5025159269571304, 22, 32 },
  { 391, -0.25507979094982147, 40, 48 },
  { 830, -0.27767834067344666, 41, 10 },
  { 510, -0.41823144257068634, 42, 46 },
  { 631, -0.4520975202322006, 43, 45 },
  { 775, -0.21521225571632385, 5, 44 },
  { 516, -0.13893884420394897, 13, 5 },
  { 506, -0.7138093113899231, 6, 22 },
  { 880, -0.6240540742874146, 6, 47 },
  { 64, -0.7020477056503296, 22, 10 },
  { 1012, 1.0571898818016052, 49, 77 },
  { 69, -0.5600521266460419, 50, 57 },
  { 132, -0.3454500138759613, 51, 52 },
  { 705, -0.4028347581624985, 6, 22 },
  { 602, -0.5548513531684875, 53, 55 },
  { 911, -0.5534007847309113, 32, 54 },
  { 898, -0.5331903100013733, 35, 10 },
  { 16, 0.036032441072165966, 10, 56 },
  { 967, -0.5054869055747986, 33, 12 },
  { 888, -0.027618970721960068, 58, 5 },
  { 141, -0.4118044078350067, 59, 13 },
  { 556, -0.07521570101380348, 60, 73 },
  { 4, -0.07084779441356659, 61, 70 },
  { 549, 0.0989028811454773, 62, 65 },
  { 796, -0.35845452547073364, 63, 10 },
  { 47, -0.45148903131484985, 6, 64 },
  { 454, -0.20016073435544968, 32, 35 },
  { 284, -0.2484133541584015, 66, 34 },
  { 575, -0.4841311573982239, 32, 67 },
  { 653, -0.579310953617096, 6, 68 },
  { 598, -0.5462765991687775, 13, 69 },
  { 525, -0.5210874825716019, 33, 12 },
  { 568, -0.43408095836639404, 71, 12 },
  { 664, -0.4184064269065857, 72, 33 },
  { 494, -0.6515728831291199, 22, 32 },
  { 510, -0.27186010777950287, 74, 10 },
  { 716, -0.3927419185638428, 75, 76 },
  { 712, -0.36446502804756165, 22, 13 },
  { 468, 0.2565857768058777, 13, 34 },
  { 151, -0.2458239495754242, 6, 13 },
  { 73, 2.2485692501068115, 79, 35 },
  { 1, -0.1990354284644127, 80, 116 },
  { 826, -0.21469005197286606, 81, 106 },
  { 74, -0.19118325412273407, 82, 96 },
  { 722, -0.27143412828445435, 83, 87 },
  { 537, -0.10375408641994, 84, 86 },
  { 551, -0.5981824696063995, 33, 85 },
  { 371, -0.37948328256607056, 12, 22 },
  { 243, -0.24910036474466324, 10, 13 },
  { 720, -0.12940919399261475, 88, 93 },
  { 595, -0.4766756147146225, 89, 90 },
  { 458, -0.34586408734321594, 33, 10 },
  { 787, -0.37287408113479614, 91, 22 },
  { 969, -0.45314495265483856, 92, 12 },
  { 457, -0.4685068279504776, 12, 33 },
  { 389, -0.184068962931633, 94, 35 },
  { 472, -0.5336746573448181, 95, 13 },
  { 859, -0.3981960266828537, 6, 22 },
  { 585, 0.09960535168647766, 97, 101 },
  { 443, -0.2207273170351982, 98, 99 },
  { 826, -0.2774907648563385, 22, 12 },
  { 1013, -0.04884728044271469, 35, 100 },
  { 836, -0.2827892526984215, 35, 12 },
  { 703, -0.39198385179042816, 22, 102 },
  { 32, 0.5858711525797844, 103, 12 },
  { 310, -0.11821650713682175, 10, 104 },
  { 677, -0.257801778614521, 33, 105 },
  { 868, -0.006184283643960953, 35, 6 },
  { 826, -0.17948844283819199, 12, 107 },
  { 887, -0.18332403898239136, 108, 109 },
  { 585, -0.6280486136674881, 22, 12 },
  { 138, -0.005317102069966495, 110, 111 },
  { 658, 0.0336637319996953, 33, 13 },
  { 619, 0.4229327142238617, 112, 33 },
  { 10, 0.04258563369512558, 113, 12 },
  { 200, -0.10820559412240982, 35, 114 },
  { 108, -0.03602154925465584, 10, 115 },
  { 551, 0.07675869762897491, 34, 6 },
  { 968, 1.2597739696502686, 117, 145 },
  { 440, 0.7038393318653107, 118, 139 },
  { 807, -0.22711800038814545, 119, 131 },
  { 916, -0.21849551796913147, 120, 127 },
  { 564, -0.3534536510705948, 121, 124 },
  { 385, -0.27433349192142487, 122, 33 },
  { 551, 0.020067647099494934, 123, 22 },
  { 344, -0.26524291932582855, 12, 32 },
  { 139, -0.33557866513729095, 125, 126 },
  { 360, -0.45403848588466644, 10, 32 },
  { 885, 0.28810495510697365, 13, 34 },
  { 415, 0.06932772044092417, 128, 35 },
  { 291, -0.15298481285572052, 129, 130 },
  { 296, -0.18978450447320938, 12, 32 },
  { 573, -0.13749852078035474, 35, 33 },
  { 981, -0.4840118736028671, 132, 135 },
  { 702, 0.10264867916703224, 133, 134 },
  { 1009, -0.5273120999336243, 10, 32 },
  { 417, 0.08397750183939934, 34, 12 },
  { 299, -0.10949263349175453, 12, 136 },
  { 529, -0.641042172908783, 33, 137 },
  { 717, -0.2363777756690979, 138, 32 },
  { 387, -0.28293897211551666, 32, 33 },
  { 310, 0.07784627005457878, 140, 143 },
  { 434, 0.6767989099025726, 33, 141 },
  { 34, 0.32790257036685944, 142, 22 },
  { 936, 0.7043724656105042, 35, 32 },
  { 561, 0.5876056849956512, 144, 13 },
  { 675, 0.45690828561782837, 32, 12 },
  { 227, -0.16928300261497498, 22, 146 },
  { 157, 0.6748404502868652, 147, 32 },
  { 738, 0.0667290217243135, 148, 35 },
  { 224, 0.001184161752462387, 34, 33 },
  { 1005, 0.48743315041065216, 150, 34 },
  { 900, 0.9245772063732147, 151, 154 },
  { 490, -0.1898462101817131, 34, 152 },
  { 100, 0.1321456916630268, 153, 32 },
  { 299, 0.2233712151646614, 12, 33 },
  { 442, -0.07159560732543468, 10, 155 },
  { 586, 0.9831433892250061, 32, 156 },
  { 581, 0.7851228713989258, 34, 10 },
  { 693, -0.5624759197235107, 158, 171 },
  { 2, -0.7288621962070465, 159, 163 },
  { 848, -0.5925313830375671, 160, 6 },
  { 647, -0.4551910310983658, 161, 22 },
  { 734, -0.29298529028892517, 5, 162 },
  { 712, -0.3934907764196396, 6, 5 },
  { 478, -0.307437002658844, 164, 169 },
  { 603, -0.6669456660747528, 165, 166 },
  { 1016, -0.06441247463226318, 6, 13 },
  { 324, -0.2677013576030731, 5, 167 },
  { 672, -0.3900023549795151, 168, 6 },
  { 881, -0.3583093285560608, 10, 13 },
  { 706, -0.3998728096485138, 22, 170 },
  { 571, -0.7164468467235565, 13, 5 },
  { 262, 0.9505307078361511, 172, 299 },
  { 716, -0.23626462370157242, 173, 255 },
  { 517, 0.20635367929935455, 174, 238 },
  { 143, -0.1818947121500969, 175, 205 },
  { 502, -0.15102016180753708, 176, 198 },
  { 838, -0.4078526049852371, 177, 178 },
  { 318, -0.2397203966975212, 33, 6 },
  { 513, -0.4370933920145035, 179, 190 },
  { 356, -0.18906136602163315, 180, 189 },
  { 875, -0.47352102398872375, 181, 183 },
  { 63, -0.6578864455223083, 182, 13 },
  { 264, -0.20196335017681122, 22, 32 },
  { 310, -0.13505268096923828, 184, 186 },
  { 321, -0.3745185285806656, 22, 185 },
  { 505, -0.8597582280635834, 35, 12 },
  { 271, -0.13165383785963058, 33, 187 },
  { 149, -0.27414996922016144, 34, 188 },
  { 339, -0.4325834661722183, 6, 35 },
  { 626, -0.23024184256792068, 10, 22 },
  { 390, -0.23181071877479553, 191, 196 },
  { 880, -0.6207432150840759, 192, 193 },
  { 587, -0.6096761226654053, 32, 22 },
  { 23, 0.24296467006206512, 194, 12 },
  { 430, -0.3511783182621002, 195, 13 },
  { 510, -0.4824630618095398, 32, 10 },
  { 402, -0.26842838525772095, 197, 32 },
  { 700, -0.3839402049779892, 22, 13 },
  { 879, -0.29848024249076843, 199, 202 },
  { 408, -0.37840722501277924, 200, 6 },
  { 545, -0.504291832447052, 13, 201 },
  { 782, -0.3396211862564087, 32, 10 },
  { 889, -0.3454965651035309, 203, 204 },
  { 24, -0.584761768579483, 12, 13 },
  { 527, -0.13692808151245117, 12, 6 },
  { 749, -0.3791639804840088, 206, 213 },
  { 618, -0.19963186234235764, 207, 209 },
  { 68, -0.43887506425380707, 208, 35 },
  { 239, -0.10662714391946793, 33, 12 },
  { 514, -0.6910618841648102, 12, 210 },
  { 561, -0.5051699429750443, 32, 211 },
  { 413, 0.2553372047841549, 33, 212 },
  { 519, -0.5659579932689667, 35, 22 },
  { 816, -0.11581400036811829, 214, 235 },
  { 279, -0.16665153205394745, 215, 216 },
  { 906, 0.33148056268692017, 33, 22 },
  { 66, -0.23779265582561493, 217, 225 },
  { 1002, -0.3734324276447296, 218, 221 },
  { 1002, -0.38841913640499115, 219, 12 },
  { 699, -0.31669384241104126, 32, 220 },
  { 252, -0.08330079540610313, 35, 6 },
  { 746, -0.3165734112262726, 222, 223 },
  { 874, -0.1956782829365693, 10, 22 },
  { 837, -0.3270249366760254, 33, 224 },
  { 660, 4.037130728363991, 13, 22 },
  { 584, 0.23539341241121292, 226, 231 },
  { 513, -0.11130593344569206, 227, 230 },
  { 959, 0.7403360903263092, 228, 229 },
  { 851, -0.5133250504732132, 12, 35 },
  { 152, -0.2657887116074562, 6, 12 },
  { 972, -0.10910023585893214, 32, 35 },
  { 739, -0.3499614745378494, 12, 232 },
  { 698, -0.29717741906642914, 10, 233 },
  { 237, -0.3181035667657852, 33, 234 },
  { 756, -0.26372377574443817, 22, 32 },
  { 984, -0.40084241330623627, 236, 33 },
  { 465, -0.3493022844195366, 10, 237 },
  { 579, -0.489657923579216, 13, 35 },
  { 751, -0.17501000314950943, 239, 251 },
  { 189, -0.1568959802389145, 240, 247 },
  { 350, -0.475811168551445, 13, 241 },
  { 949, 0.05069369077682495, 242, 244 },
  { 154, -0.1851934716105461, 22, 243 },
  { 65, 0.3173294346779585, 35, 22 },
  { 466, 0.1308163022622466, 245, 32 },
  { 1016, 0.266886867582798, 22, 246 },
  { 759, -0.08279022201895714, 6, 12 },
  { 958, 0.8610345721244812, 248, 22 },
  { 40, -0.16003955667838454, 249, 250 },
  { 933, -0.3647276908159256, 32, 35 },
  { 680, 0.6816729307174683, 12, 13 },
  { 17, -0.4841542989015579, 32, 252 },
  { 504, 1.3897907733917236, 253, 254 },
  { 899, -0.20364927500486374, 12, 33 },
  { 987, 0.02039235830307007, 35, 13 },
  { 892, -0.022382430732250214, 256, 273 },
  { 319, 0.08251973241567612, 257, 271 },
  { 924, -0.2373611107468605, 258, 266 },
  { 589, -0.5400552153587341, 259, 261 },
  { 511, -0.37060557305812836, 260, 10 },
  { 25, -0.6428438127040863, 12, 34 },
  { 960, -0.5376434624195099, 262, 263 },
  { 191, -0.3143840879201889, 6, 32 },
  { 979, -0.4822986125946045, 264, 33 },
  { 565, -0.45856964588165283, 12, 265 },
  { 891, -0.31158867478370667, 5, 13 },
  { 553, 0.27279578149318695, 267, 34 },
  { 994, 0.2038330095820129, 268, 13 },
  { 597, -0.2569100856781006, 34, 269 },
  { 517, 0.3889281749725342, 270, 12 },
  { 92, -0.189447071403265, 10, 6 },
  { 815, 0.5751928687095642, 272, 34 },
  { 837, -0.0744544193148613, 13, 33 },
  { 1023, -0.009264398366212845, 274, 283 },
  { 431, 0.6159592568874359, 275, 282 },
  { 5, -0.5179774165153503, 10, 276 },
  { 514, 0.05002468824386597, 277, 280 },
  { 61, -0.3421422019600868, 278, 279 },
  { 171, -0.04177355766296387, 34, 13 },
  { 270, -0.29051199555397034, 32, 12 },
  { 104, 0.1839464083313942, 33, 281 },
  { 286, 0.023295234888792038, 32, 13 },
  { 293, -0.12581364065408707, 35, 33 },
  { 983, 0.30080628395080566, 284, 292 },
  { 207, 0.11983778700232506, 285, 291 },
  { 668, 1.8533154726028442, 286, 10 },
  { 572, 2.6733665466308594, 287, 13 },
  { 769, 1.31145179271698, 288, 34 },
  { 529, -0.5939891338348389, 33, 289 },
  { 9, -0.4837091267108917, 290, 32 },
  { 565, -0.030621157959103584, 10, 32 },
  { 926, -0.2851777896285057, 10, 34 },
  { 639, 0.8116398453712463, 293, 295 },
  { 873, 0.21731168776750565, 294, 33 },
  { 445, 4.1188788414001465, 12, 13 },
  { 572, 0.4961766302585602, 34, 296 },
  { 104, 3.4273361563682556, 297, 35 },
  { 405, 0.2351318672299385, 298, 32 },
  { 940, 1.0228057857602835, 10, 22 },
  { 530, -0.32386960089206696, 32, 300 },
  { 797, 10.105079650878906, 301, 10 },
  { 771, 0.5795077830553055, 10, 302 },
  { 97, 0.01533487532287836, 303, 34 },
  { 95, -0.005530675873160362, 34, 33 },
  { 199, -0.16985851526260376, 305, 308 },
  { 188, -0.2682769298553467, 306, 307 },
  { 310, -0.14124780893325806, 5, 6 },
  { 123, -0.49318927526474, 6, 5 },
  { 228, 0.9731332659721375, 309, 454 },
  { 351, -0.20096606016159058, 310, 370 },
  { 837, -0.37853266298770905, 311, 328 },
  { 74, -0.18212582170963287, 312, 325 },
  { 540, -0.5567570924758911, 313, 317 },
  { 526, -0.787693202495575, 5, 314 },
  { 728, -0.31808601319789886, 32, 315 },
  { 273, -0.058790802489966154, 316, 6 },
  { 367, -0.16852206736803055, 12, 22 },
  { 627, -0.59201380610466, 318, 320 },
  { 993, -0.536402702331543, 13, 319 },
  { 25, -0.48565420508384705, 6, 5 },
  { 69, -0.5434585511684418, 321, 324 },
  { 818, -0.24389825016260147, 322, 13 },
  { 19, 0.7315830290317535, 323, 13 },
  { 690, -0.4813156872987747, 13, 6 },
  { 472, -0.3161666691303253, 10, 13 },
  { 61, -0.09613820910453796, 22, 326 },
  { 906, -0.49921970069408417, 5, 327 },
  { 823, -0.2461712434887886, 35, 10 },
  { 1016, -0.6332131624221802, 329, 345 },
  { 77, -0.5403372645378113, 330, 337 },
  { 119, -0.2916679382324219, 331, 334 },
  { 123, -0.4918299615383148, 34, 332 },
  { 896, -0.5084932297468185, 12, 333 },
  { 142, -0.5900245010852814, 5, 6 },
  { 781, -0.32589417695999146, 335, 336 },
  { 968, -0.604589432477951, 35, 6 },
  { 440, -0.5229713320732117, 10, 13 },
  { 595, -0.45186254382133484, 338, 344 },
  { 2, -0.6436425149440765, 6, 339 },
  { 333, -0.2540148049592972, 12, 340 },
  { 1014, -0.6184934377670288, 341, 34 },
  { 811, -0.17495564371347427, 342, 10 },
  { 1013, -0.4877391457557678, 343, 13 },
  { 977, -0.6808142364025116, 33, 35 },
  { 651, -0.47476449608802795, 32, 13 },
  { 960, -0.650072455406189, 346, 349 },
  { 845, -0.46186813712120056, 6, 347 },
  { 109, -0.4503588527441025, 22, 348 },
  { 287, -0.2128162831068039, 22, 32 },
  { 923, -0.45615436136722565, 350, 358 },
  { 336, -0.36481334269046783, 351, 356 },
  { 537, -0.5688519179821014, 10, 352 },
  { 999, 0.36040645837783813, 353, 22 },
  { 553, 0.719275027513504, 354, 6 },
  { 566, -0.5892387926578522, 355, 13 },
  { 659, -0.4269254505634308, 13, 33 },
  { 719, -0.12520118430256844, 10, 357 },
  { 880, -0.42351992428302765, 12, 34 },
  { 732, -0.2722417712211609, 359, 367 },
  { 1002, -0.25031694769859314, 360, 366 },
  { 892, -0.2742149829864502, 361, 10 },
  { 449, 0.09216923266649246, 362, 33 },
  { 963, -0.5136871486902237, 32, 363 },
  { 861, -0.2161371409893036, 12, 364 },
  { 776, -0.2963976413011551, 13, 365 },
  { 991, -0.4259323626756668, 10, 5 },
  { 343, -0.6104369461536407, 13, 22 },
  { 206, -0.14191140979528427, 368, 6 },
  { 819, -0.33538636565208435, 10, 369 },
  { 282, -0.17173434048891068, 12, 34 },
  { 398, 0.4308411628007889, 371, 450 },
  { 0, 0.3369171470403671, 372, 435 },
  { 7, -0.6156384944915771, 373, 387 },
  { 458, -0.18189509212970734, 374, 385 },
  { 581, -0.31695957481861115, 375, 384 },
  { 326, -0.19903507083654404, 376, 378 },
  { 942, -0.5915051996707916, 377, 12 },
  { 723, -0.21313364058732986, 33, 10 },
  { 793, -0.30300916731357574, 35, 379 },
  { 916, 0.17035600170493126, 380, 32 },
  { 723, -0.16598346829414368, 381, 382 },
  { 373, -0.4084278643131256, 32, 33 },
  { 98, -0.3515182286500931, 13, 383 },
  { 281, -0.034785371739417315, 35, 10 },
  { 667, 0.0969413984566927, 33, 32 },
  { 142, 0.05008506402373314, 35, 386 },
  { 210, -0.13739873468875885, 32, 10 },
  { 407, 0.739022970199585, 388, 434 },
  { 853, 0.259229451417923, 389, 429 },
  { 450, -0.29947394132614136, 390, 407 },
  { 742, -0.27129198610782623, 391, 400 },
  { 592, -0.2856324315071106, 392, 399 },
  { 372, -0.267917200922966, 393, 394 },
  { 992, -0.48936472833156586, 22, 10 },
  { 650, -0.14530125260353088, 35, 395 },
  { 519, -0.3011060729622841, 396, 12 },
  { 138, -0.05616157758049667, 32, 397 },
  { 92, -0.22918753698468208, 33, 398 },
  { 971, -0.3481161892414093, 22, 35 },
  { 857, 0.032436856999993324, 22, 12 },
  { 674, -0.2999758869409561, 401, 405 },
  { 914, -0.22010104358196259, 402, 404 },
  { 672, -0.2550516128540039, 13, 403 },
  { 751, 0.04184710793197155, 32, 12 },
  { 368, -0.33747248351573944, 12, 33 },
  { 1008, -0.4306732714176178, 406, 34 },
  { 889, 0.03399648005142808, 10, 33 },
  { 1001, 0.2627085745334625, 408, 424 },
  { 89, 0.5842724740505219, 409, 422 },
  { 380, 0.3983616381883621, 410, 6 },
  { 725, -0.17227128893136978, 411, 420 },
  { 590, -0.11883135139942169, 412, 418 },
  { 913, -0.38846924901008606, 12, 413 },
  { 915, -0.27091047912836075, 13, 414 },
  { 1008, -0.4156747907400131, 35, 415 },
  { 37, -0.005589429289102554, 416, 417 },
  { 406, -0.10610776394605637, 33, 32 },
  { 585, -0.09247606992721558, 12, 22 },
  { 177, -0.1386437490582466, 419, 33 },
  { 540, -0.3313543200492859, 35, 13 },
  { 221, -0.013041106052696705, 12, 421 },
  { 643, -0.23632125183939934, 13, 10 },
  { 105, 0.06325323134660721, 423, 35 },
  { 475, 0.394245982170105, 22, 12 },
  { 616, -0.34146685898303986, 425, 426 },
  { 681, -0.32872068881988525, 34, 32 },
  { 956, 1.710963785648346, 427, 22 },
  { 298, -0.22925633937120438, 13, 428 },
  { 934, 1.7722283601760864, 12, 33 },
  { 111, 0.3827042132616043, 430, 432 },
  { 625, 0.03867782931774855, 13, 431 },
  { 570, -0.08876887522637844, 10, 33 },
  { 227, 0.17889080941677094, 433, 12 },
  { 363, 0.4351056218147278, 35, 32 },
  { 211, -0.10208418220281601, 35, 33 },
  { 969, 0.07313168980181217, 436, 444 },
  { 517, -0.39230793714523315, 437, 439 },
  { 297, 0.02366451732814312, 438, 33 },
  { 416, -0.410515159368515, 32, 10 },
  { 961, -0.5133771598339081, 440, 441 },
  { 708, 0.46916331350803375, 10, 34 },
  { 977, 0.2980349138379097, 442, 443 },
  { 418, -0.47526825964450836, 22, 32 },
  { 87, -0.17305415868759155, 10, 35 },
  { 814, -0.2545657157897949, 22, 445 },
  { 64, 0.8375577628612518, 446, 448 },
  { 617, 0.6208362281322479, 33, 447 },
  { 904, 0.5723035484552383, 34, 32 },
  { 706, 0.0017524100840091705, 35, 449 },
  { 915, 1.1109928041696548, 13, 32 },
  { 166, 1.1151800155639648, 451, 453 },
  { 796, -0.3420623540878296, 452, 35 },
  { 1007, -0.25152651965618134, 10, 22 },
  { 494, -0.1469912752509117, 33, 32 },
  { 195, 2.2281930446624756, 455, 458 },
  { 863, 0.07764539122581482, 10, 456 },
  { 864, 1.837758183479309, 34, 457 },
  { 605, 0.6316334307193756, 34, 32 },
  { 976, 0.9194269366562366, 33, 459 },
  { 946, 1.100955754518509, 32, 34 },
  { 363, -0.30134040117263794, 461, 467 },
  { 563, -0.6568760871887207, 462, 466 },
  { 836, -0.4183706045150757, 463, 465 },
  { 590, -0.6720460057258606, 464, 5 },
  { 512, -0.6828846633434296, 5, 6 },
  { 949, -0.6529349982738495, 6, 5 },
  { 797, -0.358635738492012, 6, 5 },
  { 268, 0.5524292290210724, 468, 599 },
  { 514, -0.42990680038928986, 469, 531 },
  { 663, -0.35848094522953033, 470, 492 },
  { 510, -0.7123196423053741, 471, 479 },
  { 437, -0.31065263599157333, 472, 22 },
  { 636, -0.5856405794620514, 473, 475 },
  { 403, -0.502487450838089, 474, 6 },
  { 442, -0.5840523093938828, 13, 33 },
  { 126, -0.6250861287117004, 476, 477 },
  { 640, -0.5737205147743225, 6, 5 },
  { 139, -0.5688000321388245, 478, 10 },
  { 165, -0.572758287191391, 13, 6 },
  { 42, -0.4274224191904068, 480, 490 },
  { 866, -0.39896173775196075, 481, 487 },
  { 123, -0.5003753304481506, 13, 482 },
  { 962, -0.37642915546894073, 483, 13 },
  { 646, -0.3977533280849457, 484, 486 },
  { 966, -0.6576656997203827, 485, 6 },
  { 189, -0.24571458995342255, 6, 13 },
  { 509, -0.779408723115921, 6, 13 },
  { 565, -0.5610783398151398, 22, 488 },
  { 950, -0.6253630816936493, 33, 489 },
  { 675, -0.20547250658273697, 13, 6 },
  { 558, 0.5032397666946054, 491, 6 },
  { 725, -0.22774917632341385, 32, 13 },
  { 449, -0.0230991099961102, 493, 523 },
  { 339, -0.2584868371486664, 494, 516 },
  { 495, -0.3482608050107956, 495, 510 },
  { 860, -0.421239897608757, 10, 496 },
  { 1009, -0.827416330575943, 35, 497 },
  { 702, -0.25613008439540863, 498, 507 },
  { 6, -0.20289676636457443, 499, 506 },
  { 576, -0.6511110067367554, 500, 503 },
  { 526, -0.44644981622695923, 501, 32 },
  { 847, -0.36481934785842896, 6, 502 },
  { 615, -0.3691322058439255, 12, 22 },
  { 946, -0.2700461894273758, 504, 505 },
  { 274, -0.19495789706707, 10, 12 },
  { 680, -0.3744257241487503, 13, 33 },
  { 207, -0.09152630344033241, 12, 22 },
  { 140, -0.2615418881177902, 508, 13 },
  { 10, -0.2117617018520832, 509, 6 },
  { 815, -0.10465884022414684, 5, 34 },
  { 580, 0.30556873232126236, 511, 22 },
  { 152, -0.23792891949415207, 512, 514 },
  { 4, 0.3692030608654022, 513, 22 },
  { 892, -0.21026986092329025, 13, 10 },
  { 1007, 0.2170805111527443, 33, 515 },
  { 712, -0.2794286832213402, 12, 35 },
  { 208, -0.08810070529580116, 517, 518 },
  { 556, 0.3441135287284851, 22, 33 },
  { 2, -0.43545888364315033, 519, 13 },
  { 553, -0.3249637484550476, 520, 521 },
  { 345, -0.14023329317569733, 6, 32 },
  { 922, 0.08796919882297516, 12, 522 },
  { 919, 1.406709611415863, 10, 33 },
  { 253, -0.156222365796566, 524, 527 },
  { 490, -0.223782230168581, 35, 525 },
  { 441, -0.2718123197555542, 526, 12 },
  { 518, -0.4827432483434677, 22, 6 },
  { 95, 0.2690369635820389, 528, 530 },
  { 15, 1.3632507920265198, 12, 529 },
  { 538, 0.5704478025436401, 13, 12 },
  { 430, 0.16746750473976135, 22, 35 },
  { 663, -0.29883912205696106, 532, 541 },
  { 508, -0.0735178254544735, 533, 537 },
  { 149, -0.21526705473661423, 534, 32 },
  { 298, -0.2374073714017868, 535, 536 },
  { 430, -0.6410133540630341, 32, 22 },
  { 983, 0.8923269808292389, 10, 12 },
  { 518, -0.07113435864448547, 32, 538 },
  { 218, -0.22115761041641235, 539, 6 },
  { 633, -0.29805007576942444, 540, 12 },
  { 937, -0.5783588141202927, 22, 10 },
  { 401, 1.781665563583374, 542, 598 },
  { 712, -0.10655268654227257, 543, 577 },
  { 506, -0.2439180240035057, 544, 558 },
  { 1007, -0.42424939572811127, 545, 554 },
  { 436, -0.06528066471219063, 546, 553 },
  { 635, -0.44793735444545746, 547, 548 },
  { 937, -0.5257032662630081, 33, 10 },
  { 951, -0.28317390382289886, 549, 550 },
  { 676, 0.05298885330557823, 32, 22 },
  { 685, -0.3334365785121918, 33, 551 },
  { 174, -0.15281321480870247, 12, 552 },
  { 228, -0.14030954241752625, 10, 32 },
  { 287, -0.09955434314906597, 35, 12 },
  { 893, 0.15016044583171606, 555, 556 },
  { 569, -0.4786933660507202, 32, 33 },
  { 875, -0.009282553568482399, 32, 557 },
  { 909, -0.0014099478721618652, 10, 35 },
  { 572, 0.883223295211792, 559, 576 },
  { 328, -0.43806062638759613, 22, 560 },
  { 597, -0.2987545281648636, 561, 567 },
  { 112, -0.3650811165571213, 562, 565 },
  { 965, -0.5480137169361115, 10, 563 },
  { 93, -0.4533415734767914, 564, 33 },
  { 991, 0.2761768251657486, 12, 22 },
  { 508, 1.409329891204834, 566, 35 },
  { 259, -0.1569429263472557, 13, 12 },
  { 692, -0.2501084581017494, 568, 570 },
  { 700, -0.3422527015209198, 569, 13 },
  { 448, 0.2947930097579956, 32, 12 },
  { 462, 0.4118977040052414, 571, 33 },
  { 52, -0.19647318869829178, 572, 575 },
  { 906, -0.33883385360240936, 10, 573 },
  { 658, -0.05919955112040043, 574, 12 },
  { 977, 0.23326964676380157, 34, 13 },
  { 77, 0.8533050362020731, 32, 35 },
  { 407, 0.7798949778079987, 22, 33 },
  { 612, -0.017427844926714897, 578, 585 },
  { 455, -0.45553839206695557, 579, 581 },
  { 66, -0.4505760222673416, 580, 34 },
  { 561, -0.4031849354505539, 32, 12 },
  { 632, -0.24738746136426926, 582, 583 },
  { 112, -0.30296552181243896, 12, 33 },
  { 472, 0.7482282095588744, 10, 584 },
  { 660, 0.7565395906567574, 12, 13 },
  { 355, 0.32957033812999725, 586, 587 },
  { 1011, 2.6795480251312256, 32, 6 },
  { 883, 0.5103510171175003, 588, 590 },
  { 668, 0.7952966690063477, 589, 10 },
  { 356, 0.16193237155675888, 13, 33 },
  { 913, 0.8422832190990448, 591, 594 },
  { 75, 0.6087340116500854, 592, 33 },
  { 941, 0.029670454561710358, 32, 593 },
  { 888, 3.1589815616607666, 12, 34 },
  { 439, 1.5433076620101929, 595, 596 },
  { 235, 0.2694079652428627, 32, 10 },
  { 142, 1.392992913722992, 597, 34 },
  { 206, 0.024473480880260468, 22, 33 },
  { 462, 4.515431642532349, 35, 10 },
  { 793, 3.8992403745651245, 34, 600 },
  { 957, 0.6305913031101227, 33, 34 },
  { 256, 0.06468744203448296, 602, 732 },
  { 161, -0.2533903568983078, 603, 607 },
  { 530, -0.7938835322856903, 6, 604 },
  { 1023, -0.5602976381778717, 605, 6 },
  { 918, -0.5900537371635437, 5, 606 },
  { 359, -0.4978429079055786, 6, 5 },
  { 815, -0.17972279340028763, 608, 626 },
  { 841, -0.26754532754421234, 609, 618 },
  { 553, 0.23180539160966873, 610, 617 },
  { 28, -0.6252439320087433, 611, 612 },
  { 664, -0.5974146723747253, 13, 32 },
  { 549, -0.3299619108438492, 613, 614 },
  { 175, -0.18229791522026062, 5, 6 },
  { 100, -0.39551515877246857, 615, 6 },
  { 1023, -0.5572139918804169, 5, 616 },
  { 726, -0.34906741976737976, 13, 10 },
  { 346, -0.46275658905506134, 22, 5 },
  { 941, -0.38809266686439514, 619, 624 },
  { 862, -0.5764798820018768, 620, 623 },
  { 673, -0.38980546593666077, 32, 621 },
  { 939, -0.6588256359100342, 622, 33 },
  { 63, -0.6357075273990631, 6, 5 },
  { 781, -0.32436490058898926, 22, 12 },
  { 920, -0.26815383951179683, 13, 625 },
  { 1003, -0.439522847533226, 35, 6 },
  { 169, -0.373601958155632, 627, 679 },
  { 848, -0.5349844396114349, 628, 640 },
  { 515, -0.629183441400528, 629, 635 },
  { 893, -0.6634036600589752, 13, 630 },
  { 820, -0.4044639766216278, 22, 631 },
  { 644, -0.3973315805196762, 632, 10 },
  { 253, -0.15964920818805695, 35, 633 },
  { 470, -0.5051286965608597, 12, 634 },
  { 609, -0.5789670050144196, 32, 13 },
  { 959, -0.743585854768753, 636, 637 },
  { 1019, -0.7607646882534027, 34, 22 },
  { 576, 1.2830525636672974, 638, 13 },
  { 360, -0.47899773716926575, 639, 35 },
  { 511, 0.18289004638791084, 10, 32 },
  { 964, -0.684217780828476, 641, 644 },
  { 302, -0.16315412521362305, 642, 643 },
  { 805, -0.37241576611995697, 35, 22 },
  { 434, -0.44469161331653595, 6, 32 },
  { 1004, -0.04616626910865307, 645, 669 },
  { 7, -0.2499425783753395, 646, 666 },
  { 821, -0.31220439076423645, 647, 658 },
  { 961, -0.45343367755413055, 648, 651 },
  { 992, -0.6646994352340698, 649, 650 },
  { 507, -0.5718766897916794, 12, 35 },
  { 586, -0.6867944002151489, 10, 32 },
  { 412, -0.2200450524687767, 652, 657 },
  { 1000, -0.20175237953662872, 653, 6 },
  { 66, -0.30952078104019165, 654, 12 },
  { 202, -0.13551658391952515, 13, 655 },
  { 534, -0.2311060130596161, 656, 22 },
  { 902, -0.38269518315792084, 32, 10 },
  { 899, -0.20226188004016876, 35, 33 },
  { 730, -0.28333547711372375, 10, 659 },
  { 215, -0.16446219384670258, 660, 661 },
  { 211, -0.08390160836279392, 32, 12 },
  { 196, -0.23425544053316116, 662, 665 },
  { 787, -0.28994031250476837, 6, 663 },
  { 817, -0.09195533767342567, 664, 12 },
  { 30, -0.569355234503746, 35, 33 },
  { 818, -0.18472690880298615, 13, 10 },
  { 29, -0.35131582617759705, 667, 668 },
  { 613, -0.36684925854206085, 13, 22 },
  { 326, -0.24545691907405853, 13, 12 },
  { 64, 0.10473397467285395, 670, 674 },
  { 996, -0.2948468029499054, 671, 673 },
  { 974, -0.29982544481754303, 672, 13 },
  { 190, -0.24694492667913437, 34, 12 },
  { 447, -0.5980364382266998, 10, 13 },
  { 566, 1.128048449754715, 675, 22 },
  { 965, 0.6998628079891205, 676, 12 },
  { 542, 0.02652835100889206, 35, 677 },
  { 569, -0.1545465225353837, 33, 678 },
  { 62, 1.3346753790974617, 13, 6 },
  { 92, 2.8986037969589233, 680, 731 },
  { 996, -0.12291250750422478, 681, 706 },
  { 813, -0.1531088948249817, 682, 695 },
  { 437, -0.12333422899246216, 683, 693 },
  { 1003, -0.2897443026304245, 684, 691 },
  { 768, -0.17841574549674988, 685, 687 },
  { 340, -0.20424778759479523, 686, 33 },
  { 842, -0.17239577893633395, 22, 12 },
  { 165, -0.18347828835248947, 688, 32 },
  { 948, -0.49997764825820923, 689, 35 },
  { 892, -0.2759047895669937, 12, 690 },
  { 396, -0.3233684301376343, 10, 32 },
  { 955, -0.4574684798717499, 22, 692 },
  { 1021, -0.5483945459127426, 35, 13 },
  { 866, -0.337217316031456, 22, 694 },
  { 90, -0.14000345766544342, 33, 35 },
  { 189, -0.08196230605244637, 696, 700 },
  { 512, 0.11557189375162125, 697, 10 },
  { 511, -0.060266442596912384, 698, 34 },
  { 971, -0.31553376466035843, 699, 12 },
  { 935, -0.537939578294754, 32, 13 },
  { 19, -0.366488441824913, 701, 703 },
  { 198, -0.015293775126338005, 13, 702 },
  { 368, 2.364986538887024, 33, 10 },
  { 223, 0.3832884728908539, 704, 10 },
  { 755, 0.9813936650753021, 705, 12 },
  { 981, 0.2642701640725136, 32, 34 },
  { 193, -0.3013937324285507, 707, 708 },
  { 828, -0.3894081115722656, 32, 22 },
  { 393, -0.09205874055624008, 709, 713 },
  { 514, -0.5126580893993378, 710, 711 },
  { 8, 0.7342801876366138, 12, 34 },
  { 858, 0.34833432734012604, 712, 13 },
  { 488, -0.3754196763038635, 22, 33 },
  { 217, -0.20819150656461716, 714, 715 },
  { 31, 1.785804569721222, 12, 35 },
  { 721, -0.14756597578525543, 716, 717 },
  { 786, -0.25823499262332916, 32, 22 },
  { 949, 0.6684547364711761, 718, 725 },
  { 515, 0.769946962594986, 719, 32 },
  { 531, 0.3518078774213791, 720, 724 },
  { 255, -0.2041219025850296, 721, 722 },
  { 1016, -0.1927017793059349, 32, 35 },
  { 454, -0.21084558218717575, 723, 12 },
  { 679, -0.023902349174022675, 34, 10 },
  { 953, 0.10980787873268127, 6, 13 },
  { 54, 0.7803852558135986, 33, 726 },
  { 927, 3.9363579750061035, 727, 34 },
  { 282, 0.01551700267009437, 728, 12 },
  { 542, 0.15815558284521103, 35, 729 },
  { 466, 0.8683404326438904, 33, 730 },
  { 694, 0.3599660098552704, 13, 22 },
  { 500, -0.45842522382736206, 10, 35 },
  { 94, 2.3589295148849487, 733, 739 },
  { 761, 0.2474455013871193, 32, 734 },
  { 208, 1.2204324007034302, 735, 32 },
  { 810, 4.03609836101532, 736, 738 },
  { 99, -0.15394387394189835, 33, 737 },
  { 867, 4.1417683362960815, 34, 32 },
  { 684, 2.57772558927536, 33, 34 },
  { 460, 3.021769940853119, 12, 10 },
  { 188, -0.2686939686536789, 741, 744 },
  { 400, -0.457665279507637, 742, 6 },
  { 460, -0.639229953289032, 743, 5 },
  { 786, -0.26690730452537537, 5, 6 },
  { 706, -0.39069145917892456, 745, 764 },
  { 583, 0.24596793949604034, 746, 761 },
  { 943, -0.3707251697778702, 747, 760 },
  { 816, -0.15280630439519882, 748, 755 },
  { 540, -0.5485954582691193, 749, 752 },
  { 1008, -0.6639072895050049, 750, 13 },
  { 1012, -0.6262056827545166, 751, 5 },
  { 169, -0.6459159255027771, 6, 32 },
  { 378, -0.2660185247659683, 753, 754 },
  { 416, -0.576628178358078, 6, 5 },
  { 456, -0.12385200336575508, 6, 5 },
  { 1, -0.5479893088340759, 756, 757 },
  { 45, -0.6399809420108795, 13, 5 },
  { 171, -0.23307079821825027, 13, 758 },
  { 674, -0.6360925436019897, 6, 759 },
  { 406, -0.46809251606464386, 22, 10 },
  { 127, -0.37899045646190643, 13, 6 },
  { 53, -0.3339499160647392, 22, 762 },
  { 770, -0.29091237485408783, 763, 10 },
  { 127, -0.2663802057504654, 6, 35 },
  { 758, 1.0795159339904785, 765, 881 },
  { 453, 0.08565732836723328, 766, 845 },
  { 174, -0.13661912083625793, 767, 822 },
  { 51, -0.5235436856746674, 768, 793 },
  { 583, -0.5966848134994507, 769, 785 },
  { 1018, -0.4928995370864868, 770, 779 },
  { 327, -0.11498825252056122, 771, 32 },
  { 949, -0.5328586995601654, 772, 6 },
  { 83, -0.469748854637146, 773, 35 },
  { 542, -0.7115983664989471, 34, 774 },
  { 435, -0.5528497695922852, 775, 33 },
  { 332, -0.3759269118309021, 776, 778 },
  { 898, -0.6763100624084473, 13, 777 },
  { 213, -0.12745076417922974, 32, 10 },
  { 460, -0.6222448647022247, 6, 12 },
  { 297, -0.2245877906680107, 780, 784 },
  { 961, -0.5195556879043579, 781, 13 },
  { 58, -0.6086852252483368, 22, 782 },
  { 703, -0.42402321100234985, 783, 12 },
  { 1001, -0.27949799597263336, 32, 22 },
  { 109, -0.4203166216611862, 34, 6 },
  { 211, -0.14173819869756699, 786, 791 },
  { 264, -0.20083316415548325, 787, 32 },
  { 422, -0.5045313984155655, 22, 788 },
  { 370, -0.5030844509601593, 789, 10 },
  { 434, -0.5769963264465332, 33, 790 },
  { 529, -0.6207468956708908, 35, 13 },
  { 304, -0.07534237578511238, 792, 6 },
  { 343, -0.3110618144273758, 10, 12 },
  { 426, 0.1994783580303192, 794, 22 },
  { 995, 0.3066242039203644, 795, 821 },
  { 846, -0.28634013235569, 796, 813 },
  { 951, -0.7031039893627167, 10, 797 },
  { 513, 0.2305072769522667, 798, 32 },
  { 947, 0.3228275179862976, 799, 33 },
  { 527, -0.6153057813644409, 800, 805 },
  { 17, -0.6186177134513855, 801, 803 },
  { 124, -0.3320554494857788, 802, 35 },
  { 498, -0.7196025848388672, 6, 32 },
  { 916, -0.2803001403808594, 12, 804 },
  { 781, -0.3213205188512802, 33, 22 },
  { 934, -0.4369872361421585, 806, 811 },
  { 350, -0.35314416885375977, 807, 33 },
  { 63, -0.5371153950691223, 34, 808 },
  { 503, 4.72568678855896, 809, 6 },
  { 1018, -0.4300726652145386, 13, 810 },
  { 320, -0.1221088171005249, 5, 12 },
  { 696, -0.14975901134312153, 812, 10 },
  { 920, 0.022985629737377167, 13, 22 },
  { 633, 0.3516673147678375, 814, 818 },
  { 625, -0.4705793708562851, 10, 815 },
  { 294, -0.052948396652936935, 12, 816 },
  { 358, -0.36755868792533875, 34, 817 },
  { 444, -0.39921802282333374, 12, 33 },
  { 68, 0.04331718385219574, 819, 33 },
  { 939, -0.003950387239456177, 22, 820 },
  { 553, 0.3369959741830826, 32, 34 },
  { 42, -0.4254566431045532, 22, 13 },
  { 724, 1.1083933115005493, 823, 10 },
  { 727, 0.03660669922828674, 824, 840 },
  { 648, -0.20414501428604126, 825, 830 },
  { 706, -0.20698655396699905, 826, 827 },
  { 975, -0.5267561674118042, 22, 32 },
  { 669, -0.23856615275144577, 828, 35 },
  { 108, -0.3446744382381439, 10, 829 },
  { 392, -0.3682995140552521, 13, 33 },
  { 934, 0.026202593930065632, 831, 836 },
  { 459, -0.38692501187324524, 832, 834 },
  { 606, -0.11193657107651234, 12, 833 },
  { 805, -0.22202908992767334, 10, 13 },
  { 134, 0.010178688447922468, 33, 835 },
  { 871, 0.015278566628694534, 35, 34 },
  { 141, 0.2642759308218956, 837, 32 },
  { 481, -0.22424457222223282, 838, 839 },
  { 287, -0.15442264080047607, 22, 10 },
  { 69, 0.2610074132680893, 12, 13 },
  { 552, -0.06901007145643234, 841, 12 },
  { 182, -0.16948336362838745, 10, 842 },
  { 1003, 0.43434034287929535, 843, 844 },
  { 17, -0.5812244117259979, 10, 32 },
  { 738, 0.22311535105109215, 33, 34 },
  { 1001, 0.04924558848142624, 846, 866 },
  { 593, 1.488713026046753, 847, 864 },
  { 521, 0.6796367466449738, 848, 862 },
  { 103, -0.30099958181381226, 849, 850 },
  { 407, -0.44094468653202057, 6, 22 },
  { 1023, -0.51900315284729, 851, 853 },
  { 583, -0.20542161911725998, 12, 852 },
  { 205, -0.1790807619690895, 35, 6 },
  { 275, -0.04758474417030811, 854, 861 },
  { 218, -0.016777063719928265, 855, 32 },
  { 574, 3.7594594955444336, 856, 22 },
  { 18, 0.18575365841388702, 857, 859 },
  { 1003, -0.4954334795475006, 858, 35 },
  { 945, 0.9087032824754715, 35, 32 },
  { 403, 0.4186450392007828, 860, 35 },
  { 876, -0.02630644105374813, 33, 12 },
  { 130, -0.087071034591645, 12, 32 },
  { 863, 0.14462534338235855, 22, 863 },
  { 819, 0.5096000581979752, 13, 33 },
  { 1000, -0.41009584069252014, 32, 865 },
  { 214, -0.19367656111717224, 22, 33 },
  { 712, -0.27841533720493317, 867, 869 },
  { 754, -0.34923897683620453, 868, 22 },
  { 297, -0.23281119018793106, 12, 35 },
  { 441, -0.1749257668852806, 13, 870 },
  { 11, -0.10017349943518639, 871, 872 },
  { 806, -0.34773311018943787, 35, 33 },
  { 214, -0.1993093118071556, 12, 873 },
  { 981, 4.324949264526367, 874, 34 },
  { 957, 1.0167699456214905, 875, 879 },
  { 402, 0.8698122501373291, 876, 35 },
  { 765, -0.1517236828804016, 877, 878 },
  { 660, -0.03685158118605614, 6, 13 },
  { 298, 0.25795931555330753, 33, 12 },
  { 395, 2.5482397079467773, 880, 35 },
  { 119, 0.1480923891067505, 13, 32 },
  { 829, 2.6694254875183105, 882, 884 },
  { 588, -0.34991252422332764, 10, 883 },
  { 243, 0.12559408321976662, 32, 34 },
  { 760, 3.193883538246155, 885, 886 },
  { 519, 0.2948891595005989, 33, 32 },
  { 527, -0.27066566050052643, 10, 34 },
  { 205, -0.2801458239555359, 888, 895 },
  { 333, -0.2816130220890045, 889, 892 },
  { 314, -0.3111616224050522, 890, 891 },
  { 845, -0.4770519584417343, 5, 6 },
  { 939, -0.640785276889801, 5, 13 },
  { 604, -0.5374865233898163, 6, 893 },
  { 689, -0.42100779712200165, 5, 894 },
  { 534, -0.38094352930784225, 13, 33 },
  { 256, 0.07818257808685303, 896, 1024 },
  { 364, -0.31254950165748596, 897, 920 },
  { 508, -0.5821691155433655, 898, 910 },
  { 524, -0.6616953909397125, 899, 902 },
  { 602, -0.5583654940128326, 900, 10 },
  { 464, -0.6799066066741943, 901, 32 },
  { 968, -0.651264876127243, 6, 34 },
  { 955, -0.2596138268709183, 903, 909 },
  { 968, -0.6600676476955414, 13, 904 },
  { 513, -0.5718299150466919, 10, 905 },
  { 586, 1.2418729364871979, 906, 5 },
  { 640, -0.47429221868515015, 907, 5 },
  { 891, -0.3405980318784714, 6, 908 },
  { 241, -0.13210424780845642, 6, 5 },
  { 959, 0.14856187999248505, 13, 22 },
  { 816, -0.15274469554424286, 911, 915 },
  { 519, -0.5906378328800201, 912, 914 },
  { 496, -0.7655234932899475, 913, 12 },
  { 989, -0.7495830655097961, 22, 5 },
  { 30, -0.48597773909568787, 13, 6 },
  { 509, -0.48489101231098175, 916, 917 },
  { 429, -0.18992221355438232, 13, 6 },
  { 676, -0.43309278786182404, 918, 919 },
  { 694, -0.4895879328250885, 10, 13 },
  { 633, -0.34653131663799286, 32, 22 },
  { 58, 0.07481084764003754, 921, 990 },
  { 1023, 0.28046901524066925, 922, 983 },
  { 523, 0.8975465595722198, 923, 981 },
  { 365, -0.22448918223381042, 924, 949 },
  { 1023, -0.372977539896965, 925, 942 },
  { 788, -0.08520664274692535, 926, 941 },
  { 895, -0.2958029806613922, 927, 930 },
  { 351, -0.2253783419728279, 928, 929 },
  { 860, -0.4269827753305435, 32, 34 },
  { 246, -0.1860262118279934, 13, 35 },
  { 597, -0.31854844093322754, 931, 940 },
  { 823, -0.21154993772506714, 932, 937 },
  { 996, -0.4921858012676239, 933, 934 },
  { 573, -0.40135934948921204, 10, 35 },
  { 525, -0.2945485860109329, 935, 936 },
  { 854, -0.4331628680229187, 33, 12 },
  { 833, -0.4153726249933243, 32, 10 },
  { 1017, -0.22284747380763292, 938, 22 },
  { 940, -0.566071480512619, 6, 939 },
  { 381, -0.4950832575559616, 5, 35 },
  { 63, 0.12240275740623474, 22, 6 },
  { 648, -0.5033441781997681, 12, 34 },
  { 760, -0.2840106338262558, 943, 945 },
  { 705, -0.33541445434093475, 944, 32 },
  { 133, -0.15141449123620987, 10, 22 },
  { 114, -0.256875678896904, 946, 948 },
  { 264, -0.1597151756286621, 947, 10 },
  { 205, -0.24348945170640945, 34, 13 },
  { 734, -0.2611251473426819, 32, 12 },
  { 1012, -0.25565996021032333, 950, 968 },
  { 1009, -0.2022838070988655, 951, 964 },
  { 24, -0.4236117750406265, 952, 960 },
  { 117, 0.1076591145247221, 953, 35 },
  { 23, -0.5193775594234467, 954, 957 },
  { 118, -0.23937798291444778, 955, 956 },
  { 827, -0.32062335312366486, 12, 33 },
  { 151, -0.03860236331820488, 32, 13 },
  { 352, 0.03586432710289955, 958, 959 },
  { 478, -0.5425317287445068, 22, 12 },
  { 856, 0.6775774955749512, 33, 10 },
  { 264, 0.009809339419007301, 961, 963 },
  { 81, -0.604841560125351, 10, 962 },
  { 1001, -0.4176788479089737, 32, 33 },
  { 735, 0.022686950862407684, 32, 12 },
  { 56, -0.3064786493778229, 965, 967 },
  { 958, -0.48985372483730316, 12, 966 },
  { 955, -0.2936423569917679, 33, 22 },
  { 165, -0.31953372061252594, 32, 35 },
  { 817, -0.11944255977869034, 969, 975 },
  { 928, 0.8461658656597137, 970, 22 },
  { 898, -0.27014365792274475, 971, 973 },
  { 111, -0.3060028851032257, 972, 13 },
  { 411, -0.34057943522930145, 10, 12 },
  { 946, -0.03542400081641972, 12, 974 },
  { 451, -0.3038950711488724, 33, 22 },
  { 519, 0.015103609766811132, 976, 980 },
  { 489, 1.6203771829605103, 977, 33 },
  { 1011, -0.2512457147240639, 978, 979 },
  { 781, -0.03207436017692089, 32, 33 },
  { 772, -0.002030007541179657, 12, 10 },
  { 890, -0.30548135936260223, 34, 32 },
  { 842, 0.03312775120139122, 982, 13 },
  { 833, 0.1906525194644928, 22, 33 },
  { 989, -0.5069054961204529, 984, 986 },
  { 200, -0.2125142365694046, 985, 10 },
  { 340, -0.25833988189697266, 35, 32 },
  { 440, 0.8872503638267517, 987, 33 },
  { 59, 0.2088361233472824, 988, 35 },
  { 899, 2.4736040830612183, 989, 10 },
  { 469, -0.4598851650953293, 10, 32 },
  { 759, -0.08310257270932198, 991, 993 },
  { 449, -0.014269358478486538, 12, 992 },
  { 515, -0.6423160433769226, 12, 35 },
  { 77, 1.3365694880485535, 994, 1020 },
  { 457, 1.3274690508842468, 995, 1012 },
  { 335, -0.20096281170845032, 996, 997 },
  { 671, -0.3216465264558792, 6, 13 },
  { 570, -0.03108006063848734, 35, 998 },
  { 663, -0.17316149920225143, 999, 1000 },
  { 113, -0.24337216466665268, 33, 12 },
  { 168, 0.7944160997867584, 1001, 1011 },
  { 872, -0.1237846128642559, 1002, 1003 },
  { 653, -0.001082918606698513, 33, 6 },
  { 942, 1.5110118389129639, 1004, 12 },
  { 14, -0.27598439157009125, 1005, 1006 },
  { 948, 0.5169352814555168, 32, 12 },
  { 967, 0.28003595769405365, 1007, 1009 },
  { 238, -0.0775098018348217, 13, 1008 },
  { 7, -0.09073987975716591, 32, 34 },
  { 92, 0.04268141835927963, 1010, 35 },
  { 543, 0.414365753531456, 13, 10 },
  { 638, 1.5325092673301697, 33, 32 },
  { 817, -0.12537191435694695, 1013, 1014 },
  { 405, -0.21457527577877045, 33, 22 },
  { 779, -0.14792883396148682, 1015, 1019 },
  { 943, 6.020701810717583, 1016, 10 },
  { 482, 0.9406222701072693, 1017, 13 },
  { 522, 0.03096863627433777, 35, 1018 },
  { 121, -0.10909777879714966, 6, 33 },
  { 375, -0.08636740315705538, 34, 12 },
  { 974, 2.636861562728882, 1021, 1023 },
  { 839, 0.32586222887039185, 35, 1022 },
  { 518, 1.5288543030619621, 32, 33 },
  { 832, 0.23861319571733475, 33, 34 },
  { 510, 3.3146787881851196, 1025, 1029 },
  { 759, 0.025686901062726974, 12, 1026 },
  { 109, 2.1777499318122864, 1027, 12 },
  { 169, 2.891495704650879, 34, 1028 },
  { 909, 0.6941162347793579, 33, 34 },
  { 80, 1.332270547747612, 32, 34 },
  { 179, -0.2816566377878189, 1031, 1037 },
  { 740, -0.3608304560184479, 1032, 1036 },
  { 612, -0.4857557415962219, 1033, 1035 },
  { 468, -0.7368175089359283, 1034, 5 },
  { 787, -0.3834312707185745, 5, 6 },
  { 376, -0.4304969161748886, 5, 6 },
  { 268, -0.21495679020881653, 13, 5 },
  { 276, 0.12482752278447151, 1038, 1172 },
  { 359, -0.34326061606407166, 1039, 1107 },
  { 703, -0.49756935238838196, 1040, 1047 },
  { 562, 0.370470255613327, 1041, 1046 },
  { 344, -0.42564086616039276, 13, 1042 },
  { 430, -0.3788554221391678, 1043, 1045 },
  { 641, -0.3147188276052475, 1044, 13 },
  { 992, 0.3260287046432495, 6, 13 },
  { 434, -0.05382828414440155, 22, 12 },
  { 1011, -0.6484206914901733, 5, 10 },
  { 881, -0.3230990916490555, 1048, 1078 },
  { 7, -0.5251176059246063, 1049, 1065 },
  { 402, -0.3367050290107727, 1050, 1054 },
  { 937, -0.7075370252132416, 1051, 13 },
  { 634, -0.45438922941684723, 1052, 22 },
  { 561, -0.5444822907447815, 34, 1053 },
  { 776, -0.2730100601911545, 33, 12 },
  { 0, -0.5534553229808807, 1055, 1063 },
  { 155, -0.1913449391722679, 1056, 1062 },
  { 478, -0.5386156141757965, 1057, 6 },
  { 159, -0.2623879760503769, 1058, 6 },
  { 496, -0.5766307264566422, 1059, 10 },
  { 978, -0.7525492310523987, 22, 1060 },
  { 898, -0.6974090039730072, 5, 1061 },
  { 562, -0.5474587380886078, 32, 12 },
  { 98, -0.4464861899614334, 35, 12 },
  { 1004, 0.6499580442905426, 1064, 6 },
  { 1, 0.1695038378238678, 10, 32 },
  { 157, -0.3333594501018524, 1066, 6 },
  { 596, -0.6623454988002777, 1067, 1071 },
  { 127, -0.38163161277770996, 1068, 1069 },
  { 185, -0.1410069614648819, 13, 6 },
  { 782, -0.34824469685554504, 22, 1070 },
  { 275, -0.28644952923059464, 13, 10 },
  { 540, 0.1857929229736328, 1072, 1076 },
  { 813, -0.18980944156646729, 1073, 34 },
  { 206, -0.15661682188510895, 22, 1074 },
  { 119, -0.26955993473529816, 13, 1075 },
  { 831, -0.35251182317733765, 13, 32 },
  { 935, -0.01225900650024414, 5, 1077 },
  { 624, 0.0826103687286377, 22, 6 },
  { 483, 0.14025674760341644, 1079, 1105 },
  { 735, -0.2556765228509903, 1080, 1098 },
  { 738, -0.23157954216003418, 1081, 1086 },
  { 514, -0.7507601082324982, 10, 1082 },
  { 207, -0.09353609010577202, 1083, 1084 },
  { 612, -0.4001713693141937, 12, 22 },
  { 174, -0.23486845940351486, 1085, 35 },
  { 160, -0.19602204114198685, 13, 33 },
  { 515, -0.5402245819568634, 1087, 1091 },
  { 381, -0.5772775113582611, 34, 1088 },
  { 978, -0.24750852584838867, 1089, 13 },
  { 881, -0.2776114493608475, 10, 1090 },
  { 284, -0.26812733709812164, 22, 6 },
  { 534, -0.03743337467312813, 1092, 1097 },
  { 712, 0.21595176681876183, 1093, 12 },
  { 110, 0.06671334058046341, 1094, 33 },
  { 66, -0.5512061715126038, 1095, 1096 },
  { 366, -0.16240989416837692, 10, 22 },
  { 526, -0.6822369694709778, 32, 10 },
  { 585, -0.47137807309627533, 22, 13 },
  { 216, -0.1630498245358467, 12, 1099 },
  { 278, -0.1545945480465889, 1100, 1101 },
  { 488, -0.47316667437553406, 10, 13 },
  { 601, -0.5444934070110321, 34, 1102 },
  { 927, -0.2941506654024124, 1103, 12 },
  { 919, -0.533478707075119, 6, 1104 },
  { 663, -0.318215548992157, 32, 33 },
  { 101, -0.11663782224059105, 13, 1106 },
  { 237, -0.3266071081161499, 22, 6 },
  { 313, -0.05975946970283985, 1108, 1153 },
  { 59, 0.07642850279808044, 1109, 1138 },
  { 0, -0.23447445034980774, 1110, 1129 },
  { 1022, -0.4676959663629532, 1111, 1120 },
  { 192, -0.10541151463985443, 1112, 1115 },
  { 570, -0.30702611804008484, 1113, 1114 },
  { 368, -0.3899514675140381, 12, 22 },
  { 8, -0.5371794700622559, 33, 13 },
  { 647, -0.2494407743215561, 1116, 12 },
  { 951, -0.3306567966938019, 1117, 1118 },
  { 573, 0.11502079665660858, 35, 33 },
  { 860, -0.08344997453968972, 12, 1119 },
  { 728, 0.2000361424870789, 13, 34 },
  { 746, 0.26547085866332054, 1121, 12 },
  { 464, -0.39674898982048035, 33, 1122 },
  { 125, -0.3238147348165512, 32, 1123 },
  { 28, -0.3278733789920807, 1124, 1127 },
  { 106, -0.2592227831482887, 12, 1125 },
  { 1010, -0.5443736612796783, 35, 1126 },
  { 839, -0.06999170500785112, 13, 10 },
  { 648, 0.5677828267216682, 1128, 34 },
  { 414, -0.3451623022556305, 13, 33 },
  { 734, -0.09851887449622154, 1130, 10 },
  { 460, 0.020849503576755524, 1131, 33 },
  { 10, -0.08814319735392928, 1132, 1137 },
  { 153, -0.2698405385017395, 1133, 32 },
  { 641, -0.1894170492887497, 32, 1134 },
  { 208, -0.10341475903987885, 12, 1135 },
  { 913, -0.2697073966264725, 33, 1136 },
  { 571, -0.5252102762460709, 13, 35 },
  { 959, -0.23564013466238976, 12, 13 },
  { 552, -0.06448132172226906, 1139, 1143 },
  { 76, -0.19397446513175964, 1140, 1141 },
  { 627, -0.2693478688597679, 12, 32 },
  { 743, -0.20366911590099335, 35, 1142 },
  { 123, 0.3817476015537977, 12, 35 },
  { 968, 1.313442587852478, 1144, 22 },
  { 149, -0.1659758985042572, 6, 1145 },
  { 824, -0.1505131796002388, 1146, 1152 },
  { 511, -0.33023642003536224, 1147, 1148 },
  { 139, 0.48533380031585693, 12, 35 },
  { 637, 0.7740710973739624, 1149, 32 },
  { 487, 1.5280410647392273, 1150, 33 },
  { 666, -0.24697953462600708, 1151, 35 },
  { 738, -0.2077091708779335, 22, 13 },
  { 498, 0.4786851704120636, 35, 13 },
  { 70, 2.397302031517029, 1154, 1170 },
  { 489, 0.7998528182506561, 1155, 1167 },
  { 518, 0.08439056947827339, 1156, 1162 },
  { 831, -0.05169185250997543, 1157, 1158 },
  { 167, -0.031151178292930126, 33, 6 },
  { 525, -0.09178903885185719, 1159, 1160 },
  { 1016, -0.4336473196744919, 10, 33 },
  { 36, 1.2348645329475403, 1161, 13 },
  { 827, -0.04114628117531538, 33, 32 },
  { 46, 1.5708678364753723, 1163, 1166 },
  { 121, -0.158226128667593, 34, 1164 },
  { 485, 0.9329625368118286, 32, 1165 },
  { 126, 1.5235740542411804, 33, 32 },
  { 793, 0.43844030797481537, 22, 10 },
  { 648, 1.112468272447586, 1168, 33 },
  { 632, 0.05833611637353897, 1169, 34 },
  { 401, -0.15083270892500877, 33, 12 },
  { 359, 1.1473485231399536, 1171, 35 },
  { 332, 0.4523482471704483, 33, 32 },
  { 138, 13.231243401765823, 1173, 10 },
  { 321, 0.44912484288215637, 32, 1174 },
  { 392, 1.7705632448196411, 34, 1175 },
  { 935, 0.47178295254707336, 32, 34 },
  { 320, -0.1269916594028473, 1177, 1180 },
  { 412, -0.4267268478870392, 1178, 6 },
  { 973, -0.5494837909936905, 1179, 6 },
  { 2, -0.6703804135322571, 5, 6 },
  { 233, 0.22623461484909058, 1181, 1311 },
  { 178, -0.2455841302871704, 1182, 1234 },
  { 164, -0.3371400535106659, 1183, 1203 },
  { 578, 0.6539189517498016, 1184, 22 },
  { 691, -0.47160452604293823, 1185, 1192 },
  { 36, -0.32584530115127563, 1186, 1189 },
  { 370, -0.6086199283599854, 13, 1187 },
  { 136, -0.4201960861682892, 6, 1188 },
  { 1020, -0.7229486405849457, 6, 13 },
  { 188, -0.2678307145833969, 5, 1190 },
  { 678, -0.5274048745632172, 12, 1191 },
  { 184, -0.5376041233539581, 10, 13 },
  { 634, -0.47162505984306335, 1193, 1198 },
  { 817, -0.17023245990276337, 1194, 1197 },
  { 556, 0.04041837155818939, 1195, 33 },
  { 23, -0.5034937113523483, 32, 1196 },
  { 169, -0.6471646726131439, 5, 6 },
  { 225, -0.2059570699930191, 13, 34 },
  { 463, -0.43027378618717194, 1199, 1202 },
  { 410, -0.45088380575180054, 1200, 1201 },
  { 171, -0.23422953486442566, 5, 22 },
  { 405, -0.41552482545375824, 13, 10 },
  { 692, -0.49945448338985443, 5, 6 },
  { 452, -0.47145846486091614, 1204, 1221 },
  { 59, -0.11842961981892586, 1205, 6 },
  { 977, -0.4453475624322891, 1206, 1220 },
  { 702, -0.4506579488515854, 1207, 1208 },
  { 481, -0.6435604691505432, 32, 13 },
  { 51, -0.48051711916923523, 1209, 1219 },
  { 53, -0.5698109269142151, 1210, 1211 },
  { 615, -0.3953416347503662, 12, 6 },
  { 171, -0.1956331506371498, 1212, 1217 },
  { 811, -0.22722209990024567, 1213, 1214 },
  { 622, -0.10824760049581528, 32, 13 },
  { 956, -0.7319497764110565, 22, 1215 },
  { 768, -0.1440599039196968, 10, 1216 },
  { 718, -0.19303984940052032, 12, 10 },
  { 186, -0.21643207967281342, 1218, 22 },
  { 727, -0.3575553297996521, 12, 32 },
  { 140, -0.3485373854637146, 5, 34 },
  { 19, 0.24965056777000427, 13, 5 },
  { 1020, -0.29041270911693573, 1222, 1229 },
  { 9, -0.42032290995121, 1223, 1226 },
  { 877, -0.407866507768631, 32, 1224 },
  { 271, -0.13233709335327148, 12, 1225 },
  { 795, -0.2604765072464943, 10, 13 },
  { 144, -0.3792782127857208, 1227, 1228 },
  { 205, -0.2743176966905594, 6, 13 },
  { 1003, -0.21158234775066376, 22, 33 },
  { 937, -0.45345835387706757, 1230, 1232 },
  { 592, -0.4177026152610779, 12, 1231 },
  { 15, 1.6443546414375305, 32, 22 },
  { 919, -0.3540932834148407, 6, 1233 },
  { 882, -0.4573475867509842, 10, 33 },
  { 514, 1.1620897054672241, 1235, 1307 },
  { 420, 0.10090947151184082, 1236, 1285 },
  { 964, 1.4098982214927673, 1237, 1284 },
  { 324, -0.06597122363746166, 1238, 1274 },
  { 184, -0.130877286195755, 1239, 1271 },
  { 497, -0.7086770832538605, 1240, 1245 },
  { 454, -0.04563761502504349, 1241, 35 },
  { 405, -0.27927444875240326, 1242, 32 },
  { 896, -0.40781959891319275, 1243, 33 },
  { 71, -0.5222693979740143, 1244, 35 },
  { 93, -0.43288953602313995, 22, 12 },
  { 506, -0.2659089118242264, 1246, 1258 },
  { 600, -0.11546991765499115, 1247, 1256 },
  { 722, -0.2630486935377121, 1248, 1249 },
  { 230, -0.18617606908082962, 33, 32 },
  { 220, -0.062342531979084015, 1250, 13 },
  { 511, -0.33979250490665436, 1251, 1255 },
  { 191, -0.24768854677677155, 1252, 1254 },
  { 193, -0.3234051316976547, 1253, 35 },
  { 986, -0.4219743460416794, 13, 12 },
  { 665, -0.32857683300971985, 33, 6 },
  { 188, -0.2112838476896286, 32, 10 },
  { 932, 0.20085018873214722, 1257, 10 },
  { 444, -0.5743524730205536, 32, 12 },
  { 950, -0.6447956264019012, 22, 1259 },
  { 341, -0.14499307423830032, 1260, 1268 },
  { 932, -0.3312208652496338, 1261, 1264 },
  { 616, -0.45329105854034424, 1262, 1263 },
  { 606, -0.6524514257907867, 33, 12 },
  { 487, 0.6605378743261099, 13, 12 },
  { 938, -0.1970880776643753, 1265, 1267 },
  { 676, -0.30352868139743805, 1266, 35 },
  { 235, -0.2847663462162018, 33, 12 },
  { 321, -0.23258327692747116, 22, 34 },
  { 708, -0.3768833428621292, 1269, 1270 },
  { 330, -0.20152170211076736, 22, 12 },
  { 711, -0.2640793174505234, 33, 12 },
  { 471, -0.02765162568539381, 1272, 33 },
  { 320, -0.0699642039835453, 1273, 32 },
  { 114, -0.15751691907644272, 12, 33 },
  { 988, 2.296603798866272, 1275, 13 },
  { 626, 0.19134063832461834, 1276, 1283 },
  { 180, -0.10976772382855415, 1277, 1278 },
  { 201, -0.019279036670923233, 13, 32 },
  { 191, -0.15615612268447876, 22, 1279 },
  { 412, -0.3465350568294525, 10, 1280 },
  { 6, 0.7280340492725372, 1281, 6 },
  { 62, -0.3928624093532562, 1282, 33 },
  { 415, -0.2529236897826195, 33, 32 },
  { 73, -0.19329841366561595, 12, 32 },
  { 234, -0.17320214584469795, 22, 34 },
  { 546, -0.505519688129425, 35, 1286 },
  { 171, -0.08971816301345825, 1287, 1294 },
  { 454, 0.5306978523731232, 1288, 12 },
  { 874, -0.34114502370357513, 13, 1289 },
  { 347, -0.271412193775177, 22, 1290 },
  { 682, -0.18242619186639786, 1291, 10 },
  { 317, -0.08957938104867935, 1292, 34 },
  { 35, 0.3454144522547722, 33, 1293 },
  { 862, -0.13983856144113815, 12, 35 },
  { 215, 0.12892285361886024, 1295, 1305 },
  { 94, 1.2890039682388306, 1296, 35 },
  { 530, 0.09506556857377291, 1297, 1301 },
  { 7, 0.27239497750997543, 35, 1298 },
  { 116, 0.15281369350850582, 12, 1299 },
  { 783, -0.17169393599033356, 1300, 35 },
  { 592, 0.8944735527038574, 33, 13 },
  { 383, 0.22479049116373062, 1302, 1304 },
  { 635, -0.019413815811276436, 1303, 32 },
  { 306, -0.06373402941972017, 12, 33 },
  { 123, 0.44942550361156464, 12, 22 },
  { 277, 0.039348007179796696, 1306, 32 },
  { 94, 0.6458899676799774, 12, 33 },
  { 527, -0.6383015811443329, 1308, 1310 },
  { 614, 0.07663704035803676, 1309, 33 },
  { 107, 0.031198665499687195, 10, 32 },
  { 953, 2.036040484905243, 32, 22 },
  { 25, -0.14730267226696014, 1312, 1316 },
  { 952, -0.07078523142263293, 1313, 32 },
  { 644, 0.2988123521208763, 1314, 10 },
  { 972, -0.16018855571746826, 34, 1315 },
  { 589, 0.36342328786849976, 33, 32 },
  { 203, 3.2840136289596558, 1317, 1318 },
  { 261, 0.1538647599518299, 32, 34 },
  { 518, 0.17019475996494293, 10, 32 },
  { 395, -0.5956425070762634, 1320, 1329 },
  { 313, -0.16989675909280777, 1321, 1323 },
  { 2, -0.6990731060504913, 1322, 6 },
  { 934, -0.5960392653942108, 5, 13 },
  { 623, -0.6406639516353607, 1324, 1326 },
  { 531, -0.260135724209249, 6, 1325 },
  { 1019, -0.7555511593818665, 33, 13 },
  { 712, -0.384650856256485, 1327, 1328 },
  { 581, -0.6805702447891235, 6, 5 },
  { 253, -0.15792546421289444, 22, 32 },
  { 273, 0.17175880819559097, 1330, 1466 },
  { 118, -0.2326141521334648, 1331, 1408 },
  { 834, -0.4356064647436142, 1332, 1355 },
  { 871, -0.5309157371520996, 1333, 1340 },
  { 712, -0.3922189921140671, 1334, 1338 },
  { 332, -0.4009861648082733, 1335, 1337 },
  { 433, -0.27388444542884827, 1336, 12 },
  { 1022, -0.7497891187667847, 5, 13 },
  { 854, -0.49242912232875824, 6, 13 },
  { 902, -0.4701462686061859, 13, 1339 },
  { 439, -0.3519686609506607, 6, 10 },
  { 793, -0.27990613877773285, 1341, 6 },
  { 164, -0.34158656001091003, 22, 1342 },
  { 313, -0.16677545756101608, 1343, 1347 },
  { 490, -0.5472047626972198, 32, 1344 },
  { 704, -0.18704524636268616, 1345, 1346 },
  { 837, -0.3782064914703369, 5, 22 },
  { 529, 0.21715740580111742, 6, 32 },
  { 168, -0.4093020260334015, 1348, 1349 },
  { 819, -0.36268530786037445, 10, 5 },
  { 150, -0.612817108631134, 6, 1350 },
  { 518, -0.2304796352982521, 1351, 1354 },
  { 654, -0.6310842931270599, 13, 1352 },
  { 454, -0.5648283660411835, 10, 1353 },
  { 459, -0.1768400091677904, 12, 22 },
  { 719, -0.16585375368595123, 22, 32 },
  { 940, -0.624479353427887, 1356, 1372 },
  { 880, -0.43703505396842957, 1357, 1370 },
  { 423, -0.6163315773010254, 1358, 1365 },
  { 741, -0.279381588101387, 1359, 1361 },
  { 678, -0.4539327025413513, 22, 1360 },
  { 1018, -0.4233621805906296, 33, 32 },
  { 931, -0.5798448920249939, 6, 1362 },
  { 8, 0.285441598854959, 1363, 12 },
  { 501, -0.41484497487545013, 10, 1364 },
  { 85, -0.5610925853252411, 34, 10 },
  { 579, -0.6571913063526154, 1366, 1369 },
  { 1022, -0.2846044450998306, 1367, 32 },
  { 979, -0.6326673030853271, 33, 1368 },
  { 730, -0.34297069907188416, 35, 5 },
  { 107, -0.3535689413547516, 12, 6 },
  { 507, -0.37046651542186737, 1371, 22 },
  { 936, -0.5391863286495209, 10, 34 },
  { 378, -0.24694304913282394, 1373, 1374 },
  { 458, -0.5923736989498138, 12, 13 },
  { 499, -0.6880683898925781, 1375, 1376 },
  { 913, -0.27495911344885826, 35, 33 },
  { 625, -0.5492120087146759, 1377, 1379 },
  { 106, -0.453272745013237, 1378, 10 },
  { 190, -0.24164282530546188, 32, 13 },
  { 903, -0.23239486664533615, 1380, 1401 },
  { 651, -0.5781763195991516, 34, 1381 },
  { 858, -0.3502523899078369, 1382, 1397 },
  { 143, -0.20790523290634155, 1383, 1389 },
  { 183, -0.13245630264282227, 1384, 1388 },
  { 62, -0.029263481497764587, 1385, 6 },
  { 325, -0.21458647400140762, 5, 1386 },
  { 67, -0.6360475718975067, 10, 1387 },
  { 483, -0.1620117910206318, 32, 13 },
  { 724, -0.3395611345767975, 10, 12 },
  { 523, -0.4994436651468277, 32, 1390 },
  { 431, -0.48647457361221313, 1391, 1392 },
  { 775, -0.16431910544633865, 13, 10 },
  { 61, -0.23737061023712158, 10, 1393 },
  { 606, -0.5301804393529892, 12, 1394 },
  { 677, -0.4331093579530716, 35, 1395 },
  { 914, -0.222234345972538, 34, 1396 },
  { 816, -0.14003055542707443, 6, 33 },
  { 947, -0.424445778131485, 1398, 1400 },
  { 266, -0.09845508262515068, 1399, 34 },
  { 533, -0.5503391325473785, 33, 12 },
  { 247, -0.04617267660796642, 33, 12 },
  { 153, -0.37009212374687195, 1402, 1404 },
  { 795, -0.26615655422210693, 1403, 10 },
  { 549, 0.6422705352306366, 13, 22 },
  { 355, -0.19617240875959396, 13, 1405 },
  { 960, -0.47250474989414215, 12, 1406 },
  { 837, -0.22187890857458115, 22, 1407 },
  { 865, -0.034153878688812256, 33, 13 },
  { 88, 1.9184269905090332, 1409, 1462 },
  { 304, -0.0849553607404232, 1410, 1435 },
  { 459, -0.009777963627129793, 1411, 1426 },
  { 680, 0.16456015780568123, 1412, 12 },
  { 528, -0.14318326488137245, 1413, 1420 },
  { 540, -0.2612398639321327, 1414, 1417 },
  { 264, -0.2011454552412033, 35, 1415 },
  { 125, -0.21285047754645348, 1416, 32 },
  { 29, -0.304537296295166, 13, 12 },
  { 642, -0.07501579076051712, 1418, 33 },
  { 449, -0.06187707185745239, 1419, 32 },
  { 251, -0.14868129789829254, 35, 13 },
  { 292, -0.20607223361730576, 1421, 1422 },
  { 60, 0.2031562402844429, 22, 35 },
  { 309, -0.2259243205189705, 12, 1423 },
  { 160, -0.14645877107977867, 6, 1424 },
  { 323, -0.1395614631474018, 13, 1425 },
  { 672, -0.06834931910270825, 33, 32 },
  { 1006, 0.08972438424825668, 1427, 1431 },
  { 745, -0.25434644520282745, 1428, 1430 },
  { 910, 0.5862049758434296, 1429, 22 },
  { 29, 0.31907734274864197, 35, 12 },
  { 963, -0.00043829716742038727, 35, 32 },
  { 714, -0.15131888538599014, 1432, 1433 },
  { 1019, 0.24346347898244858, 33, 22 },
  { 112, 0.2707907287403941, 1434, 32 },
  { 722, -0.18491937220096588, 12, 13 },
  { 911, 1.3196120262145996, 1436, 32 },
  { 484, -0.1644652932882309, 1437, 1447 },
  { 445, -0.06761566363275051, 1438, 1444 },
  { 892, 0.2163802832365036, 1439, 1443 },
  { 576, -0.48074305057525635, 32, 1440 },
  { 543, -0.539634495973587, 33, 1441 },
  { 202, -0.09234986826777458, 35, 1442 },
  { 459, -0.24007614329457283, 10, 34 },
  { 734, -0.15908154100179672, 34, 10 },
  { 1, -0.20387868210673332, 1445, 1446 },
  { 304, -0.07934115082025528, 6, 12 },
  { 972, 0.7566541433334351, 32, 33 },
  { 799, 0.3299587219953537, 1448, 1460 },
  { 46, 0.4995742589235306, 1449, 1453 },
  { 893, -0.3194669187068939, 12, 1450 },
  { 237, 0.4221494495868683, 1451, 10 },
  { 12, 0.6915917098522186, 1452, 34 },
  { 54, 0.26297323405742645, 33, 35 },
  { 646, -0.029142207466065884, 1454, 1455 },
  { 297, 0.17675058543682098, 13, 12 },
  { 634, 0.2938890904188156, 1456, 1458 },
  { 922, -0.15820010751485825, 1457, 33 },
  { 708, -0.09218191541731358, 6, 10 },
  { 788, -0.10613485053181648, 1459, 12 },
  { 881, 0.21678882837295532, 22, 32 },
  { 129, 0.21757925301790237, 32, 1461 },
  { 903, 0.6799956113100052, 12, 34 },
  { 105, 0.5233563333749771, 1463, 1465 },
  { 589, 0.7933098673820496, 10, 1464 },
  { 886, -0.06736716441810131, 12, 22 },
  { 283, 0.13491535745561123, 35, 34 },
  { 37, 1.555435597896576, 1467, 1472 },
  { 291, 0.199694462120533, 1468, 1469 },
  { 59, -0.18278856575489044, 10, 33 },
  { 3, 2.7896727323532104, 1470, 32 },
  { 207, 0.10039380192756653, 1471, 34 },
  { 871, 4.629647493362427, 32, 34 },
  { 348, 1.3752928972244263, 33, 1473 },
  { 235, 13.35514211654663, 34, 10 },
  { 312, -0.2912864685058594, 1475, 1477 },
  { 2, -0.7347303628921509, 5, 1476 },
  { 459, -0.5936602652072906, 6, 5 },
  { 240, 0.5195012986660004, 1478, 1612 },
  { 143, -0.18099161237478256, 1479, 1536 },
  { 693, -0.5587148070335388, 1480, 1497 },
  { 187, -0.23015334457159042, 5, 1481 },
  { 508, -0.5443467199802399, 1482, 1490 },
  { 824, -0.3880009651184082, 1483, 1488 },
  { 514, -0.5137914419174194, 1484, 1487 },
  { 450, -0.526703417301178, 1485, 1486 },
  { 946, -0.38299544155597687, 6, 10 },
  { 115, -0.4211873263120651, 22, 6 },
  { 772, -0.16642165929079056, 32, 10 },
  { 897, -0.5526151955127716, 13, 1489 },
  { 872, -0.5824355185031891, 5, 6 },
  { 993, -0.38275326788425446, 1491, 1494 },
  { 612, -0.48851506412029266, 13, 1492 },
  { 75, -0.5540689527988434, 32, 1493 },
  { 692, -0.489793598651886, 12, 10 },
  { 877, -0.42360819876194, 6, 1495 },
  { 30, 0.35622040182352066, 1496, 5 },
  { 959, -0.03294655680656433, 10, 32 },
  { 934, -0.49591851234436035, 1498, 1521 },
  { 504, -0.7274607121944427, 1499, 1509 },
  { 565, -0.5767881274223328, 1500, 1504 },
  { 131, -0.6154773235321045, 1501, 6 },
  { 584, -0.7321985065937042, 1502, 22 },
  { 50, -0.6741555631160736, 34, 1503 },
  { 46, -0.7504247426986694, 12, 10 },
  { 493, -0.37281109392642975, 1505, 1508 },
  { 619, -0.4039606302976608, 1506, 1507 },
  { 299, -0.12783703953027725, 12, 10 },
  { 894, -0.4755101799964905, 32, 6 },
  { 457, -0.5117515325546265, 32, 34 },
  { 417, -0.4164086580276489, 1510, 1515 },
  { 40, -0.5458973944187164, 1511, 1512 },
  { 463, -0.4686906784772873, 22, 13 },
  { 624, -0.4851571321487427, 1513, 34 },
  { 1018, -0.14795025624334812, 1514, 10 },
  { 620, -0.5420346856117249, 13, 32 },
  { 540, 0.06225391011685133, 1516, 1519 },
  { 566, -0.6375536918640137, 33, 1517 },
  { 1016, 0.4080875739455223, 1518, 10 },
  { 596, -0.2888046056032181, 12, 32 },
  { 840, -0.49283304810523987, 1520, 5 },
  { 922, -0.5050469636917114, 33, 6 },
  { 510, -0.1926640421152115, 1522, 1530 },
  { 131, -0.4539814889431, 1523, 1527 },
  { 651, -0.433967188000679, 1524, 1526 },
  { 523, -0.5621432363986969, 1525, 13 },
  { 848, -0.5056899338960648, 33, 5 },
  { 454, -0.303245410323143, 12, 13 },
  { 991, 0.6459620594978333, 1528, 6 },
  { 691, -0.3785882443189621, 1529, 10 },
  { 46, 2.424242913722992, 22, 13 },
  { 744, -0.11531732231378555, 1531, 34 },
  { 1, 0.0024074576795101166, 1532, 1534 },
  { 431, -0.5956073701381683, 22, 1533 },
  { 354, -0.23279955983161926, 10, 13 },
  { 876, -0.38967475295066833, 32, 1535 },
  { 206, -0.12294982373714447, 12, 10 },
  { 825, 0.3091418147087097, 1537, 1610 },
  { 115, 0.8236724436283112, 1538, 1606 },
  { 720, -0.11645043268799782, 1539, 1576 },
  { 987, -0.20481190085411072, 1540, 1560 },
  { 89, -0.4509759247303009, 1541, 1550 },
  { 501, -0.1885054036974907, 1542, 1549 },
  { 402, -0.22231535613536835, 1543, 32 },
  { 293, -0.30588050186634064, 33, 1544 },
  { 546, -0.3802654892206192, 1545, 13 },
  { 151, -0.21252432465553284, 10, 1546 },
  { 334, -0.22870462387800217, 35, 1547 },
  { 618, -0.4757559299468994, 6, 1548 },
  { 755, -0.2972857803106308, 12, 32 },
  { 559, -0.26485676877200603, 22, 12 },
  { 796, -0.35542167723178864, 1551, 1556 },
  { 439, -0.41223879158496857, 33, 1552 },
  { 553, 0.03325002267956734, 1553, 1555 },
  { 880, 0.31994725950062275, 1554, 32 },
  { 1023, -0.541019469499588, 12, 35 },
  { 299, -0.12484430521726608, 22, 12 },
  { 355, -0.2239747792482376, 13, 1557 },
  { 545, -0.5502756834030151, 35, 1558 },
  { 905, -0.07365587446838617, 1559, 32 },
  { 570, -0.15869328193366528, 35, 12 },
  { 364, -0.09762938693165779, 1561, 1568 },
  { 709, -0.25316092371940613, 1562, 13 },
  { 520, -0.30263713002204895, 1563, 1565 },
  { 460, -0.08898813277482986, 33, 1564 },
  { 748, -0.15357377380132675, 10, 22 },
  { 799, -0.28444939851760864, 1566, 1567 },
  { 140, -0.2867499142885208, 12, 22 },
  { 563, -0.1957978680729866, 13, 32 },
  { 532, -0.5041292607784271, 33, 1569 },
  { 767, -0.31134581565856934, 1570, 1573 },
  { 843, 0.08559662289917469, 12, 1571 },
  { 22, 0.018039085902273655, 35, 1572 },
  { 144, -0.08404131419956684, 13, 33 },
  { 326, -0.10081702098250389, 22, 1574 },
  { 344, 0.10591918602585793, 32, 1575 },
  { 571, 1.3678567111492157, 35, 12 },
  { 523, -0.13442784920334816, 1577, 1591 },
  { 484, -0.23574134707450867, 1578, 1582 },
  { 740, 0.00980678154155612, 1579, 10 },
  { 539, -0.11776554957032204, 1580, 13 },
  { 748, -0.11346286162734032, 1581, 33 },
  { 664, 0.07683899998664856, 32, 35 },
  { 529, 1.3634915947914124, 1583, 13 },
  { 512, -0.4505733251571655, 12, 1584 },
  { 629, 0.6206580698490143, 1585, 1589 },
  { 728, -0.2985769361257553, 22, 1586 },
  { 445, -0.43948642909526825, 10, 1587 },
  { 772, -0.08662553504109383, 33, 1588 },
  { 115, 0.16196440905332565, 12, 33 },
  { 740, -0.2536238506436348, 32, 1590 },
  { 9, 0.16281041502952576, 10, 33 },
  { 393, 0.19743458926677704, 1592, 1605 },
  { 12, 1.3497291207313538, 1593, 1600 },
  { 306, -0.10476405173540115, 1594, 1595 },
  { 507, 0.8457527384161949, 10, 22 },
  { 1016, -0.2505604922771454, 32, 1596 },
  { 939, -0.3685159236192703, 1597, 1598 },
  { 838, 0.06606907770037651, 33, 10 },
  { 934, -0.12044770643115044, 1599, 12 },
  { 638, 0.1934497207403183, 34, 33 },
  { 572, 0.24430157989263535, 1601, 1603 },
  { 39, -0.0025637932121753693, 1602, 6 },
  { 719, -0.12587814405560493, 32, 12 },
  { 88, 0.035945046693086624, 1604, 13 },
  { 485, -0.1815331131219864, 10, 33 },
  { 385, 0.5580526441335678, 32, 35 },
  { 433, 0.7488400340080261, 1607, 35 },
  { 870, 0.4092324897646904, 32, 1608 },
  { 27, 0.04154413938522339, 35, 1609 },
  { 870, 2.9112138748168945, 22, 33 },
  { 975, 1.075198382139206, 1611, 33 },
  { 871, 1.5819701552391052, 32, 34 },
  { 450, 1.3182637691497803, 1613, 1615 },
  { 725, 5.527379274368286, 1614, 32 },
  { 90, -0.31412072479724884, 33, 34 },
  { 996, -0.19610541313886642, 12, 10 },
  { 319, -0.42821599543094635, 1617, 1620 },
  { 511, -0.5486522316932678, 1618, 1619 },
  { 334, -0.2948892265558243, 5, 6 },
  { 714, -0.1991729810833931, 5, 6 },
  { 221, 0.23532626032829285, 1621, 1753 },
  { 363, -0.26702819764614105, 1622, 1657 },
  { 720, -0.15281526744365692, 1623, 1634 },
  { 939, -0.6584675312042236, 1624, 1627 },
  { 940, -0.690881758928299, 1625, 5 },
  { 438, -0.5619518458843231, 6, 1626 },
  { 961, -0.6984689831733704, 13, 12 },
  { 552, -0.28139491379261017, 1628, 1630 },
  { 1011, -0.6575808823108673, 1629, 6 },
  { 865, -0.3586844205856323, 12, 32 },
  { 855, -0.6620045900344849, 6, 1631 },
  { 702, -0.45509564876556396, 1632, 33 },
  { 351, -0.2522708475589752, 13, 1633 },
  { 150, -0.6352859735488892, 22, 5 },
  { 965, -0.4397052973508835, 1635, 1651 },
  { 683, -0.4352293908596039, 13, 1636 },
  { 774, -0.2889255881309509, 1637, 1643 },
  { 200, -0.28616948425769806, 1638, 1640 },
  { 131, -0.6246294677257538, 22, 1639 },
  { 777, -0.08369103074073792, 12, 32 },
  { 950, -0.6248832941055298, 1641, 22 },
  { 420, -0.6557329595088959, 10, 1642 },
  { 900, -0.5344765186309814, 13, 33 },
  { 513, -0.44291214644908905, 1644, 1648 },
  { 279, -0.16548320651054382, 1645, 1646 },
  { 199, -0.16727595776319504, 5, 13 },
  { 553, -0.6985217332839966, 1647, 6 },
  { 206, -0.1511608362197876, 34, 12 },
  { 166, -0.4349933862686157, 22, 1649 },
  { 212, -0.22449716180562973, 32, 1650 },
  { 203, -0.2316267192363739, 34, 10 },
  { 946, 0.04163149232044816, 1652, 1655 },
  { 908, -0.32746419310569763, 1653, 1654 },
  { 561, -0.04081834992393851, 13, 5 },
  { 799, -0.2891653776168823, 22, 10 },
  { 31, 0.35751140862703323, 1656, 6 },
  { 681, -0.645790159702301, 22, 10 },
  { 7, -0.7326986491680145, 1658, 1663 },
  { 513, -0.38738422095775604, 1659, 1662 },
  { 336, -0.37169818580150604, 1660, 35 },
  { 687, -0.22961720079183578, 6, 1661 },
  { 687, -0.16554376482963562, 33, 12 },
  { 312, -0.15248479321599007, 32, 10 },
  { 398, -0.060277849435806274, 1664, 1724 },
  { 270, -0.3292059600353241, 1665, 1682 },
  { 361, -0.16465917974710464, 1666, 1676 },
  { 93, -0.11881588399410248, 1667, 1674 },
  { 1001, -0.2579493671655655, 1668, 1671 },
  { 611, -0.36462680995464325, 1669, 1670 },
  { 752, -0.3377474397420883, 33, 32 },
  { 263, -0.12539178133010864, 12, 22 },
  { 1002, -0.29516851902008057, 1672, 10 },
  { 357, -0.1736331731081009, 13, 1673 },
  { 455, -0.41572581231594086, 22, 32 },
  { 474, -0.05639641801826656, 35, 1675 },
  { 272, -0.24753215163946152, 22, 33 },
  { 960, -0.30454035103321075, 1677, 1679 },
  { 529, 0.08787974342703819, 1678, 35 },
  { 64, -0.08657523430883884, 33, 35 },
  { 156, -0.12083269283175468, 22, 1680 },
  { 22, -0.19881589710712433, 1681, 12 },
  { 54, 0.18839314952492714, 35, 33 },
  { 311, -0.0383665356785059, 1683, 1717 },
  { 858, 0.4472518339753151, 1684, 13 },
  { 518, 1.5693644285202026, 1685, 22 },
  { 370, -0.22359701991081238, 1686, 1711 },
  { 82, -0.25118473172187805, 1687, 1704 },
  { 141, -0.2888314574956894, 1688, 1703 },
  { 381, -0.45883309841156006, 1689, 1697 },
  { 34, -0.47061701118946075, 1690, 1695 },
  { 989, -0.7192655503749847, 34, 1691 },
  { 512, 0.49487780034542084, 1692, 32 },
  { 31, -0.5401474833488464, 10, 1693 },
  { 166, -0.3614448606967926, 12, 1694 },
  { 273, -0.08695502579212189, 13, 6 },
  { 397, -0.3945523053407669, 1696, 12 },
  { 63, -0.5843891203403473, 6, 5 },
  { 602, -0.3738536387681961, 1698, 1700 },
  { 865, -0.2461763620376587, 33, 1699 },
  { 293, -0.3031957745552063, 22, 12 },
  { 1012, -0.5703647434711456, 32, 1701 },
  { 574, -0.6127834916114807, 13, 1702 },
  { 709, -0.0493430239148438, 10, 12 },
  { 961, -0.6168411374092102, 34, 13 },
  { 545, 0.5757574737071991, 1705, 1709 },
  { 383, -0.10131439939141273, 1706, 1708 },
  { 502, -0.0698780957609415, 35, 1707 },
  { 568, -0.4448835253715515, 33, 13 },
  { 268, -0.15288269519805908, 32, 12 },
  { 1007, 0.03586657717823982, 1710, 22 },
  { 48, -0.06395984906703234, 5, 33 },
  { 508, -0.4222884923219681, 1712, 1713 },
  { 945, -0.1256377398967743, 10, 33 },
  { 845, -0.31639882922172546, 1714, 1715 },
  { 553, 0.6161219589412212, 33, 22 },
  { 1023, -0.098702697083354, 12, 1716 },
  { 530, 0.009784519672393799, 32, 13 },
  { 590, -0.4141640216112137, 32, 1718 },
  { 896, -0.028380129486322403, 1719, 1722 },
  { 126, -0.08583927527070045, 1720, 32 },
  { 65, -0.5975257456302643, 6, 1721 },
  { 9, 0.033693939447402954, 33, 10 },
  { 62, -0.231439009308815, 34, 1723 },
  { 753, -0.08202842995524406, 13, 12 },
  { 76, 2.1262840032577515, 1725, 1752 },
  { 570, 2.754249095916748, 1726, 22 },
  { 148, 0.5159605443477631, 1727, 1747 },
  { 732, -0.2851629704236984, 1728, 1731 },
  { 485, -0.19746233522891998, 1729, 1730 },
  { 995, -0.17043163627386093, 35, 12 },
  { 437, 0.8356280624866486, 22, 35 },
  { 122, -0.05786902643740177, 1732, 1735 },
  { 734, -0.10100429505109787, 33, 1733 },
  { 1003, -0.16352605819702148, 1734, 6 },
  { 101, -0.26454275846481323, 10, 32 },
  { 1001, -0.2207951620221138, 1736, 1738 },
  { 123, 0.7321160435676575, 32, 1737 },
  { 264, -0.19296299666166306, 10, 35 },
  { 58, -0.17881736904382706, 1739, 1740 },
  { 856, 0.14388639852404594, 32, 10 },
  { 149, 0.06873978488147259, 32, 1741 },
  { 522, 0.21386562287807465, 1742, 1746 },
  { 646, 0.42360806465148926, 1743, 1744 },
  { 465, 1.7679970264434814, 12, 13 },
  { 1019, 0.03170725330710411, 32, 1745 },
  { 468, 0.9134999215602875, 33, 35 },
  { 990, 0.9962001964449883, 35, 22 },
  { 797, 0.6282683312892914, 1748, 1750 },
  { 473, 0.4917078912258148, 33, 1749 },
  { 222, -0.024412665516138077, 32, 12 },
  { 689, 0.8561771214008331, 1751, 32 },
  { 592, -0.17914860136806965, 10, 34 },
  { 551, 2.1262736916542053, 35, 33 },
  { 938, -0.4448697119951248, 1754, 1755 },
  { 497, -0.14306451752781868, 10, 33 },
  { 904, 5.168610334396362, 1756, 1759 },
  { 931, -0.2556785047054291, 1757, 1758 },
  { 98, -0.2823783755302429, 34, 32 },
  { 671, 0.09024471510201693, 32, 34 },
  { 104, 5.74633526802063, 12, 10 },
  { 654, -0.6511273682117462, 1761, 1767 },
  { 772, -0.1669677123427391, 1762, 1765 },
  { 48, -0.5087000131607056, 1763, 6 },
  { 655, -0.35925740003585815, 5, 1764 },
  { 223, -0.202215276658535, 6, 5 },
  { 969, -0.4567667990922928, 6, 1766 },
  { 571, -0.37463926896452904, 5, 13 },
  { 269, 0.6288329362869263, 1768, 1894 },
  { 372, -0.34388068318367004, 1769, 1809 },
  { 849, -0.2645013928413391, 1770, 1787 },
  { 75, -0.4154360741376877, 1771, 1783 },
  { 690, -0.4632200747728348, 1772, 1781 },
  { 696, -0.5250967144966125, 1773, 1780 },
  { 385, -0.34887009859085083, 1774, 10 },
  { 38, -0.007564488798379898, 1775, 5 },
  { 12, -0.6902085840702057, 32, 1776 },
  { 825, -0.2941918522119522, 1777, 1779 },
  { 997, -0.34068210422992706, 6, 1778 },
  { 665, -0.5354411602020264, 13, 6 },
  { 66, -0.3733109012246132, 5, 6 },
  { 471, -0.5892690718173981, 13, 5 },
  { 840, -0.5739122629165649, 1782, 22 },
  { 296, -0.19889067858457565, 13, 5 },
  { 945, 0.37174226343631744, 1784, 22 },
  { 282, -0.18394068628549576, 1785, 1786 },
  { 114, -0.14697727095335722, 13, 6 },
  { 959, 0.08795863389968872, 32, 10 },
  { 937, -0.5638328492641449, 1788, 1803 },
  { 600, -0.6061117947101593, 1789, 1793 },
  { 668, -0.3969510644674301, 1790, 22 },
  { 946, -0.6379315257072449, 1791, 1792 },
  { 605, -0.5691663026809692, 6, 32 },
  { 783, -0.17451290786266327, 22, 34 },
  { 630, -0.5563401281833649, 1794, 1796 },
  { 945, -0.5899677574634552, 12, 1795 },
  { 790, -0.32011477649211884, 33, 10 },
  { 916, -0.5320812165737152, 13, 1797 },
  { 805, -0.3714219927787781, 12, 1798 },
  { 491, -0.5324162542819977, 1799, 1800 },
  { 770, -0.2936951667070389, 35, 10 },
  { 50, -0.5797085762023926, 22, 1801 },
  { 130, -0.3130880445241928, 1802, 33 },
  { 239, -0.10215127840638161, 32, 34 },
  { 387, -0.5244640111923218, 1804, 1805 },
  { 193, -0.42409248650074005, 6, 13 },
  { 581, -0.019341062754392624, 1806, 6 },
  { 198, -0.2961101680994034, 5, 1807 },
  { 593, -0.5263588577508926, 12, 1808 },
  { 59, -0.4080810546875, 10, 13 },
  { 1021, 0.7850973606109619, 1810, 1883 },
  { 438, 1.8782247304916382, 1811, 35 },
  { 1008, -0.5935736000537872, 1812, 1825 },
  { 721, -0.11435205116868019, 1813, 1823 },
  { 413, -0.2582104355096817, 1814, 1816 },
  { 73, -0.5298881828784943, 12, 1815 },
  { 229, -0.1702534407377243, 33, 13 },
  { 60, -0.43662314116954803, 1817, 1821 },
  { 448, -0.6670657694339752, 35, 1818 },
  { 1006, -0.7296339869499207, 1819, 32 },
  { 665, -0.25891683250665665, 6, 1820 },
  { 26, -0.42407773435115814, 12, 22 },
  { 78, -0.3770962655544281, 12, 1822 },
  { 17, -0.15808349987491965, 35, 12 },
  { 501, -0.28580909967422485, 1824, 12 },
  { 368, 0.5083254799246788, 33, 10 },
  { 517, -0.3909984529018402, 1826, 1846 },
  { 363, -0.21489714086055756, 1827, 1830 },
  { 21, -0.2343994751572609, 1828, 1829 },
  { 21, -0.5347824096679688, 32, 10 },
  { 487, -0.21637494675815105, 13, 34 },
  { 24, -0.4508017748594284, 1831, 1833 },
  { 454, -0.5642153918743134, 13, 1832 },
  { 49, -0.1885293945670128, 32, 33 },
  { 895, 0.029526453465223312, 1834, 1840 },
  { 748, -0.1256326660513878, 1835, 1837 },
  { 419, 0.04370252229273319, 1836, 35 },
  { 293, -0.30911873281002045, 35, 33 },
  { 862, -0.04986248165369034, 1838, 33 },
  { 901, -0.3874156028032303, 1839, 13 },
  { 485, -0.4068272262811661, 32, 10 },
  { 105, 0.11300640553236008, 1841, 1842 },
  { 828, -0.1588652804493904, 22, 10 },
  { 999, -0.19650445971637964, 32, 1843 },
  { 733, -0.05427415110170841, 1844, 33 },
  { 277, -0.2816712260246277, 22, 1845 },
  { 529, 0.13551485538482666, 12, 13 },
  { 332, -0.26467131078243256, 1847, 1856 },
  { 633, -0.21854370832443237, 1848, 1854 },
  { 720, -0.1490163430571556, 1849, 1850 },
  { 580, -0.683722972869873, 32, 12 },
  { 513, -0.24515538662672043, 1851, 1852 },
  { 998, -0.317605197429657, 13, 10 },
  { 809, -0.18539462238550186, 32, 1853 },
  { 624, -0.36396609246730804, 33, 12 },
  { 641, -0.24982600659132004, 1855, 22 },
  { 109, -0.24872641637921333, 13, 33 },
  { 915, 0.4444564878940582, 1857, 1878 },
  { 501, 0.17407865077257156, 1858, 1872 },
  { 661, -0.28880833089351654, 1859, 1861 },
  { 92, -0.09246445819735527, 1860, 35 },
  { 440, -0.3002748489379883, 32, 13 },
  { 398, -0.14157366752624512, 1862, 1867 },
  { 438, -0.3785410076379776, 1863, 1864 },
  { 696, 0.00947994738817215, 12, 10 },
  { 185, -0.09655151888728142, 1865, 13 },
  { 603, 0.8051766455173492, 1866, 33 },
  { 22, -0.30175644159317017, 10, 12 },
  { 994, -0.25723157078027725, 1868, 1870 },
  { 57, -0.1950297113507986, 1869, 35 },
  { 527, 0.20537444204092026, 10, 12 },
  { 585, 2.1273550987243652, 12, 1871 },
  { 938, 0.5929778814315796, 22, 33 },
  { 782, -0.09646421298384666, 1873, 32 },
  { 254, -0.14564526826143265, 1874, 1877 },
  { 877, 0.05281010549515486, 1875, 1876 },
  { 597, -0.22049055993556976, 12, 13 },
  { 716, -0.3393079340457916, 33, 22 },
  { 8, 1.083305537700653, 6, 34 },
  { 92, 0.5047125071287155, 1879, 1881 },
  { 195, -0.11348477005958557, 1880, 33 },
  { 886, 0.1486249789595604, 34, 22 },
  { 276, -0.08504638820886612, 1882, 32 },
  { 313, -0.100531455129385, 22, 35 },
  { 569, -0.41402506828308105, 1884, 1885 },
  { 481, -0.2720329463481903, 34, 22 },
  { 556, 2.1896555423736572, 1886, 1892 },
  { 74, 1.1318702101707458, 1887, 1891 },
  { 277, 0.5866515338420868, 1888, 10 },
  { 359, 1.904244840145111, 1889, 33 },
  { 871, 1.4525483846664429, 1890, 34 },
  { 448, 1.8804990649223328, 32, 35 },
  { 1014, -0.4931982606649399, 33, 35 },
  { 410, 0.3433911055326462, 33, 1893 },
  { 334, 0.5469651520252228, 34, 22 },
  { 502, 1.7740752696990967, 1895, 32 },
  { 943, -0.4478977471590042, 1896, 1897 },
  { 673, 0.46166984736919403, 33, 34 },
  { 451, 3.7759807109832764, 1898, 12 },
  { 315, 0.2930878549814224, 1899, 1900 },
  { 670, 1.0975782573223114, 10, 34 },
  { 421, -0.12633737549185753, 1901, 34 },
  { 834, 2.091763198375702, 34, 33 },
  { 393, -0.29548753798007965, 1903, 1913 },
  { 150, -0.6426225900650024, 1904, 1907 },
  { 637, -0.5550441145896912, 5, 1905 },
  { 611, -0.3877982646226883, 6, 1906 },
  { 577, -0.5428244173526764, 5, 13 },
  { 670, -0.4463285952806473, 6, 1908 },
  { 691, -0.47480566799640656, 5, 1909 },
  { 106, -0.48001728951931, 1910, 13 },
  { 496, -0.7030015587806702, 1911, 5 },
  { 179, -0.2776806652545929, 6, 1912 },
  { 381, -0.6425463259220123, 33, 34 },
  { 249, 0.1715690940618515, 1914, 2045 },
  { 146, -0.14273351430892944, 1915, 1961 },
  { 1021, -0.5553278923034668, 1916, 1939 },
  { 4, -0.5577096343040466, 1917, 1933 },
  { 1019, 0.08981932001188397, 1918, 22 },
  { 534, -0.0894969142973423, 1919, 1932 },
  { 211, -0.12648993730545044, 1920, 13 },
  { 524, -0.7251432836055756, 1921, 1924 },
  { 333, -0.2761680334806442, 32, 1922 },
  { 743, -0.30474892258644104, 35, 1923 },
  { 101, -0.42586517333984375, 22, 13 },
  { 204, -0.3677999675273895, 1925, 1927 },
  { 374, -0.14992699027061462, 5, 1926 },
  { 116, -0.3734324872493744, 22, 32 },
  { 540, -0.3437659293413162, 6, 1928 },
  { 257, -0.2433794066309929, 1929, 6 },
  { 38, -0.4448198229074478, 5, 1930 },
  { 600, -0.5105100125074387, 33, 1931 },
  { 983, 0.24734491109848022, 12, 13 },
  { 868, -0.4172554314136505, 5, 10 },
  { 746, -0.31995072960853577, 1934, 1935 },
  { 457, -0.5523152351379395, 35, 12 },
  { 975, -0.05677305534482002, 1936, 1938 },
  { 897, -0.5793260335922241, 1937, 13 },
  { 897, -0.5859825611114502, 13, 6 },
  { 275, -0.31827688217163086, 5, 6 },
  { 506, -0.486604705452919, 1940, 1947 },
  { 512, -0.552886575460434, 12, 1941 },
  { 205, -0.27423587441444397, 1942, 1945 },
  { 164, -0.3224628418684006, 1943, 32 },
  { 195, -0.26079049706459045, 6, 1944 },
  { 230, -0.18741080164909363, 22, 10 },
  { 976, -0.6132987141609192, 6, 1946 },
  { 375, -0.20106902718544006, 10, 32 },
  { 515, -0.49024786055088043, 13, 1948 },
  { 348, -0.32060056924819946, 1949, 1953 },
  { 79, -0.4768468141555786, 1950, 1952 },
  { 771, -0.23646171391010284, 6, 1951 },
  { 715, -0.35679692029953003, 13, 22 },
  { 895, 0.13275470025837421, 10, 6 },
  { 940, -0.249568372964859, 1954, 13 },
  { 311, -0.14905694127082825, 1955, 1959 },
  { 547, -0.620918333530426, 1956, 1957 },
  { 134, -0.25118475407361984, 6, 22 },
  { 537, -0.06899137049913406, 32, 1958 },
  { 728, -0.2813132107257843, 12, 10 },
  { 144, -0.509737640619278, 1960, 12 },
  { 929, -0.20404502470046282, 34, 5 },
  { 511, -0.07845884189009666, 1962, 2015 },
  { 1013, -0.345243901014328, 1963, 1987 },
  { 341, -0.19716566801071167, 1964, 1967 },
  { 685, -0.464716374874115, 1965, 1966 },
  { 836, -0.41995224356651306, 35, 22 },
  { 1016, -0.29714252101257443, 10, 12 },
  { 893, -0.3717815577983856, 1968, 1971 },
  { 364, -0.2444755733013153, 12, 1969 },
  { 0, -0.3763996511697769, 35, 1970 },
  { 553, -0.2697839103639126, 33, 22 },
  { 386, -0.2512785941362381, 1972, 1976 },
  { 511, -0.4689215272665024, 1973, 1974 },
  { 755, -0.32472583651542664, 35, 12 },
  { 649, -0.18539393693208694, 33, 1975 },
  { 1010, -0.5496057569980621, 12, 13 },
  { 819, -0.27268466353416443, 1977, 1981 },
  { 109, -0.1037483774125576, 1978, 1980 },
  { 58, -0.20155970752239227, 1979, 32 },
  { 354, -0.12725770100951195, 10, 12 },
  { 410, 1.8471364080905914, 35, 10 },
  { 489, -0.4483506381511688, 1982, 1985 },
  { 390, 1.0370251014828682, 1983, 10 },
  { 663, -0.08245241083204746, 22, 1984 },
  { 990, -0.27431702613830566, 32, 13 },
  { 664, -0.0717826783657074, 1986, 33 },
  { 693, -0.22073223441839218, 35, 12 },
  { 204, -0.3309832513332367, 1988, 1990 },
  { 214, -0.2340984344482422, 1989, 22 },
  { 953, 0.5575522929430008, 33, 6 },
  { 532, 0.22397273033857346, 1991, 2005 },
  { 1012, -0.2484915405511856, 1992, 1995 },
  { 514, -0.5346063673496246, 12, 1993 },
  { 586, 0.20007728040218353, 33, 1994 },
  { 581, 0.19253186136484146, 32, 33 },
  { 931, 0.6489663571119308, 1996, 22 },
  { 927, -0.35957111418247223, 1997, 2002 },
  { 816, -0.09663324803113937, 1998, 1999 },
  { 6, 0.6795756220817566, 13, 12 },
  { 186, -0.21525956690311432, 22, 2000 },
  { 333, -0.16719162464141846, 10, 2001 },
  { 540, -0.2606011927127838, 32, 33 },
  { 161, -0.021864188835024834, 12, 2003 },
  { 160, 0.10385419055819511, 33, 2004 },
  { 408, 0.255751296877861, 35, 32 },
  { 304, -0.08188579231500626, 2006, 2014 },
  { 930, 0.408796951174736, 2007, 2011 },
  { 725, -0.21777816116809845, 2008, 2009 },
  { 830, -0.26332636177539825, 35, 22 },
  { 259, -0.15668603032827377, 12, 2010 },
  { 480, 3.0787896513938904, 13, 12 },
  { 378, 0.21872525848448277, 2012, 22 },
  { 36, 0.8111897110939026, 2013, 33 },
  { 162, 0.13398968428373337, 35, 12 },
  { 99, 0.030772306956350803, 33, 6 },
  { 451, 0.05784683674573898, 2016, 2029 },
  { 73, 0.08004597201943398, 2017, 2025 },
  { 906, 3.31268447637558, 2018, 34 },
  { 174, -0.1840115189552307, 2019, 2023 },
  { 905, -0.22846108675003052, 2020, 33 },
  { 683, -0.29949960112571716, 32, 2021 },
  { 619, -0.4348982870578766, 10, 2022 },
  { 48, -0.5412064790725708, 13, 12 },
  { 161, -0.1682571992278099, 34, 2024 },
  { 958, 0.744644045829773, 32, 12 },
  { 672, 0.6562776863574982, 2026, 34 },
  { 381, 0.44357120990753174, 6, 2027 },
  { 264, -0.09425176680088043, 32, 2028 },
  { 348, 0.6198986861854792, 10, 33 },
  { 855, 0.001626978162676096, 2030, 2034 },
  { 549, -0.21447934955358505, 2031, 2033 },
  { 457, -0.0020349249243736267, 13, 2032 },
  { 629, 0.6583035886287689, 35, 32 },
  { 969, 0.2815981935709715, 12, 22 },
  { 517, 0.2641032934188843, 2035, 2039 },
  { 112, 3.806522309780121, 2036, 35 },
  { 294, 0.15786292776465416, 33, 2037 },
  { 337, 0.3443673998117447, 2038, 33 },
  { 806, 0.20991861075162888, 13, 12 },
  { 711, 0.4415692985057831, 2040, 2044 },
  { 962, 1.6344795227050781, 2041, 2043 },
  { 198, -0.12794523686170578, 2042, 35 },
  { 835, -0.23000182956457138, 35, 32 },
  { 271, -0.09713443741202354, 22, 12 },
  { 260, -0.07148059643805027, 34, 32 },
  { 780, 0.4623982459306717, 2046, 2047 },
  { 939, 0.32081789523363113, 33, 10 },
  { 612, 10.430979013442993, 2048, 10 },
  { 538, -0.3488788902759552, 2049, 2050 },
  { 974, -0.34903447329998016, 34, 33 },
  { 457, 1.2426289916038513, 34, 12 },
  { 190, -0.28983400762081146, 2052, 2059 },
  { 1022, -0.7149853110313416, 2053, 2058 },
  { 1012, -0.09134984761476517, 2054, 6 },
  { 827, -0.3475206196308136, 2055, 2057 },
  { 550, -0.49659280478954315, 5, 2056 },
  { 761, -0.21569187194108963, 6, 5 },
  { 85, -0.6154143810272217, 6, 5 },
  { 96, -0.5613737106323242, 6, 5 },
  { 251, 0.3084232956171036, 2060, 2191 },
  { 343, -0.4742605537176132, 2061, 2119 },
  { 704, -0.18755646795034409, 2062, 2070 },
  { 81, -0.1831469014286995, 2063, 22 },
  { 309, -0.2730950117111206, 2064, 2069 },
  { 168, -0.42277954518795013, 2065, 6 },
  { 358, -0.5772150456905365, 2066, 13 },
  { 40, -0.5644556879997253, 6, 2067 },
  { 135, -0.37842926383018494, 5, 2068 },
  { 576, -0.21704821288585663, 12, 22 },
  { 1001, 0.025207817554473877, 13, 5 },
  { 549, -0.3383083641529083, 2071, 2105 },
  { 504, -0.8547498881816864, 2072, 2074 },
  { 371, -0.5144143402576447, 10, 2073 },
  { 542, -0.5282890498638153, 6, 32 },
  { 63, -0.692283034324646, 2075, 2077 },
  { 725, -0.2174539566040039, 22, 2076 },
  { 380, -0.3621445596218109, 34, 12 },
  { 3, -0.7805296182632446, 2078, 2081 },
  { 22, -0.405929833650589, 6, 2079 },
  { 893, -0.5829696953296661, 33, 2080 },
  { 241, -0.1325601041316986, 10, 5 },
  { 920, -0.2452513948082924, 2082, 32 },
  { 849, -0.16160409897565842, 2083, 2104 },
  { 560, -0.09499173983931541, 2084, 2102 },
  { 981, -0.363338440656662, 2085, 2100 },
  { 914, -0.37890249490737915, 2086, 2094 },
  { 887, -0.3436148762702942, 2087, 2091 },
  { 909, -0.5683803558349609, 2088, 2090 },
  { 842, -0.5086318552494049, 13, 2089 },
  { 496, -0.6456794142723083, 22, 34 },
  { 372, -0.3932404965162277, 6, 32 },
  { 642, -0.4741627722978592, 2092, 10 },
  { 668, -0.38482312858104706, 2093, 13 },
  { 567, -0.6566684246063232, 10, 33 },
  { 676, -0.3658478409051895, 12, 2095 },
  { 310, -0.13329347223043442, 22, 2096 },
  { 666, -0.4257385730743408, 35, 2097 },
  { 118, -0.3100544214248657, 2098, 12 },
  { 644, -0.3674534559249878, 33, 2099 },
  { 815, -0.14361707866191864, 32, 34 },
  { 496, -0.5817464888095856, 2101, 10 },
  { 761, -0.19244911521673203, 13, 34 },
  { 0, -0.35995569825172424, 13, 2103 },
  { 707, -0.3249770849943161, 22, 12 },
  { 167, -0.19348283857107162, 10, 12 },
  { 112, -0.361984446644783, 2106, 2115 },
  { 742, -0.1877848505973816, 2107, 2114 },
  { 889, -0.1969906948506832, 2108, 5 },
  { 952, 0.03581045940518379, 2109, 2113 },
  { 573, -0.576297789812088, 2110, 2111 },
  { 638, -0.6497869193553925, 10, 34 },
  { 0, 0.39920275658369064, 2112, 6 },
  { 311, -0.13094499707221985, 13, 12 },
  { 126, -0.6066580414772034, 22, 6 },
  { 876, -0.4400697499513626, 34, 10 },
  { 329, -0.1328926384449005, 2116, 2118 },
  { 445, 0.3279329836368561, 10, 2117 },
  { 114, -0.030717384070158005, 6, 35 },
  { 289, -0.18388383835554123, 22, 12 },
  { 1, 0.6988425850868225, 2120, 2183 },
  { 417, 0.6505178511142731, 2121, 2179 },
  { 549, -0.21855337917804718, 2122, 2153 },
  { 70, 0.056732598692178726, 2123, 2146 },
  { 669, -0.4166819304227829, 2124, 2126 },
  { 137, -0.12326144799590111, 2125, 6 },
  { 420, -0.6532493829727173, 32, 35 },
  { 625, -0.5409983396530151, 10, 2127 },
  { 885, 0.8665193021297455, 2128, 10 },
  { 252, -0.0074747942853719, 2129, 12 },
  { 513, -0.04125954955816269, 2130, 2145 },
  { 185, -0.011421472998335958, 2131, 33 },
  { 858, -0.22374089807271957, 2132, 2141 },
  { 759, -0.020118179731070995, 2133, 34 },
  { 74, -0.3577568680047989, 2134, 2138 },
  { 161, -0.15744265168905258, 2135, 32 },
  { 276, -0.09055906534194946, 22, 2136 },
  { 311, -0.12351711466908455, 6, 2137 },
  { 654, -0.43492014706134796, 10, 32 },
  { 314, -0.22948455810546875, 2139, 2140 },
  { 857, -0.2906126528978348, 12, 33 },
  { 546, -0.44381430745124817, 35, 13 },
  { 551, -0.3177773505449295, 2142, 2143 },
  { 538, -0.2430265173316002, 12, 22 },
  { 83, -0.3099258244037628, 2144, 35 },
  { 976, -0.5004225373268127, 13, 33 },
  { 424, 0.21566293388605118, 32, 34 },
  { 34, 0.26446452364325523, 2147, 2152 },
  { 717, -0.2550567239522934, 2148, 2150 },
  { 587, -0.32719841599464417, 2149, 35 },
  { 879, -0.07948433607816696, 32, 35 },
  { 196, 0.04808914661407471, 2151, 10 },
  { 757, -0.2043677493929863, 12, 32 },
  { 986, -0.28187426179647446, 12, 33 },
  { 56, 1.3821776509284973, 2154, 2175 },
  { 421, 0.8828849494457245, 2155, 12 },
  { 976, -0.33854973316192627, 2156, 2157 },
  { 305, -0.08851641789078712, 22, 12 },
  { 552, 0.34488826990127563, 2158, 2169 },
  { 11, 0.39762596786022186, 2159, 2166 },
  { 503, -0.5744065940380096, 32, 2160 },
  { 525, 0.16326291672885418, 2161, 2165 },
  { 457, 1.4077598452568054, 2162, 12 },
  { 630, 0.7654492855072021, 2163, 2164 },
  { 524, 0.4573950916528702, 33, 34 },
  { 483, -0.1865935791283846, 22, 32 },
  { 618, -0.07669158838689327, 10, 22 },
  { 442, 0.1125681921839714, 2167, 6 },
  { 358, -0.20687571913003922, 12, 2168 },
  { 564, -0.2794066220521927, 22, 32 },
  { 404, 0.0586995561607182, 2170, 2173 },
  { 976, 1.7029647827148438, 2171, 10 },
  { 840, -0.3656633049249649, 2172, 13 },
  { 91, -0.24065694957971573, 22, 33 },
  { 564, 0.8485732078552246, 32, 2174 },
  { 802, 0.17141026258468628, 33, 12 },
  { 386, -0.40093402564525604, 2176, 2177 },
  { 561, 2.4828998893499374, 13, 34 },
  { 249, -0.10346158593893051, 2178, 12 },
  { 353, 0.1680002510547638, 22, 35 },
  { 515, 0.4188135862350464, 2180, 33 },
  { 652, 2.048900604248047, 2181, 13 },
  { 223, -0.19724509865045547, 22, 2182 },
  { 280, -0.009034341666847467, 35, 13 },
  { 474, 1.661147654056549, 2184, 2189 },
  { 865, -0.17501510679721832, 2185, 2186 },
  { 761, -0.15309090167284012, 35, 10 },
  { 419, 0.9984085857868195, 2187, 2188 },
  { 294, 0.8356108367443085, 32, 10 },
  { 1015, -0.16679836064577103, 33, 35 },
  { 945, 3.5051634311676025, 2190, 33 },
  { 219, 0.5816607922315598, 32, 34 },
  { 168, 2.0794003009796143, 2192, 2194 },
  { 511, -0.20698025077581406, 2193, 34 },
  { 388, 0.2346719726920128, 34, 33 },
  { 977, 0.18964501400478184, 10, 12 },
  { 159, -0.27874110639095306, 2196, 2204 },
  { 505, -0.47311384975910187, 2197, 6 },
  { 510, -0.7052005231380463, 2198, 2203 },
  { 631, -0.4861970990896225, 2199, 2201 },
  { 492, -0.7766379415988922, 2200, 5 },
  { 987, -0.6667226254940033, 5, 6 },
  { 344, -0.4263200908899307, 2202, 13 },
  { 895, -0.33287373185157776, 5, 6 },
  { 438, -0.562770426273346, 6, 13 },
  { 226, 0.31219232082366943, 2205, 2327 },
  { 319, -0.4118034094572067, 2206, 2225 },
  { 896, -0.5550712645053864, 2207, 2215 },
  { 472, -0.4327729046344757, 2208, 2212 },
  { 872, -0.5859479904174805, 2209, 2211 },
  { 201, -0.16135718673467636, 5, 2210 },
  { 509, -0.5377098172903061, 6, 13 },
  { 586, -0.6585326790809631, 22, 13 },
  { 441, -0.08489223569631577, 2213, 2214 },
  { 19, -0.4123179018497467, 12, 13 },
  { 108, -0.3950509876012802, 22, 10 },
  { 155, -0.20941632241010666, 2216, 2218 },
  { 519, -0.6694273352622986, 2217, 22 },
  { 309, -0.27302969992160797, 5, 32 },
  { 359, -0.47360508143901825, 2219, 2224 },
  { 124, -0.5034976601600647, 2220, 2223 },
  { 499, -0.6621233522891998, 12, 2221 },
  { 611, -0.3684210330247879, 13, 2222 },
  { 906, -0.5798061788082123, 32, 6 },
  { 610, -0.5608528256416321, 6, 10 },
  { 674, -0.5628262758255005, 6, 12 },
  { 396, -0.298719123005867, 2226, 2256 },
  { 1017, -0.5483253300189972, 2227, 2239 },
  { 33, -0.6732363700866699, 2228, 2232 },
  { 107, -0.38587816059589386, 2229, 35 },
  { 538, -0.5676728785037994, 2230, 12 },
  { 844, -0.4082840532064438, 6, 2231 },
  { 661, -0.42065590620040894, 10, 33 },
  { 126, -0.4982032924890518, 2233, 2238 },
  { 0, -0.6256744265556335, 2234, 2235 },
  { 194, -0.22740615904331207, 13, 12 },
  { 550, -0.5968557298183441, 12, 2236 },
  { 731, -0.3693397492170334, 2237, 10 },
  { 335, -0.2572673335671425, 10, 32 },
  { 651, -0.35487136244773865, 32, 12 },
  { 809, -0.3370620906352997, 2240, 2244 },
  { 939, -0.22379644960165024, 2241, 2243 },
  { 196, -0.339337483048439, 32, 2242 },
  { 117, -0.46562381088733673, 22, 10 },
  { 171, -0.20168958604335785, 10, 13 },
  { 542, -0.19478654116392136, 2245, 2252 },
  { 388, -0.44882452487945557, 2246, 2250 },
  { 723, -0.18608539551496506, 2247, 34 },
  { 310, -0.13058385252952576, 32, 2248 },
  { 634, -0.14761310815811157, 2249, 13 },
  { 552, -0.39863619208335876, 10, 5 },
  { 499, 1.3248336613178253, 2251, 33 },
  { 21, -0.5546188354492188, 12, 10 },
  { 93, -0.33791399002075195, 2253, 2255 },
  { 514, -0.2782319486141205, 2254, 12 },
  { 847, -0.39423973858356476, 12, 13 },
  { 987, -0.032918017357587814, 34, 10 },
  { 74, 2.0880151987075806, 2257, 35 },
  { 277, -0.25064442306756973, 2258, 2299 },
  { 412, 0.3083893060684204, 2259, 2296 },
  { 534, -0.35229039192199707, 2260, 2271 },
  { 971, -0.259033739566803, 2261, 2269 },
  { 80, -0.26153673976659775, 2262, 2267 },
  { 21, -0.586876630783081, 2263, 2266 },
  { 501, -0.7183749377727509, 32, 2264 },
  { 197, -0.19427185505628586, 6, 2265 },
  { 1014, -0.7303674817085266, 35, 33 },
  { 20, -0.231293186545372, 12, 10 },
  { 584, -0.27939555048942566, 35, 2268 },
  { 478, -0.19935505837202072, 32, 33 },
  { 511, 0.5183780342340469, 2270, 22 },
  { 814, -0.27645349502563477, 22, 35 },
  { 571, 1.6116241812705994, 2272, 22 },
  { 121, -0.1044883280992508, 2273, 2284 },
  { 550, 0.3240461200475693, 2274, 2283 },
  { 444, -0.4738258421421051, 2275, 2276 },
  { 775, -0.20106149464845657, 22, 12 },
  { 909, -0.3921520709991455, 12, 2277 },
  { 736, -0.302976056933403, 2278, 13 },
  { 571, 0.4184904545545578, 2279, 32 },
  { 554, -0.02717610076069832, 2280, 22 },
  { 341, -0.134123794734478, 2281, 33 },
  { 826, -0.26501012593507767, 6, 2282 },
  { 529, -0.3887556865811348, 35, 12 },
  { 341, -0.2073158547282219, 22, 13 },
  { 528, -0.30846768617630005, 2285, 2290 },
  { 73, -0.2090836763381958, 2286, 2288 },
  { 949, -0.2361389324069023, 2287, 33 },
  { 178, -0.14023349806666374, 13, 32 },
  { 442, -0.1227332055568695, 2289, 35 },
  { 782, -0.35641224682331085, 12, 33 },
  { 220, -0.2013605311512947, 2291, 2294 },
  { 258, -0.22024740278720856, 33, 2292 },
  { 310, -0.12283859774470329, 2293, 12 },
  { 317, -0.22389623522758484, 10, 33 },
  { 549, 1.0721627175807953, 32, 2295 },
  { 589, -0.08665774390101433, 12, 33 },
  { 721, -0.0447877012193203, 2297, 32 },
  { 723, -0.1666266843676567, 2298, 35 },
  { 545, -0.23951264470815659, 10, 22 },
  { 41, 1.2715750336647034, 2300, 2324 },
  { 0, -0.09538357332348824, 2301, 2310 },
  { 621, -0.027932670898735523, 2302, 2308 },
  { 107, -0.29106223583221436, 2303, 2305 },
  { 793, -0.12812846899032593, 2304, 12 },
  { 407, -0.3731485903263092, 6, 35 },
  { 756, -0.10746460780501366, 2306, 2307 },
  { 726, -0.2774256467819214, 33, 13 },
  { 302, -0.06630540825426579, 12, 33 },
  { 960, -0.14359324611723423, 34, 2309 },
  { 489, -0.3915911167860031, 10, 12 },
  { 47, 1.5206329226493835, 2311, 2323 },
  { 587, -0.38394230604171753, 2312, 2313 },
  { 155, 0.1800847128033638, 10, 34 },
  { 478, 0.08164350688457489, 2314, 2317 },
  { 349, 0.2867543548345566, 2315, 33 },
  { 38, -0.4545140564441681, 10, 2316 },
  { 645, 0.649395078420639, 32, 10 },
  { 859, -0.04412239231169224, 2318, 2320 },
  { 656, -0.06127002276480198, 6, 2319 },
  { 765, -0.00920221209526062, 22, 32 },
  { 10, 0.7977798581123352, 2321, 2322 },
  { 522, -0.5560624301433563, 10, 33 },
  { 379, 0.8136604428291321, 35, 32 },
  { 702, 0.37589307129383087, 13, 33 },
  { 980, 2.742128312587738, 2325, 2326 },
  { 342, -0.15557503700256348, 10, 12 },
  { 699, 0.36158816516399384, 6, 32 },
  { 570, -0.5378381013870239, 10, 2328 },
  { 827, 0.2695687636733055, 2329, 2330 },
  { 773, 0.05639611557126045, 10, 32 },
  { 727, 8.411073923110962, 2331, 32 },
  { 664, 2.97657573223114, 34, 2332 },
  { 829, 2.399006724357605, 34, 32 },
  { 156, -0.23428473621606827, 2334, 2341 },
  { 510, -0.7217691838741302, 2335, 2339 },
  { 191, -0.3829498887062073, 2336, 2338 },
  { 881, -0.36000122129917145, 5, 2337 },
  { 584, -0.7455140948295593, 6, 5 },
  { 553, -0.6393865942955017, 6, 5 },
  { 909, -0.5903789103031158, 6, 2340 },
  { 382, -0.32175181806087494, 5, 10 },
  { 268, 0.48517759144306183, 2342, 2467 },
  { 692, -0.46743717789649963, 2343, 2367 },
  { 517, 0.15211979672312737, 2344, 2364 },
  { 938, -0.3079601228237152, 2345, 2362 },
  { 118, -0.38011346757411957, 2346, 2359 },
  { 385, -0.38223275542259216, 2347, 2356 },
  { 905, -0.49522195756435394, 2348, 2350 },
  { 697, -0.21380887925624847, 5, 2349 },
  { 779, -0.20722758024930954, 33, 13 },
  { 815, -0.1800003945827484, 2351, 2353 },
  { 513, -0.47532860934734344, 2352, 13 },
  { 461, -0.04744818992912769, 6, 12 },
  { 28, -0.3174203634262085, 2354, 5 },
  { 434, -0.5837498009204865, 2355, 13 },
  { 445, -0.7291792631149292, 6, 22 },
  { 417, -0.4384734779596329, 13, 2357 },
  { 141, -0.5598931014537811, 2358, 10 },
  { 1019, -0.3881271183490753, 32, 5 },
  { 650, -0.1837257742881775, 2360, 10 },
  { 573, -0.1544397920370102, 6, 2361 },
  { 609, -0.39421969652175903, 6, 32 },
  { 774, -0.2888820320367813, 13, 2363 },
  { 3, -0.6382967233657837, 22, 10 },
  { 637, -0.5440929234027863, 2365, 2366 },
  { 594, -0.21302282810211182, 13, 12 },
  { 652, -0.4607846289873123, 22, 32 },
  { 513, 0.8243381083011627, 2368, 2462 },
  { 350, -0.34694804251194, 2369, 2408 },
  { 82, -0.3522927463054657, 2370, 2399 },
  { 1008, -0.41875432431697845, 2371, 2388 },
  { 751, -0.1686323806643486, 2372, 2381 },
  { 453, -0.6035005748271942, 2373, 2376 },
  { 454, -0.6224899291992188, 22, 2374 },
  { 681, -0.5183002650737762, 10, 2375 },
  { 652, -0.3839705139398575, 35, 33 },
  { 877, -0.3749437779188156, 32, 2377 },
  { 997, -0.4478515535593033, 2378, 2380 },
  { 712, -0.34856411814689636, 12, 2379 },
  { 398, -0.23822541534900665, 10, 35 },
  { 338, -0.2693261057138443, 22, 13 },
  { 484, -0.5779735445976257, 2382, 2385 },
  { 979, -0.6730467677116394, 6, 2383 },
  { 731, -0.26452523469924927, 10, 2384 },
  { 86, -0.46435143053531647, 34, 35 },
  { 1001, 0.9016117453575134, 2386, 34 },
  { 140, -0.27337947487831116, 2387, 13 },
  { 24, -0.5868127942085266, 35, 12 },
  { 1017, 0.8939431309700012, 2389, 2398 },
  { 613, -0.12799523770809174, 2390, 2396 },
  { 467, -0.5886736810207367, 2391, 2393 },
  { 153, -0.4296617954969406, 32, 2392 },
  { 690, -0.3498093783855438, 33, 12 },
  { 498, 0.09330214560031891, 10, 2394 },
  { 520, 0.04153554327785969, 10, 2395 },
  { 613, -0.45597366988658905, 13, 12 },
  { 126, -0.2034653201699257, 2397, 22 },
  { 422, -0.41496843099594116, 34, 13 },
  { 559, -0.5688840448856354, 22, 13 },
  { 736, -0.31184013187885284, 35, 2400 },
  { 479, 0.32484039664268494, 2401, 2404 },
  { 637, 0.05009089969098568, 2402, 2403 },
  { 2, 0.6405070871114731, 13, 10 },
  { 45, -0.4345800653100014, 6, 22 },
  { 643, -0.3946020305156708, 2405, 33 },
  { 910, -0.2675538510084152, 2406, 22 },
  { 501, 0.10149401426315308, 13, 2407 },
  { 899, -0.3831872344017029, 10, 12 },
  { 767, -0.3173368573188782, 35, 2409 },
  { 90, 1.3165492415428162, 2410, 2458 },
  { 969, 3.487292170524597, 2411, 2457 },
  { 818, -0.1832156404852867, 2412, 2433 },
  { 306, -0.14024195075035095, 2413, 2424 },
