
    // !!! This file is generated using emlearn !!!

    #include <eml_trees.h>
    

EmlTreesNode random_forest0_nodes[14372] = {
  { 208, -0.10994136705994606, 1, 5 },
  { 37, -0.7066774070262909, 2, 3 },
  { 62, -0.6637760102748871, 3, 4 },
  { -1, 1, -1, -1 },
  { -1, 5, -1, -1 },
  { 221, 0.38018399477005005, 6, 148 },
  { 372, -0.3308318704366684, 7, 60 },
  { 546, 0.09910189732909203, 8, 53 },
  { 339, -0.524760365486145, 9, 35 },
  { 512, -0.6575933694839478, 10, 20 },
  { 601, -0.569913774728775, 11, 14 },
  { 53, -0.5786891281604767, 12, 3 },
  { 488, -0.504542663693428, 4, 13 },
  { -1, 2, -1, -1 },
  { 866, -0.4414815604686737, 13, 15 },
  { 637, -0.4785153567790985, 16, 4 },
  { 506, -0.8648608028888702, 17, 18 },
  { -1, 8, -1, -1 },
  { 1008, -0.6432601511478424, 19, 3 },
  { -1, 3, -1, -1 },
  { 508, -0.706537276506424, 21, 24 },
  { 516, -0.7464288473129272, 4, 22 },
  { 675, -0.23552320152521133, 4, 23 },
  { -1, 4, -1, -1 },
  { 511, -0.5288024246692657, 25, 31 },
  { 928, -0.6198505461215973, 26, 30 },
  { 436, -0.5842443108558655, 27, 28 },
  { -1, 0, -1, -1 },
  { 735, -0.3152688294649124, 4, 29 },
  { 917, -0.5330720245838165, 13, 3 },
  { 546, -0.0534636490046978, 4, 13 },
  { 663, -0.37812355160713196, 13, 32 },
  { 94, -0.5332187414169312, 33, 17 },
  { 261, -0.15378379076719284, 4, 34 },
  { 831, -0.4324718713760376, 27, 23 },
  { 958, -0.2004220373928547, 36, 51 },
  { 655, -0.3428785055875778, 23, 37 },
  { 514, -0.5088587701320648, 38, 45 },
  { 479, -0.49851982295513153, 39, 13 },
  { 979, -0.593575656414032, 40, 44 },
  { 515, -0.718426376581192, 41, 43 },
  { 414, -0.49178534746170044, 4, 42 },
  { -1, 6, -1, -1 },
  { -1, 9, -1, -1 },
  { -1, 7, -1, -1 },
  { 345, -0.1882573515176773, 46, 47 },
  { 52, -0.4150763899087906, 17, 23 },
  { 153, -0.43031205236911774, 23, 48 },
  { 724, -0.30507420003414154, 19, 49 },
  { 45, -0.4386599063873291, 43, 50 },
  { 739, -0.30228056013584137, 4, 13 },
  { 42, 0.1666738549247384, 4, 52 },
  { 929, -0.3285657539963722, 13, 3 },
  { 162, -0.5212138891220093, 54, 56 },
  { 974, -0.16455237567424774, 27, 55 },
  { 416, 0.2228095829486847, 4, 17 },
  { 926, -0.513213038444519, 57, 58 },
  { 915, -0.6442690789699554, 17, 43 },
  { 121, -0.18843930959701538, 13, 59 },
  { 212, -0.2288673147559166, 27, 43 },
  { 814, -0.19910915940999985, 61, 110 },
  { 1012, 0.04296893998980522, 62, 95 },
  { 452, -0.12744610756635666, 63, 86 },
  { 317, -0.13115829229354858, 64, 84 },
  { 682, -0.4496771991252899, 17, 65 },
  { 519, -0.5263477563858032, 66, 75 },
  { 158, -0.22269821166992188, 67, 72 },
  { 176, -0.4327670782804489, 43, 68 },
  { 640, -0.4521884024143219, 23, 69 },
  { 643, -0.4794139415025711, 42, 70 },
  { 695, -0.2423221468925476, 13, 71 },
  { 733, -0.2863897383213043, 17, 27 },
  { 862, -0.16816774010658264, 73, 43 },
  { 142, 0.04618439823389053, 74, 42 },
  { 836, -0.2196028232574463, 19, 23 },
  { 822, -0.17077110707759857, 76, 78 },
  { 517, -0.012475121766328812, 43, 77 },
  { 9, -0.24155977368354797, 27, 43 },
  { 177, -0.21614018827676773, 13, 79 },
  { 678, -0.3735843747854233, 17, 80 },
  { 512, -0.40014421939849854, 27, 81 },
  { 437, -0.3080074340105057, 23, 82 },
  { 542, 0.30208636820316315, 83, 19 },
  { 938, -0.2867947965860367, 43, 13 },
  { 65, -0.2889387607574463, 85, 42 },
  { 683, -0.24053573608398438, 23, 27 },
  { 36, -0.06927023455500603, 87, 90 },
  { 424, -0.1500781774520874, 88, 89 },
  { 268, -0.20863840728998184, 23, 17 },
  { 615, -0.3435322046279907, 43, 42 },
  { 503, 1.478003740310669, 91, 23 },
  { 569, 0.011662750272080302, 43, 92 },
  { 639, -0.09167626313865185, 93, 42 },
  { 322, -0.23457977175712585, 13, 94 },
  { 113, -0.1351224035024643, 19, 43 },
  { 857, 0.22946251183748245, 96, 109 },
  { 586, -0.707788348197937, 17, 97 },
  { 1017, 0.01956802187487483, 98, 103 },
  { 664, 0.15448559448122978, 99, 19 },
  { 651, -0.33991675078868866, 13, 100 },
  { 279, -0.1646018922328949, 27, 101 },
  { 456, 0.7968699783086777, 43, 102 },
  { 675, -0.06234237551689148, 17, 27 },
  { 726, -0.2867884784936905, 104, 43 },
  { 138, -0.1238042488694191, 105, 106 },
  { 7, 2.372753895819187, 44, 43 },
  { 27, -0.2909332662820816, 107, 27 },
  { 554, 0.04184497706592083, 27, 108 },
  { 869, 0.008640587329864502, 43, 42 },
  { 361, 0.11573460325598717, 13, 42 },
  { 514, 1.2301166653633118, 111, 141 },
  { 109, 2.6766871213912964, 112, 42 },
  { 10, -0.37928053736686707, 113, 119 },
  { 648, 0.7368054091930389, 114, 17 },
  { 513, 0.045106760459020734, 115, 23 },
  { 1020, -0.12056208087597042, 116, 19 },
  { 282, -0.13812576234340668, 17, 117 },
  { 902, -0.399037703871727, 4, 118 },
  { 613, -0.38463597744703293, 44, 43 },
  { 911, 0.5458851754665375, 120, 136 },
  { 564, 1.191245675086975, 121, 135 },
  { 2, 1.8254303336143494, 122, 44 },
  { 68, 0.6912738382816315, 123, 43 },
  { 1008, -0.42730289697647095, 124, 127 },
  { 914, -0.2998203635215759, 125, 126 },
  { 454, -0.4887422174215317, 23, 13 },
  { 322, 0.027742065489292145, 43, 42 },
  { 205, -0.17899957299232483, 13, 128 },
  { 427, 0.5615145862102509, 129, 23 },
  { 168, 0.47745783627033234, 130, 19 },
  { 15, 0.39002110064029694, 131, 134 },
  { 517, -0.4794810265302658, 19, 132 },
  { 837, 0.34357307851314545, 17, 133 },
  { 115, 0.08842173777520657, 23, 43 },
  { 541, -0.49438636004924774, 19, 44 },
  { 159, 0.05104338563978672, 4, 13 },
  { 576, 0.10280201584100723, 19, 137 },
  { 900, 0.5958257615566254, 138, 140 },
  { 330, 0.12493595108389854, 19, 139 },
  { 573, 1.6516249850392342, 43, 44 },
  { 910, 0.3095346540212631, 42, 23 },
  { 615, -0.10480949282646179, 142, 143 },
  { 625, -0.28749074041843414, 44, 17 },
  { 29, 0.7336729764938354, 144, 147 },
  { 537, 1.8646061420440674, 145, 19 },
  { 579, -0.4586908668279648, 146, 23 },
  { 807, 0.8176853358745575, 44, 17 },
  { 295, 0.15492065250873566, 42, 44 },
  { 283, 0.442918598651886, 149, 150 },
  { 181, 1.1158967912197113, 23, 43 },
  { 70, 3.2034904956817627, 44, 17 },
  { 511, -0.5502764582633972, 152, 157 },
  { 89, -0.6750368475914001, 153, 154 },
  { 302, -0.16611530631780624, 3, 44 },
  { 594, -0.6125383377075195, 155, 156 },
  { 523, -0.5431467294692993, 19, 17 },
  { 606, -0.7412999868392944, 3, 4 },
  { 282, 0.43934278190135956, 158, 285 },
  { 341, -0.2223440259695053, 159, 175 },
  { 707, -0.395328089594841, 160, 161 },
  { 605, -0.5539457499980927, 4, 3 },
  { 746, -0.31425759196281433, 162, 173 },
  { 18, -0.6080754399299622, 163, 167 },
  { 416, -0.55890753865242, 27, 164 },
  { 805, -0.3714531511068344, 43, 165 },
  { 403, -0.49212421476840973, 13, 166 },
  { 406, -0.4689207524061203, 4, 17 },
  { 507, -0.7624534070491791, 4, 168 },
  { 1005, 0.23462030291557312, 169, 172 },
  { 791, -0.274099662899971, 170, 17 },
  { 228, -0.28479020297527313, 171, 3 },
  { 445, -0.7191201746463776, 4, 13 },
  { 588, -0.4960107207298279, 13, 4 },
  { 512, -0.1584277618676424, 4, 174 },
  { 209, -0.0926971510052681, 27, 17 },
  { 404, 1.8241580128669739, 176, 42 },
  { 61, -0.47725412249565125, 177, 208 },
  { 576, -0.6760095357894897, 178, 181 },
  { 1020, -0.31028319150209427, 179, 27 },
  { 504, -0.7616300880908966, 42, 180 },
  { 749, -0.31237073242664337, 4, 43 },
  { 435, -0.5270540118217468, 182, 189 },
  { 881, -0.2490266114473343, 183, 187 },
  { 725, -0.22698262333869934, 184, 185 },
  { 231, -0.1698811948299408, 4, 23 },
  { 581, -0.6780997216701508, 43, 186 },
  { 5, 0.04797612875699997, 17, 13 },
  { 996, -0.5327939093112946, 188, 27 },
  { 738, -0.15627088770270348, 23, 44 },
  { 510, 0.8786823153495789, 190, 207 },
  { 264, -0.029059596359729767, 191, 23 },
  { 773, -0.23963309824466705, 192, 202 },
  { 546, -0.5492798388004303, 193, 196 },
  { 472, -0.5864921808242798, 194, 195 },
  { 630, -0.4041026085615158, 42, 27 },
  { 612, -0.3047840893268585, 19, 17 },
  { 871, -0.31309132277965546, 197, 200 },
  { 20, -0.2262672558426857, 198, 199 },
  { 962, -0.4152170568704605, 23, 27 },
  { 642, -0.46394529938697815, 4, 17 },
  { 729, -0.34090207517147064, 201, 27 },
  { 656, -0.2581075429916382, 43, 42 },
  { 596, -0.5038550198078156, 203, 206 },
  { 428, -0.6026772558689117, 204, 17 },
  { 72, -0.5046456605195999, 205, 44 },
  { 708, -0.37983791530132294, 4, 43 },
  { 1004, -0.4398808777332306, 43, 13 },
  { 900, -0.3950514942407608, 23, 17 },
  { 401, -0.1809241622686386, 209, 233 },
  { 853, -0.38377097249031067, 210, 212 },
  { 180, -0.37133321166038513, 13, 211 },
  { 658, -0.19231465458869934, 43, 23 },
  { 387, -0.3607299476861954, 213, 224 },
  { 551, -0.48054416477680206, 42, 214 },
  { 952, -0.03288100752979517, 215, 221 },
  { 997, -0.4573718011379242, 216, 218 },
  { 534, 0.6944050043821335, 217, 4 },
  { 397, -0.3721981793642044, 17, 27 },
  { 705, -0.17762520909309387, 219, 220 },
  { 13, 1.3576379716396332, 13, 27 },
  { 274, -0.19119707494974136, 17, 19 },
  { 760, -0.16044879704713821, 222, 44 },
  { 347, -0.4164075553417206, 4, 223 },
  { 900, -0.3154605105519295, 42, 13 },
  { 217, -0.21329420059919357, 225, 229 },
  { 964, -0.4802650213241577, 226, 227 },
  { 461, -0.1707534920424223, 17, 19 },
  { 873, -0.2680261805653572, 228, 43 },
  { 141, -0.3129577860236168, 27, 13 },
  { 812, -0.25107985734939575, 230, 231 },
  { 699, -0.31592966616153717, 19, 13 },
  { 659, -0.2371910959482193, 19, 232 },
  { 141, 0.016257867217063904, 43, 17 },
  { 510, -0.3557245284318924, 234, 249 },
  { 992, 0.1273142620921135, 235, 245 },
  { 807, -0.2729032188653946, 236, 242 },
  { 507, -0.5145366489887238, 237, 241 },
  { 955, -0.2770526111125946, 23, 238 },
  { 1016, -0.7516747713088989, 42, 239 },
  { 530, -0.24121089279651642, 19, 240 },
  { 703, -0.019161537289619446, 13, 27 },
  { 76, -0.3180151581764221, 19, 42 },
  { 566, 0.3736402541399002, 243, 43 },
  { 1008, -0.12775036692619324, 17, 244 },
  { 153, -0.03353722020983696, 4, 23 },
  { 901, -0.05008209869265556, 246, 247 },
  { 530, 0.9236942231655121, 43, 13 },
  { 603, 0.43114669620990753, 19, 248 },
  { 688, 0.4548880383372307, 43, 23 },
  { 41, -0.10519246011972427, 250, 261 },
  { 1023, -0.14808570221066475, 251, 253 },
  { 132, 0.07922934740781784, 19, 252 },
  { 959, -0.3104787766933441, 4, 17 },
  { 979, 0.5993956178426743, 254, 260 },
  { 988, -0.5948276817798615, 255, 256 },
  { 207, 0.034761447459459305, 42, 44 },
  { 489, 0.44512198865413666, 257, 17 },
  { 649, 0.6393075287342072, 258, 17 },
  { 338, -0.15328502655029297, 27, 259 },
  { 1008, -0.699210524559021, 42, 23 },
  { 761, 0.1706629917025566, 19, 44 },
  { 547, 2.4517558813095093, 262, 283 },
  { 11, -0.251987561583519, 263, 269 },
  { 82, 0.006396576762199402, 264, 267 },
  { 314, -0.11293578520417213, 265, 44 },
  { 882, -0.12715479731559753, 23, 266 },
  { 653, 0.05218540132045746, 43, 42 },
  { 677, -0.3261340856552124, 27, 268 },
  { 111, 1.8255728483200073, 19, 17 },
  { 909, 0.8410825431346893, 270, 281 },
  { 622, 0.46108531951904297, 271, 279 },
  { 66, 0.24575187265872955, 272, 273 },
  { 90, -0.20147856324911118, 17, 43 },
  { 548, 0.08000730350613594, 274, 275 },
  { 1003, 1.7329818308353424, 42, 44 },
  { 841, 0.18047547340393066, 276, 43 },
  { 867, -0.2240525633096695, 27, 277 },
  { 907, -0.13244877383112907, 19, 278 },
  { 598, -0.08682625740766525, 4, 13 },
  { 135, 0.44760073721408844, 19, 280 },
  { 443, 3.2205286026000977, 23, 42 },
  { 714, 0.26946406811475754, 282, 43 },
  { 410, 0.01993614435195923, 44, 23 },
  { 168, 1.0389679819345474, 27, 284 },
  { 609, 3.985490620136261, 23, 44 },
  { 283, 2.0698786973953247, 286, 290 },
  { 787, 5.271352052688599, 287, 23 },
  { 94, -0.02888061013072729, 288, 289 },
  { 150, 0.930725485086441, 44, 19 },
  { 434, -0.2408202886581421, 17, 44 },
  { 881, 0.4020186513662338, 23, 17 },
  { 369, -0.24504069983959198, 292, 299 },
  { 510, -0.7131944000720978, 293, 297 },
  { 432, -0.5704658925533295, 294, 295 },
  { 579, -0.6540137827396393, 3, 4 },
  { 953, -0.6430774629116058, 4, 296 },
  { 463, -0.48061177134513855, 13, 19 },
  { 1000, -0.41998253762722015, 4, 298 },
  { 363, -0.2993527948856354, 13, 17 },
  { 767, 0.7156901657581329, 300, 423 },
  { 107, -0.37005093693733215, 301, 332 },
  { 0, -0.5767501592636108, 302, 317 },
  { 681, -0.6443026959896088, 303, 306 },
  { 40, -0.3636784702539444, 304, 305 },
  { 382, -0.3309885561466217, 4, 23 },
  { 993, 0.3418212616816163, 13, 3 },
  { 574, -0.102549958974123, 307, 315 },
  { 644, -0.43575140833854675, 308, 310 },
  { 410, -0.45836733281612396, 309, 13 },
  { 857, -0.3389081507921219, 23, 27 },
  { 939, -0.6304603815078735, 311, 313 },
  { 1000, -0.4928004741668701, 17, 312 },
  { 780, -0.29229411482810974, 3, 13 },
  { 587, -0.6542924344539642, 17, 314 },
  { 496, -0.2064463347196579, 43, 44 },
  { 103, -0.307249054312706, 4, 316 },
  { 896, -0.5135223716497421, 3, 13 },
  { 931, -0.5668376982212067, 318, 319 },
  { 894, -0.5458029508590698, 17, 27 },
  { 534, 0.32039807736873627, 320, 4 },
  { 257, -0.2475811094045639, 19, 321 },
  { 596, -0.682824969291687, 44, 322 },
  { 591, -0.17882005125284195, 323, 13 },
  { 957, -0.7146998047828674, 324, 326 },
  { 623, -0.5920456051826477, 23, 325 },
  { 758, -0.3413637727499008, 27, 4 },
  { 909, -0.5095270276069641, 327, 328 },
  { 59, -0.1255038771778345, 17, 13 },
  { 538, -0.371714323759079, 329, 330 },
  { 63, -0.6582832634449005, 27, 43 },
  { 561, -0.3726939707994461, 17, 331 },
  { 463, -0.40664881467819214, 27, 13 },
  { 1018, 1.8703846335411072, 333, 422 },
  { 1022, 1.2316503524780273, 334, 417 },
  { 499, -0.6667799949645996, 335, 339 },
  { 461, -0.2015189304947853, 336, 42 },
  { 655, -0.2975060045719147, 42, 337 },
  { 10, -0.7190969288349152, 23, 338 },
  { 377, 0.2781340032815933, 19, 17 },
  { 391, -0.07549719512462616, 340, 386 },
  { 21, -0.37314078211784363, 341, 360 },
  { 513, -0.038815826177597046, 342, 357 },
  { 347, -0.39612434804439545, 343, 349 },
  { 199, -0.13537097722291946, 344, 17 },
  { 875, -0.21598442643880844, 345, 4 },
  { 814, -0.279072567820549, 43, 346 },
  { 332, -0.3401487320661545, 347, 13 },
  { 577, -0.619380384683609, 27, 348 },
  { 814, -0.27196453511714935, 17, 23 },
  { 605, -0.4681161344051361, 350, 353 },
  { 112, -0.27903566509485245, 351, 42 },
  { 484, -0.5364716649055481, 27, 352 },
  { 957, -0.421655610203743, 13, 19 },
  { 187, -0.12003125995397568, 354, 356 },
  { 291, -0.1044519878923893, 43, 355 },
  { 771, -0.010441131889820099, 19, 43 },
  { 917, -0.18987764790654182, 19, 13 },
  { 1015, -0.11057112365961075, 23, 358 },
  { 374, -0.12585270404815674, 17, 359 },
  { 22, -0.3768799304962158, 13, 43 },
  { 994, -0.283457487821579, 361, 367 },
  { 844, -0.4612487107515335, 4, 362 },
  { 23, -0.36219578981399536, 363, 365 },
  { 556, -0.3053567633032799, 17, 364 },
  { 685, -0.3227231800556183, 13, 27 },
  { 33, -0.49460017681121826, 43, 366 },
  { 730, -0.09118466451764107, 19, 44 },
  { 546, -0.4507853239774704, 368, 371 },
  { 6, -0.25502699613571167, 4, 369 },
  { 763, -0.11843400489306077, 370, 44 },
  { 684, -0.49111513793468475, 43, 19 },
  { 795, -0.08671243861317635, 372, 385 },
  { 938, 0.9638652205467224, 373, 382 },
  { 577, -0.009978605899959803, 374, 380 },
  { 200, -0.13491728529334068, 375, 23 },
  { 537, 1.0346796214580536, 376, 27 },
  { 1018, -0.5640003085136414, 19, 377 },
  { 527, 2.6628706455230713, 378, 27 },
  { 1006, -0.5671622157096863, 19, 379 },
  { 16, 1.8304679989814758, 13, 19 },
  { 594, -0.29692821204662323, 381, 43 },
  { 953, -0.20650073140859604, 13, 23 },
  { 540, 0.0661674439907074, 27, 383 },
  { 487, 1.2600491046905518, 43, 384 },
  { 189, -0.20180118829011917, 4, 17 },
  { 50, -0.22673878818750381, 19, 43 },
  { 206, -0.13976315408945084, 387, 394 },
  { 619, 0.013952318578958511, 388, 392 },
  { 769, -0.3114083707332611, 389, 391 },
  { 915, 0.23897355794906616, 42, 390 },
  { 498, -0.04338353872299194, 23, 43 },
  { 942, -0.4350476562976837, 19, 17 },
  { 535, 0.5769425928592682, 27, 393 },
  { 604, 0.3378734737634659, 43, 19 },
  { 78, 1.733191430568695, 395, 416 },
  { 577, 0.20945260673761368, 396, 404 },
  { 10, -0.6445696651935577, 23, 397 },
  { 432, 0.2854570150375366, 398, 42 },
  { 556, -0.4666334390640259, 399, 400 },
  { 647, -0.08521969988942146, 42, 43 },
  { 387, -0.06795101147145033, 19, 401 },
  { 264, -0.16777675598859787, 402, 403 },
  { 682, 1.37601737678051, 23, 19 },
  { 698, 0.04586108773946762, 44, 43 },
  { 439, 0.6848509311676025, 405, 412 },
  { 124, 0.3499263972043991, 406, 409 },
  { 280, -0.20262692123651505, 407, 13 },
  { 399, -0.045135630294680595, 408, 19 },
  { 660, -0.0942075178027153, 23, 43 },
  { 628, 0.31680069863796234, 410, 411 },
  { 505, 0.21747664734721184, 13, 43 },
  { 346, 0.5543486550450325, 23, 44 },
  { 611, 0.7261968851089478, 413, 415 },
  { 588, 0.8578729331493378, 19, 414 },
  { 994, 1.0423290729522705, 43, 19 },
  { 616, 1.4061869978904724, 23, 42 },
  { 141, 0.25277427583932877, 19, 42 },
  { 524, -0.39808402955532074, 418, 420 },
  { 437, -0.18286559730768204, 419, 19 },
  { 300, 0.18710420280694962, 23, 44 },
  { 200, 0.7224156558513641, 23, 421 },
  { 835, 0.3709656000137329, 17, 23 },
  { 760, -0.23330966383218765, 27, 23 },
  { 3, 2.553313672542572, 424, 23 },
  { 271, 0.16986890882253647, 425, 427 },
  { 53, 0.0055061280727386475, 17, 426 },
  { 779, 0.36118972301483154, 42, 43 },
  { 829, 0.17046396434307098, 17, 44 },
  { 324, -0.2683056890964508, 429, 433 },
  { 949, -0.5207704603672028, 430, 432 },
  { 17, -0.8158180713653564, 431, 3 },
  { 765, -0.23845429718494415, 3, 4 },
  { 380, -0.36283476650714874, 13, 3 },
  { 768, 0.3227139413356781, 434, 583 },
  { 149, -0.264505535364151, 435, 478 },
  { 876, -0.49927160143852234, 436, 444 },
  { 477, -0.43942132592201233, 437, 442 },
  { 332, -0.40215353667736053, 3, 438 },
  { 658, -0.21786592155694962, 439, 3 },
  { 131, -0.6171473562717438, 440, 13 },
  { 118, -0.4131403863430023, 441, 4 },
  { 88, -0.6747635900974274, 4, 13 },
  { 410, -0.44920119643211365, 13, 443 },
  { 768, -0.17806194722652435, 27, 4 },
  { 69, -0.6752855777740479, 445, 446 },
  { 211, -0.1430637314915657, 27, 43 },
  { 17, -0.396918460726738, 447, 468 },
  { 702, -0.4598516374826431, 448, 449 },
  { 405, -0.4129270762205124, 3, 23 },
  { 189, -0.23551129549741745, 450, 462 },
  { 6, 0.14408622682094574, 451, 27 },
  { 401, -0.4355878084897995, 19, 452 },
  { 884, -0.48386503756046295, 453, 457 },
  { 455, -0.6283127665519714, 454, 455 },
  { 995, -0.5596033334732056, 13, 23 },
  { 499, -0.6859847903251648, 43, 456 },
  { 478, -0.21531758457422256, 4, 27 },
  { 805, -0.363582968711853, 458, 460 },
  { 414, -0.5298519432544708, 27, 459 },
  { 161, -0.23071317374706268, 17, 23 },
  { 164, -0.3338915705680847, 461, 4 },
  { 700, -0.3955383747816086, 13, 3 },
  { 1012, -0.7202689051628113, 463, 464 },
  { 490, -0.5729613602161407, 4, 42 },
  { 102, -0.3485540449619293, 465, 13 },
  { 995, -0.23297865688800812, 466, 467 },
  { 46, -0.4156356453895569, 17, 27 },
  { 506, -0.6385846734046936, 19, 44 },
  { 404, -0.34459003806114197, 469, 473 },
  { 950, 0.10428041219711304, 470, 472 },
  { 2, -0.18256499618291855, 13, 471 },
  { 330, -0.3494401276111603, 27, 43 },
  { 719, -0.16935141384601593, 4, 27 },
  { 557, 0.05270592030137777, 474, 476 },
  { 633, -0.3306284248828888, 475, 4 },
  { 875, -0.4596705585718155, 23, 13 },
  { 891, -0.38666173815727234, 17, 477 },
  { 34, -0.11177784577012062, 13, 44 },
  { 269, -0.06414699926972389, 479, 563 },
  { 437, -0.10563172772526741, 480, 523 },
  { 513, -0.48626334965229034, 481, 490 },
  { 750, -0.2644840180873871, 482, 484 },
  { 933, -0.633182018995285, 483, 43 },
  { 484, -0.5866300761699677, 17, 4 },
  { 1010, -0.3266519382596016, 485, 488 },
  { 1007, -0.3249719887971878, 486, 43 },
  { 612, -0.4683680087327957, 13, 487 },
  { 507, -0.7576848268508911, 42, 4 },
  { 312, -0.2749969810247421, 489, 27 },
  { 705, -0.42946335673332214, 43, 3 },
  { 858, -0.43343299627304077, 491, 495 },
  { 31, -0.17254199087619781, 492, 493 },
  { 97, -0.4285389930009842, 17, 23 },
  { 498, -0.08774364739656448, 3, 494 },
  { 1020, -0.060052111744880676, 13, 4 },
  { 495, -0.518861323595047, 496, 503 },
  { 841, -0.18063926696777344, 497, 500 },
  { 409, -0.3335675597190857, 498, 23 },
  { 687, -0.18999754637479782, 19, 499 },
  { 111, -0.36047206819057465, 27, 43 },
  { 22, -0.3687916696071625, 501, 17 },
  { 969, -0.17759503051638603, 502, 43 },
  { 966, -0.5535843670368195, 19, 13 },
  { 1014, -0.2830650508403778, 504, 510 },
  { 319, -0.22112436592578888, 505, 509 },
  { 507, -0.1801992505788803, 506, 43 },
  { 762, -0.289042666554451, 507, 17 },
  { 550, -0.3021931052207947, 42, 508 },
  { 954, -0.4961400479078293, 23, 19 },
  { 760, -0.21431094408035278, 19, 13 },
  { 470, -0.04175674729049206, 511, 520 },
  { 1004, -0.5091426968574524, 27, 512 },
  { 776, -0.23678993433713913, 513, 518 },
  { 158, -0.13690513744950294, 514, 517 },
  { 488, -0.25423916429281235, 515, 43 },
  { 725, -0.20563513040542603, 516, 13 },
  { 7, -0.09720773994922638, 23, 43 },
  { 535, -0.05630798637866974, 23, 4 },
  { 501, 1.2083433866500854, 44, 519 },
  { 663, -0.25493594259023666, 19, 17 },
  { 509, -0.16771839186549187, 13, 521 },
  { 449, -0.14352888241410255, 43, 522 },
  { 965, 0.7438435279764235, 17, 27 },
  { 556, -0.17799141258001328, 524, 535 },
  { 830, -0.07595810666680336, 525, 531 },
  { 480, 0.7815527319908142, 526, 43 },
  { 449, -0.20107920467853546, 527, 529 },
  { 675, -0.07279126346111298, 19, 528 },
  { 24, -0.4166918843984604, 23, 42 },
  { 253, -0.12299685925245285, 530, 43 },
  { 405, -0.3119427561759949, 43, 42 },
  { 28, -0.12984497100114822, 23, 532 },
  { 388, -0.12327033374458551, 19, 533 },
  { 235, -0.1271641245111823, 534, 13 },
  { 717, -0.253823846578598, 42, 27 },
  { 752, -0.09365428239107132, 536, 561 },
  { 37, 2.6238832473754883, 537, 560 },
  { 945, -0.24134817719459534, 43, 538 },
  { 197, 0.27217019349336624, 539, 43 },
  { 1022, -0.15629266202449799, 540, 549 },
  { 562, 0.17927805334329605, 541, 545 },
  { 610, 0.0049719903618097305, 542, 23 },
  { 388, -0.05412027891725302, 543, 42 },
  { 620, -0.3615572303533554, 27, 544 },
  { 132, -0.15208829566836357, 19, 44 },
  { 509, -0.5628781914710999, 546, 548 },
  { 119, -0.12492669746279716, 13, 547 },
  { 1010, 1.5147653073072433, 19, 4 },
  { 100, 0.5444657355546951, 43, 42 },
  { 9, 0.22670330852270126, 550, 554 },
  { 837, -0.2327929511666298, 551, 552 },
  { 348, -0.213619627058506, 27, 23 },
  { 467, 0.03988759929779917, 42, 553 },
  { 446, 1.8529876470565796, 19, 42 },
  { 678, 0.13661674410104752, 555, 558 },
  { 152, 0.7681217193603516, 556, 19 },
  { 815, -0.1509459912776947, 27, 557 },
  { 87, -0.14485680509824306, 4, 23 },
  { 392, 0.8562183380126953, 13, 559 },
  { 204, -0.09955626726150513, 27, 23 },
  { 638, 1.2239477634429932, 27, 44 },
  { 628, 1.643082857131958, 42, 562 },
  { 413, -0.02909796964377165, 23, 17 },
  { 877, -0.1068609282374382, 564, 571 },
  { 362, -0.509188786149025, 23, 565 },
  { 654, -0.2123279720544815, 566, 569 },
  { 981, -0.5556680560112, 13, 567 },
  { 879, -0.15978144109249115, 43, 568 },
  { 378, -0.10592074505984783, 19, 43 },
  { 983, -0.437004879117012, 570, 13 },
  { 913, -0.2703504115343094, 19, 44 },
  { 202, 0.22036957740783691, 572, 581 },
  { 517, 0.20855959504842758, 573, 579 },
  { 947, 0.4046004277188331, 574, 578 },
  { 191, 0.19764351844787598, 575, 19 },
  { 992, -0.595306783914566, 17, 576 },
  { 1017, 0.34587085992097855, 13, 577 },
  { 291, 0.024303345009684563, 44, 23 },
  { 846, 0.7484043687582016, 23, 44 },
  { 963, 2.5436320900917053, 580, 17 },
  { 516, 0.4800049215555191, 43, 23 },
  { 231, 0.6846418976783752, 582, 17 },
  { 274, 0.4735579788684845, 44, 43 },
  { 760, 0.5943933129310608, 19, 584 },
  { 399, 1.6872169375419617, 585, 587 },
  { 769, 5.254506587982178, 44, 586 },
  { 907, 0.5302868038415909, 19, 44 },
  { 578, -0.03905528038740158, 23, 44 },
  { 332, -0.40194885432720184, 589, 592 },
  { 497, -0.42403725534677505, 590, 4 },
  { 410, -0.45932836830616, 3, 591 },
  { 139, -0.5850818455219269, 4, 3 },
  { 778, 0.9269011318683624, 593, 719 },
  { 696, -0.5786517262458801, 594, 608 },
  { 739, -0.35372407734394073, 595, 602 },
  { 591, 0.4587858319282532, 596, 600 },
  { 328, -0.5438542664051056, 597, 598 },
  { 561, -0.38663311302661896, 13, 3 },
  { 1, -0.5314411222934723, 4, 599 },
  { 539, -0.47631026804447174, 4, 13 },
  { 196, -0.3557780236005783, 27, 601 },
  { 159, -0.2567582279443741, 17, 42 },
  { 449, -0.1905452162027359, 603, 17 },
  { 433, -0.5397514998912811, 604, 605 },
  { 1000, -0.4872354716062546, 4, 3 },
  { 612, -0.4863125681877136, 13, 606 },
  { 704, -0.18619386106729507, 27, 607 },
  { 243, -0.2434990331530571, 23, 4 },
  { 1, -0.10767683014273643, 609, 687 },
  { 170, -0.18106259405612946, 610, 657 },
  { 0, -0.526979923248291, 611, 637 },
  { 523, -0.5399340987205505, 612, 623 },
  { 464, -0.5447129607200623, 613, 620 },
  { 417, -0.41022370755672455, 614, 619 },
  { 303, -0.09712370857596397, 615, 617 },
  { 566, -0.6525993347167969, 27, 616 },
  { 765, -0.2380116954445839, 3, 19 },
  { 186, -0.23462015390396118, 618, 4 },
  { 847, -0.35441024601459503, 44, 43 },
  { 929, -0.32530510425567627, 42, 17 },
  { 494, 0.08210723102092743, 621, 622 },
  { 91, -0.20616232603788376, 43, 42 },
  { 147, -0.2549450546503067, 13, 27 },
  { 140, -0.20616477727890015, 624, 27 },
  { 72, -0.2627941519021988, 625, 634 },
  { 941, -0.60382479429245, 626, 628 },
  { 616, -0.5176520049571991, 44, 627 },
  { 20, -0.645344078540802, 27, 43 },
  { 578, -0.7112511694431305, 17, 629 },
  { 365, -0.21907659620046616, 630, 633 },
  { 999, -0.5736987590789795, 4, 631 },
  { 591, -0.5741153657436371, 3, 632 },
  { 700, -0.4204425662755966, 4, 13 },
  { 829, -0.3102347403764725, 43, 13 },
  { 300, -0.233225978910923, 635, 4 },
  { 572, 0.1813503357116133, 27, 636 },
  { 7, -0.45385344326496124, 42, 13 },
  { 516, -0.3986886143684387, 638, 648 },
  { 1021, -0.526051789522171, 639, 642 },
  { 784, -0.33634619414806366, 640, 13 },
  { 683, -0.35733047127723694, 17, 641 },
  { 340, -0.3828413486480713, 13, 27 },
  { 854, -0.3336524963378906, 643, 644 },
  { 16, 1.5846104621887207, 17, 44 },
  { 605, -0.5107798725366592, 17, 645 },
  { 190, -0.24270758032798767, 19, 646 },
  { 901, -0.43268410861492157, 44, 647 },
  { 343, -0.4375251680612564, 13, 23 },
  { 288, -0.18241774290800095, 649, 654 },
  { 13, -0.13918804377317429, 650, 13 },
  { 905, -0.38916192948818207, 651, 19 },
  { 25, -0.09770217537879944, 652, 3 },
  { 331, -0.42409293353557587, 27, 653 },
  { 910, -0.3257714956998825, 23, 17 },
  { 522, -0.2704469710588455, 655, 656 },
  { 851, -0.3575088381767273, 17, 19 },
  { 338, -0.18502090871334076, 43, 27 },
  { 759, -0.0832413099706173, 658, 664 },
  { 65, -0.261671282351017, 659, 661 },
  { 634, -0.30048464238643646, 43, 660 },
  { 18, -0.6483931541442871, 27, 19 },
  { 696, 0.4586677551269531, 662, 19 },
  { 864, 0.14751673117280006, 663, 43 },
  { 349, -0.12839927524328232, 27, 42 },
  { 911, -0.2793472707271576, 665, 672 },
  { 819, -0.28662654757499695, 666, 669 },
  { 19, -0.45582668483257294, 667, 668 },
  { 633, -0.3047729432582855, 4, 42 },
  { 306, -0.14291484653949738, 27, 43 },
  { 944, -0.43404264748096466, 670, 13 },
  { 303, -0.07275067269802094, 671, 43 },
  { 184, -0.035500430036336184, 17, 19 },
  { 927, -0.2651616483926773, 673, 674 },
  { 553, -0.5272849798202515, 23, 19 },
  { 411, 0.3044460117816925, 675, 683 },
  { 954, -0.4434719383716583, 44, 676 },
  { 197, 0.12305184453725815, 677, 19 },
  { 280, -0.20875592529773712, 678, 679 },
  { 338, 0.0018416345119476318, 42, 23 },
  { 517, 0.6685750782489777, 680, 13 },
  { 81, -0.5086444318294525, 17, 681 },
  { 173, 0.9503667652606964, 682, 4 },
  { 575, -0.3992966115474701, 23, 43 },
  { 27, 0.2947285771369934, 684, 686 },
  { 661, 0.34270724654197693, 42, 685 },
  { 652, 0.6037155091762543, 23, 17 },
  { 235, -0.24795784801244736, 27, 19 },
  { 951, 1.1221798658370972, 688, 714 },
  { 460, -0.12784859910607338, 689, 700 },
  { 912, 0.09288719296455383, 690, 698 },
  { 906, -0.5806913673877716, 17, 691 },
  { 54, 0.019401158206164837, 692, 697 },
  { 953, 0.35535214096307755, 693, 43 },
  { 468, -0.6895630061626434, 43, 694 },
  { 289, -0.12303285300731659, 23, 695 },
  { 671, -0.06535401495057158, 696, 23 },
  { 419, -0.3709140568971634, 44, 19 },
  { 850, -0.026289314031600952, 17, 43 },
  { 972, -0.33777377009391785, 17, 699 },
  { 669, 0.8940419852733612, 23, 17 },
  { 604, 1.111857295036316, 701, 712 },
  { 114, 0.26273970305919647, 702, 711 },
  { 14, 0.4506033957004547, 703, 708 },
  { 632, 0.7053372263908386, 704, 23 },
  { 80, -0.2135193534195423, 17, 705 },
  { 894, -0.09890484809875488, 706, 707 },
  { 874, -0.22263016551733017, 42, 13 },
  { 402, -0.09487106651067734, 44, 19 },
  { 256, -0.09634841978549957, 27, 709 },
  { 981, 1.2550682723522186, 710, 44 },
  { 297, -0.21308384090662003, 43, 4 },
  { 1021, 2.2303723096847534, 42, 23 },
  { 233, 0.1627006195485592, 23, 713 },
  { 563, 0.22748685628175735, 43, 13 },
  { 419, 1.761857271194458, 715, 42 },
  { 354, 0.2381964772939682, 716, 717 },
  { 85, 0.09465887420810759, 19, 27 },
  { 367, 0.18165556341409683, 19, 718 },
  { 284, 0.27549809217453003, 27, 44 },
  { 725, 5.467676281929016, 720, 723 },
  { 426, -0.35485905408859253, 19, 721 },
  { 861, 1.095519095659256, 44, 722 },
  { 161, 0.7706584334373474, 23, 44 },
  { 670, 9.510067880153656, 23, 17 },
  { 355, -0.3851500153541565, 725, 729 },
  { 323, -0.24748367816209793, 726, 728 },
  { 614, -0.5325525104999542, 3, 727 },
  { 467, -0.6592071056365967, 4, 3 },
  { 496, -0.8280193507671356, 13, 4 },
  { 775, 0.12936758249998093, 730, 855 },
  { 112, -0.22097674757242203, 731, 809 },
  { 510, -0.408360093832016, 732, 779 },
  { 143, -0.22776736319065094, 733, 756 },
  { 506, -0.34228329360485077, 734, 751 },
  { 181, -0.45638369023799896, 735, 737 },
  { 154, -0.5770819187164307, 736, 3 },
  { 931, -0.5553130209445953, 4, 17 },
  { 457, -0.6343772411346436, 738, 740 },
  { 764, -0.14358101040124893, 739, 44 },
  { 376, -0.4243525117635727, 13, 27 },
  { 430, -0.35530461370944977, 741, 750 },
  { 900, -0.5584996342658997, 742, 4 },
  { 706, -0.3926643133163452, 743, 745 },
  { 936, -0.6366489231586456, 3, 744 },
  { 44, -0.6928426325321198, 13, 4 },
  { 168, -0.4112345725297928, 746, 749 },
  { 448, -0.7243766784667969, 27, 747 },
  { 494, -0.41264810413122177, 23, 748 },
  { 124, -0.5208148062229156, 19, 13 },
  { 1013, 0.03737322986125946, 43, 17 },
  { 1020, -0.46167147904634476, 27, 3 },
  { 882, -0.637304812669754, 752, 13 },
  { 261, -0.15498167276382446, 753, 755 },
  { 79, -0.2722138315439224, 13, 754 },
  { 155, -0.21260609477758408, 43, 27 },
  { 967, 0.1551247090101242, 4, 13 },
  { 12, -0.5868988335132599, 757, 763 },
  { 69, -0.4237753450870514, 758, 762 },
  { 418, -0.48473262786865234, 759, 43 },
  { 502, -0.6503351926803589, 760, 17 },
  { 436, -0.5214382112026215, 19, 761 },
  { 825, -0.19287893921136856, 42, 17 },
  { 667, -0.3088783174753189, 43, 42 },
  { 417, -0.4306376427412033, 764, 765 },
  { 958, 0.31101468205451965, 27, 44 },
  { 336, -0.4043056517839432, 766, 769 },
  { 298, -0.2200053557753563, 767, 768 },
  { 656, 0.41054654121398926, 13, 27 },
  { 821, -0.2951740324497223, 44, 17 },
  { 1006, -0.6344217658042908, 4, 770 },
  { 637, -0.20187553018331528, 771, 778 },
  { 197, -0.06628653220832348, 772, 777 },
  { 512, -0.33025799691677094, 773, 775 },
  { 267, -0.13722699880599976, 774, 43 },
  { 474, -0.31018219888210297, 13, 43 },
  { 765, -0.23526550829410553, 23, 776 },
  { 266, -0.1430696565657854, 13, 43 },
  { 333, -0.06155582144856453, 4, 19 },
  { 641, -0.13773014768958092, 13, 27 },
  { 619, -0.44566844403743744, 780, 788 },
  { 6, 0.4665720462799072, 781, 787 },
  { 248, -0.204732246696949, 23, 782 },
  { 37, -0.19510157860349864, 783, 786 },
  { 347, -0.14413738995790482, 784, 19 },
  { 407, -0.4156638979911804, 17, 785 },
  { 709, -0.26985684782266617, 23, 17 },
  { 350, -0.5146238654851913, 3, 44 },
  { 467, -0.5159658789634705, 27, 4 },
  { 389, -0.03692641481757164, 789, 27 },
  { 8, -0.04932420887053013, 790, 803 },
  { 424, -0.3821474760770798, 791, 802 },
  { 598, -0.3778635561466217, 792, 800 },
  { 588, -0.5951845645904541, 17, 793 },
  { 573, -0.5890548229217529, 794, 796 },
  { 658, -0.17846126854419708, 795, 27 },
  { 723, -0.21770655363798141, 27, 23 },
  { 477, -0.6811821162700653, 19, 797 },
  { 34, -0.4195231646299362, 798, 13 },
  { 764, -0.1264609880745411, 799, 17 },
  { 525, 0.17107242438942194, 4, 43 },
  { 679, -0.22004874795675278, 801, 43 },
  { 912, -0.3983502984046936, 17, 23 },
  { 506, -0.6486652791500092, 19, 17 },
  { 1018, -0.14244814962148666, 13, 804 },
  { 993, 0.02507835766300559, 805, 806 },
  { 780, -0.18842573836445808, 43, 23 },
  { 724, -0.3224423676729202, 807, 808 },
  { 1004, -0.026836931705474854, 13, 27 },
  { 50, 1.35860051587224, 13, 44 },
  { 546, 1.8217752575874329, 810, 853 },
  { 1021, 0.342912495136261, 811, 836 },
  { 396, 0.07864002510905266, 812, 830 },
  { 90, 0.036710528656840324, 813, 823 },
  { 896, 0.09835339337587357, 814, 822 },
  { 169, -0.08160117641091347, 815, 820 },
  { 1004, -0.23630277067422867, 816, 818 },
  { 92, -0.17386174574494362, 23, 817 },
  { 800, -0.3113192021846771, 42, 19 },
  { 982, 0.11208019219338894, 819, 13 },
  { 414, -0.18134605139493942, 19, 43 },
  { 100, -0.2251802682876587, 43, 821 },
  { 73, -0.42189013957977295, 43, 19 },
  { 252, -0.07080059498548508, 17, 44 },
  { 822, -0.14902805536985397, 824, 828 },
  { 773, -0.261020302772522, 825, 27 },
  { 962, 0.48210230469703674, 826, 827 },
  { 996, -0.49875709414482117, 43, 42 },
  { 12, 0.083134975284338, 19, 43 },
  { 836, 0.12149983458220959, 43, 829 },
  { 790, -0.3130079656839371, 43, 13 },
  { 651, 0.8755595982074738, 831, 833 },
  { 1012, -0.6717044413089752, 23, 832 },
  { 895, 1.0576553046703339, 42, 27 },
  { 261, -0.15276170521974564, 23, 834 },
  { 23, -0.3286701440811157, 17, 835 },
  { 536, 0.30671989917755127, 42, 43 },
  { 953, 0.5969683229923248, 837, 849 },
  { 526, 3.366026997566223, 838, 43 },
  { 903, 1.0248433947563171, 839, 847 },
  { 577, 1.356553316116333, 840, 846 },
  { 583, -0.309582844376564, 17, 841 },
  { 587, 1.8224431276321411, 842, 43 },
  { 559, -0.4671556055545807, 4, 843 },
  { 338, 1.5978186428546906, 844, 19 },
  { 3, 1.8109239339828491, 23, 845 },
  { 259, -0.0901640672236681, 19, 23 },
  { 303, -0.08465710282325745, 42, 27 },
  { 937, 0.5264122635126114, 848, 17 },
  { 809, -0.25640854984521866, 42, 43 },
  { 753, -0.1097448319196701, 850, 851 },
  { 1015, 1.5287644863128662, 19, 23 },
  { 574, 0.5806000828742981, 852, 42 },
  { 549, 1.1132623553276062, 23, 43 },
  { 273, -0.08691205456852913, 27, 854 },
  { 237, 0.14835947006940842, 42, 19 },
  { 230, 0.33807259798049927, 856, 861 },
  { 204, -0.054247189313173294, 44, 857 },
  { 526, 0.19316522404551506, 858, 860 },
  { 899, 1.084692656993866, 859, 17 },
  { 690, 0.8542445302009583, 19, 43 },
  { 413, 1.4113202095031738, 23, 42 },
  { 806, 8.206860303878784, 862, 866 },
  { 603, -0.27254416793584824, 863, 865 },
  { 624, 0.0791589766740799, 864, 19 },
  { 969, -0.4802183657884598, 44, 23 },
  { 76, -0.30771440267562866, 17, 44 },
  { 664, 3.327797770500183, 23, 17 },
  { 157, -0.38517311215400696, 868, 873 },
  { 502, -0.5127678513526917, 869, 872 },
  { 814, -0.2791353762149811, 870, 13 },
  { 793, -0.2990485280752182, 871, 4 },
  { 106, -0.47860684990882874, 3, 4 },
  { 268, -0.21657590568065643, 4, 3 },
  { 803, 0.7252036333084106, 874, 1006 },
  { 844, -0.45029640197753906, 875, 907 },
  { 180, -0.40194883942604065, 3, 876 },
  { 1020, -0.6105104386806488, 877, 893 },
  { 955, 0.22678811848163605, 878, 890 },
  { 516, -0.7746977806091309, 879, 880 },
  { 244, -0.21674703806638718, 3, 4 },
  { 486, -0.5966794192790985, 881, 885 },
  { 936, -0.5942862927913666, 13, 882 },
  { 634, -0.4722289592027664, 23, 883 },
  { 558, -0.6860828697681427, 884, 43 },
  { 864, -0.3511880189180374, 3, 17 },
  { 933, -0.6761362552642822, 886, 887 },
  { 119, -0.2886762171983719, 3, 17 },
  { 1021, -0.7396912276744843, 27, 888 },
  { 1019, -0.6807999312877655, 889, 4 },
  { 592, -0.3600601330399513, 4, 13 },
  { 271, -0.13406723737716675, 19, 891 },
  { 287, -0.21468645334243774, 17, 892 },
  { 388, -0.33478993922472, 27, 42 },
  { 510, -0.41849495470523834, 894, 903 },
  { 630, -0.5532010197639465, 895, 900 },
  { 779, -0.2064000740647316, 896, 899 },
  { 630, -0.5899671018123627, 897, 43 },
  { 177, -0.3009634166955948, 898, 3 },
  { 823, -0.2481507509946823, 4, 13 },
  { 15, -0.695813775062561, 23, 13 },
  { 326, -0.2636052519083023, 27, 901 },
  { 336, -0.44341500103473663, 4, 902 },
  { 409, -0.3385063707828522, 3, 17 },
  { 57, 0.11997722089290619, 904, 17 },
  { 501, -0.7045620977878571, 17, 905 },
  { 584, -0.647919625043869, 27, 906 },
  { 447, -0.28953099995851517, 4, 23 },
  { 434, -0.19961325079202652, 908, 957 },
  { 0, -0.5261904895305634, 909, 921 },
  { 515, -0.3718479126691818, 910, 920 },
  { 495, -0.3456878066062927, 911, 919 },
  { 866, -0.3693918436765671, 912, 916 },
  { 928, -0.4229719936847687, 913, 13 },
  { 89, -0.5878507196903229, 914, 42 },
  { 30, -0.5942541658878326, 4, 915 },
  { 634, -0.46437473595142365, 43, 44 },
  { 382, -0.3130811005830765, 4, 917 },
  { 571, 0.856037825345993, 918, 42 },
  { 517, 0.10121221281588078, 43, 13 },
  { 19, -0.110112976282835, 13, 27 },
  { 264, -0.1472048982977867, 27, 13 },
  { 621, -0.6026135087013245, 922, 924 },
  { 297, -0.24236837774515152, 923, 17 },
  { 293, -0.3105348199605942, 23, 27 },
  { 124, 0.38467854261398315, 925, 17 },
  { 980, 0.3216574937105179, 926, 954 },
  { 962, -0.2790925055742264, 927, 946 },
  { 826, -0.33181148767471313, 928, 929 },
  { 91, -0.5702765583992004, 23, 17 },
  { 622, -0.35636766254901886, 19, 930 },
  { 421, -0.5323443710803986, 931, 932 },
  { 353, -0.23059849441051483, 43, 27 },
  { 567, -0.43909384310245514, 933, 939 },
  { 97, -0.24118896573781967, 934, 936 },
  { 681, 0.23189758881926537, 935, 43 },
  { 512, -0.2409760132431984, 13, 23 },
  { 59, -0.5323952436447144, 13, 937 },
  { 702, 0.10264918953180313, 17, 938 },
  { 1021, 0.783274881541729, 44, 23 },
  { 584, -0.4516785889863968, 940, 944 },
  { 818, -0.2153746485710144, 43, 941 },
  { 1005, -0.2670316770672798, 942, 943 },
  { 212, -0.2309502735733986, 13, 23 },
  { 315, 0.12030957266688347, 17, 44 },
  { 632, -0.09715170785784721, 19, 945 },
  { 86, -0.2293226346373558, 44, 17 },
  { 370, -0.5746191442012787, 44, 947 },
  { 426, -0.2623455822467804, 948, 952 },
  { 146, -0.057955704629421234, 949, 950 },
  { 677, 0.014999382197856903, 43, 42 },
  { 393, -0.12429254129529, 19, 951 },
  { 170, -0.08066502958536148, 27, 17 },
  { 787, -0.31116609275341034, 953, 23 },
  { 734, -0.28487932682037354, 13, 27 },
  { 1012, 0.1957353949546814, 19, 955 },
  { 375, -0.1885247677564621, 44, 956 },
  { 321, -0.23664382100105286, 13, 17 },
  { 797, -0.3518959581851959, 958, 967 },
  { 600, 0.5972100496292114, 959, 966 },
  { 108, -0.24198158085346222, 960, 963 },
  { 749, -0.3780186176300049, 961, 27 },
  { 191, -0.28756940364837646, 42, 962 },
  { 549, -0.28860878199338913, 43, 19 },
  { 901, -0.42551183700561523, 43, 964 },
  { 892, 0.07978905737400055, 42, 965 },
  { 631, -0.008570503443479538, 23, 42 },
  { 421, 0.24514548480510712, 19, 42 },
  { 78, 1.3817991614341736, 968, 999 },
  { 814, -0.2073291689157486, 969, 977 },
  { 61, 1.0221294164657593, 970, 976 },
  { 198, -0.27521149814128876, 27, 971 },
  { 391, -0.09156684763729572, 972, 973 },
  { 463, -0.38848328590393066, 42, 13 },
  { 204, -0.26697981357574463, 974, 975 },
  { 246, -0.2768097370862961, 19, 23 },
  { 512, -0.028810396790504456, 42, 13 },
  { 468, -0.09411045862361789, 42, 27 },
  { 1013, 0.011887751519680023, 978, 991 },
  { 343, 0.7625667750835419, 979, 988 },
  { 985, -0.21416154503822327, 980, 982 },
  { 117, -0.005356120876967907, 981, 23 },
  { 760, -0.21100172400474548, 4, 44 },
  { 986, 0.6710911989212036, 983, 987 },
  { 664, 0.52142134308815, 984, 17 },
  { 28, -0.025757475290447474, 13, 985 },
  { 260, -0.05632447078824043, 986, 44 },
  { 499, 1.429478332400322, 19, 4 },
  { 373, -0.13613669574260712, 43, 19 },
  { 651, 1.8777288794517517, 989, 990 },
  { 850, 0.1602632775902748, 42, 19 },
  { 319, 0.9953784942626953, 17, 43 },
  { 54, 1.2595373392105103, 992, 996 },
  { 544, 1.4266618490219116, 993, 995 },
  { 946, 0.8274245262145996, 994, 44 },
  { 660, 1.6372348070144653, 23, 19 },
  { 756, 0.11638994514942169, 19, 44 },
  { 426, 0.3441922664642334, 13, 997 },
  { 305, -0.05563717894256115, 17, 998 },
  { 685, 0.8475749492645264, 43, 42 },
  { 418, 1.7702749967575073, 1000, 42 },
  { 157, 0.42299437522888184, 1001, 42 },
  { 360, 0.8114041984081268, 1002, 19 },
  { 928, 1.236714243888855, 1003, 17 },
  { 854, 0.1196031947620213, 1004, 23 },
  { 935, 1.0126028582453728, 1005, 43 },
  { 802, -0.10813089646399021, 4, 13 },
  { 699, 12.293873071670532, 1007, 17 },
  { 509, 2.6853535175323486, 44, 23 },
  { 307, -0.2803741544485092, 1009, 1015 },
  { 187, -0.2305862084031105, 1010, 1012 },
  { 1005, -0.6340440809726715, 1011, 3 },
  { 48, -0.708768218755722, 3, 4 },
  { 900, -0.5831367075443268, 1013, 3 },
  { 870, -0.6038410365581512, 4, 1014 },
  { 1022, -0.757772296667099, 19, 13 },
  { 261, 0.3084232956171036, 1016, 1141 },
  { 362, -0.6075980365276337, 1017, 1036 },
  { 508, -0.741715282201767, 1018, 1019 },
  { 939, -0.26856108382344246, 4, 27 },
  { 19, -0.4230247735977173, 1020, 1027 },
  { 135, -0.36237888038158417, 1021, 17 },
  { 1013, -0.5890054106712341, 1022, 1026 },
  { 827, -0.341363787651062, 1023, 23 },
  { 368, -0.5614696145057678, 4, 1024 },
  { 355, -0.3800411969423294, 3, 1025 },
  { 697, -0.20444895327091217, 17, 27 },
  { 636, -0.5540310740470886, 27, 13 },
  { 930, -0.7158922851085663, 1028, 1032 },
  { 91, -0.5676817893981934, 1029, 1031 },
  { 11, -0.7470280826091766, 1030, 13 },
  { 1018, -0.5255507677793503, 3, 27 },
  { 657, -0.30787932872772217, 17, 3 },
  { 186, -0.2603483647108078, 1033, 13 },
  { 967, 0.268608957529068, 1034, 1035 },
  { 952, -0.7254784405231476, 3, 4 },
  { 164, -0.3410976082086563, 13, 17 },
  { 78, -0.36336925625801086, 1037, 1073 },
  { 609, 1.2769313752651215, 1038, 27 },
  { 514, -0.5213066041469574, 1039, 1053 },
  { 543, -0.3169303685426712, 1040, 1051 },
  { 631, -0.31702272593975067, 1041, 17 },
  { 176, -0.44986967742443085, 43, 1042 },
  { 609, -0.5498296320438385, 1043, 1050 },
  { 508, -0.7049993276596069, 4, 1044 },
  { 924, -0.46899208426475525, 27, 1045 },
  { 717, -0.2683752551674843, 1046, 44 },
  { 726, -0.3497820347547531, 19, 1047 },
  { 659, -0.30845313519239426, 1048, 43 },
  { 613, -0.5426750481128693, 42, 1049 },
  { 582, -0.6161508858203888, 23, 17 },
  { 414, -0.42473070323467255, 13, 23 },
  { 702, -0.2089138776063919, 43, 1052 },
  { 884, -0.3820425420999527, 3, 13 },
  { 101, -0.3604149967432022, 1054, 1063 },
  { 819, -0.32934844493865967, 1055, 1061 },
  { 345, -0.18795005232095718, 1056, 1059 },
  { 1015, -0.39579637348651886, 1057, 1058 },
  { 211, -0.14496805518865585, 23, 17 },
  { 747, -0.3065139055252075, 13, 43 },
  { 263, -0.12620742619037628, 19, 1060 },
  { 690, -0.36568859219551086, 23, 27 },
  { 300, -0.1885088011622429, 17, 1062 },
  { 62, -0.49962832033634186, 17, 23 },
  { 88, -0.041822188068181276, 1064, 19 },
  { 428, -0.24733097851276398, 1065, 17 },
  { 820, -0.3785157650709152, 23, 1066 },
  { 167, -0.13912976533174515, 1067, 1069 },
  { 265, -0.059710364788770676, 17, 1068 },
  { 1001, -0.3783193677663803, 19, 44 },
  { 529, 0.03155540954321623, 1070, 1072 },
  { 466, -0.6148234605789185, 1071, 43 },
  { 343, -0.22739379107952118, 23, 27 },
  { 306, -0.12710461020469666, 43, 23 },
  { 116, -0.2993328869342804, 1074, 1076 },
  { 794, -0.2775295823812485, 1075, 13 },
  { 732, -0.29525016248226166, 43, 19 },
  { 527, -0.6676394939422607, 1077, 1084 },
  { 514, 0.36304689943790436, 1078, 1083 },
  { 306, -0.15125948190689087, 1079, 1081 },
  { 132, -0.11880823224782944, 1080, 27 },
  { 592, 0.1388963758945465, 4, 42 },
  { 467, -0.04949049325659871, 42, 1082 },
  { 904, -0.17504596710205078, 43, 19 },
  { 655, 0.4150354452431202, 23, 17 },
  { 331, -0.30161502957344055, 1085, 1095 },
  { 517, 0.1061664167791605, 1086, 1092 },
  { 911, -0.3854220509529114, 1087, 1090 },
  { 207, -0.07135817781090736, 1088, 17 },
  { 592, 0.26741571724414825, 1089, 4 },
  { 595, -0.22889895108528435, 19, 43 },
  { 250, -0.2728247046470642, 1091, 13 },
  { 428, 0.28600330278277397, 19, 27 },
  { 169, -0.550534725189209, 1093, 1094 },
  { 543, -0.10843643918633461, 23, 4 },
  { 486, 0.5789173543453217, 27, 43 },
  { 1019, 0.16117452830076218, 1096, 1120 },
  { 723, -0.20496515184640884, 1097, 1101 },
  { 653, -0.21747341006994247, 1098, 1100 },
  { 996, -0.36786679923534393, 1099, 13 },
  { 651, -0.36033135652542114, 19, 23 },
  { 811, -0.21940188854932785, 42, 43 },
  { 652, 1.2152984142303467, 1102, 1119 },
  { 525, 0.8346889615058899, 1103, 1118 },
  { 486, -0.36709943413734436, 1104, 1106 },
  { 927, -0.20721353590488434, 1105, 23 },
  { 245, -0.11726280301809311, 42, 43 },
  { 45, 4.352942943572998, 1107, 13 },
  { 837, 0.140034981071949, 1108, 1116 },
  { 481, 0.810582846403122, 1109, 1115 },
  { 851, 0.04434041492640972, 1110, 1112 },
  { 210, -0.15695678442716599, 23, 1111 },
  { 856, -0.23835790902376175, 44, 19 },
  { 403, -0.042663554195314646, 1113, 23 },
  { 398, -0.12655362486839294, 44, 1114 },
  { 83, -0.11461839266121387, 13, 4 },
  { 185, 0.031607228331267834, 43, 13 },
  { 894, -0.1292724385857582, 1117, 19 },
  { 176, 0.44482769072055817, 43, 19 },
  { 912, -0.08330048620700836, 13, 23 },
  { 506, -0.03282703459262848, 17, 44 },
  { 821, 0.0758451372385025, 1121, 1137 },
  { 24, 0.8812931776046753, 1122, 1134 },
  { 542, 0.09757779538631439, 1123, 1128 },
  { 459, -0.17602161690592766, 1124, 1126 },
  { 932, -0.10086578875780106, 17, 1125 },
  { 966, -0.3712244778871536, 44, 23 },
  { 903, 1.9332196712493896, 1127, 43 },
  { 289, -0.19453328102827072, 43, 42 },
  { 986, 1.0750030875205994, 1129, 19 },
  { 38, 0.9252853691577911, 1130, 23 },
  { 606, 0.9472187161445618, 1131, 42 },
  { 483, -0.13305014371871948, 43, 1132 },
  { 495, 0.027720950543880463, 1133, 13 },
  { 41, 0.5317026376724243, 27, 19 },
  { 377, 0.031006882898509502, 1135, 27 },
  { 48, 0.2682582810521126, 1136, 43 },
  { 591, 0.37428948283195496, 4, 27 },
  { 21, 1.125129610300064, 1138, 1140 },
  { 898, 0.2670438885688782, 1139, 23 },
  { 893, -0.057117014192044735, 17, 43 },
  { 293, 0.06518524885177612, 42, 44 },
  { 3, 2.9412803649902344, 1142, 23 },
  { 709, 10.565666437149048, 1143, 17 },
  { 446, 2.539652943611145, 1144, 43 },
  { 245, 0.22951851785182953, 19, 44 },
  { 178, -0.29514525830745697, 1146, 1152 },
  { 189, -0.2472672164440155, 1147, 1150 },
  { 550, -0.5134640634059906, 1148, 4 },
  { 511, -0.5501209497451782, 3, 1149 },
  { 640, -0.5757237672805786, 4, 3 },
  { 1022, -0.6731335818767548, 1151, 4 },
  { 344, -0.42467206716537476, 3, 13 },
  { 757, 0.4096020311117172, 1153, 1279 },
  { 324, -0.23348531872034073, 1154, 1197 },
  { 495, -0.432521715760231, 1155, 1181 },
  { 1022, -0.5170958638191223, 1156, 1175 },
  { 1018, 0.5455440282821655, 1157, 27 },
  { 106, -0.44452208280563354, 1158, 1169 },
  { 461, -0.6307879686355591, 1159, 1167 },
  { 35, -0.5960529744625092, 1160, 27 },
  { 904, -0.6761981546878815, 1161, 1163 },
  { 843, -0.568701297044754, 4, 1162 },
  { 902, -0.46817418932914734, 44, 3 },
  { 775, -0.21511774510145187, 13, 1164 },
  { 272, -0.24591367691755295, 17, 1165 },
  { 816, -0.15030843764543533, 3, 1166 },
  { 69, -0.5377032160758972, 43, 23 },
  { 30, -0.7002987861633301, 13, 1168 },
  { 902, -0.48770514130592346, 3, 4 },
  { 58, -0.5354665815830231, 1170, 1174 },
  { 268, -0.21105805784463882, 1171, 44 },
  { 602, -0.5746452510356903, 19, 1172 },
  { 216, -0.1997457593679428, 42, 1173 },
  { 660, -0.14836886525154114, 4, 17 },
  { 951, -0.4156968593597412, 43, 3 },
  { 877, -0.3860308676958084, 1176, 1179 },
  { 529, -0.6814351975917816, 1177, 17 },
  { 726, -0.34831492602825165, 23, 1178 },
  { 103, -0.18062073225155473, 17, 13 },
  { 598, -0.27646224200725555, 27, 1180 },
  { 706, -0.2747926786541939, 19, 4 },
  { 610, -0.49620412290096283, 1182, 1188 },
  { 939, -0.5542749762535095, 1183, 1187 },
  { 513, -0.3746050149202347, 1184, 17 },
  { 569, -0.586889386177063, 4, 1185 },
  { 696, -0.5775938630104065, 13, 1186 },
  { 786, -0.2628570646047592, 27, 3 },
  { 960, 0.21092068776488304, 13, 27 },
  { 1012, 0.7143372893333435, 1189, 1195 },
  { 1014, -0.21697109006345272, 1190, 1191 },
  { 254, -0.21509325504302979, 27, 23 },
  { 1013, 0.6726645529270172, 1192, 17 },
  { 700, -0.3946612775325775, 1193, 13 },
  { 881, -0.34549862146377563, 4, 1194 },
  { 811, -0.2253509983420372, 23, 43 },
  { 675, -0.20701344311237335, 4, 1196 },
  { 6, 1.4979938715696335, 13, 27 },
  { 1023, 0.39772799611091614, 1198, 1265 },
  { 417, 0.6503919363021851, 1199, 1261 },
  { 527, -0.5989102721214294, 1200, 1217 },
  { 560, -0.08233165740966797, 1201, 1215 },
  { 441, -0.09278787486255169, 1202, 1214 },
  { 748, -0.15539707988500595, 42, 1203 },
  { 663, -0.3494833707809448, 17, 1204 },
  { 771, -0.23544713109731674, 1205, 1207 },
  { 170, -0.18678640574216843, 1206, 19 },
  { 522, -0.5904384702444077, 23, 43 },
  { 19, -0.40952199697494507, 1208, 1210 },
  { 910, -0.31581565737724304, 42, 1209 },
  { 59, -0.34673482179641724, 43, 27 },
  { 25, -0.4545659124851227, 1211, 17 },
  { 848, -0.36548013985157013, 23, 1212 },
  { 998, -0.6090960800647736, 44, 1213 },
  { 906, -0.18569613248109818, 27, 13 },
  { 563, -0.4947199821472168, 23, 42 },
  { 510, -0.12562083825469017, 1216, 19 },
  { 714, -0.1866481900215149, 27, 43 },
  { 439, 0.7933107912540436, 1218, 1258 },
  { 336, -0.3068801760673523, 1219, 1233 },
  { 504, -0.535412073135376, 1220, 1225 },
  { 924, -0.23147259652614594, 1221, 1224 },
  { 957, -0.6965313851833344, 1222, 1223 },
  { 960, -0.6550904512405396, 19, 43 },
  { 256, -0.06687937676906586, 17, 13 },
  { 10, -0.2386091873049736, 23, 44 },
  { 338, -0.19538892805576324, 1226, 1232 },
  { 533, -0.4177373796701431, 1227, 1228 },
  { 137, -0.20393124222755432, 27, 43 },
  { 156, -0.11798263341188431, 1229, 1231 },
  { 40, 0.4308565855026245, 13, 1230 },
  { 995, -0.08260678686201572, 43, 19 },
  { 721, -0.16715924441814423, 17, 19 },
  { 871, -0.16172289475798607, 42, 19 },
  { 709, -0.3028404414653778, 27, 1234 },
  { 157, -0.03777747042477131, 1235, 1247 },
  { 639, -0.22175507992506027, 1236, 1245 },
  { 2, -0.5036715269088745, 1237, 1238 },
  { 129, -0.07216815184801817, 43, 19 },
  { 502, -0.13272972404956818, 1239, 1241 },
  { 716, -0.14063630625605583, 23, 1240 },
  { 222, -0.06206389702856541, 23, 19 },
  { 167, -0.15358208119869232, 1242, 1243 },
  { 493, -0.17726445198059082, 43, 19 },
  { 400, -0.3556661754846573, 1244, 44 },
  { 588, -0.06504137814044952, 27, 13 },
  { 504, -0.6900246143341064, 19, 1246 },
  { 515, -0.6774906814098358, 27, 43 },
  { 271, -0.1312464475631714, 1248, 1250 },
  { 495, -0.3174934536218643, 1249, 19 },
  { 31, 0.18095669150352478, 42, 43 },
  { 786, -0.26045088469982147, 42, 1251 },
  { 428, 0.11286106333136559, 1252, 1255 },
  { 465, 0.4569217413663864, 1253, 13 },
  { 703, 0.0829399935901165, 17, 1254 },
  { 115, -0.033035898581147194, 23, 19 },
  { 562, -0.26918773725628853, 4, 1256 },
  { 989, 0.3737628310918808, 23, 1257 },
  { 549, 1.7295237183570862, 43, 19 },
  { 737, -0.2453901395201683, 1259, 1260 },
  { 421, 1.249637484550476, 27, 43 },
  { 432, 3.3282065391540527, 19, 17 },
  { 1018, 0.7371068298816681, 1262, 1263 },
  { 445, -0.15425118803977966, 27, 42 },
  { 49, 0.8832073733210564, 1264, 27 },
  { 182, 0.5183598697185516, 19, 23 },
  { 486, -0.4296104311943054, 1266, 1270 },
  { 33, -0.60469651222229, 17, 1267 },
  { 295, -0.14845522493124008, 1268, 44 },
  { 563, 0.4347545374184847, 1269, 27 },
  { 842, -0.003557249903678894, 23, 42 },
  { 770, -0.05059224180877209, 1271, 1277 },
  { 906, 0.8302872180938721, 1272, 23 },
  { 81, 1.1924846768379211, 1273, 19 },
  { 256, -0.07709017768502235, 1274, 17 },
  { 229, -0.16903164982795715, 23, 1275 },
  { 801, -0.22053088247776031, 27, 1276 },
  { 493, 0.3420262560248375, 42, 43 },
  { 1022, 4.738431930541992, 1278, 19 },
  { 13, 2.047225594520569, 23, 44 },
  { 998, -0.2223018854856491, 1280, 1283 },
  { 918, 0.3735637292265892, 1281, 23 },
  { 425, 0.16230887547135353, 1282, 43 },
  { 697, 0.509690135717392, 44, 19 },
  { 812, 8.221545457839966, 1284, 1286 },
  { 128, -0.22112193703651428, 23, 1285 },
  { 803, 0.3383936882019043, 17, 44 },
  { 1, -0.22850167751312256, 17, 23 },
  { 781, 0.7802391052246094, 1288, 1420 },
  { 701, -0.3708598464727402, 1289, 1306 },
  { 192, -0.12714052200317383, 1290, 1293 },
  { 439, -0.6495857834815979, 1291, 1292 },
  { 223, -0.20241647958755493, 3, 4 },
  { 94, -0.6011692583560944, 3, 13 },
  { 479, -0.5347402691841125, 1294, 1300 },
  { 587, -0.31348856538534164, 1295, 43 },
  { 896, -0.5584070682525635, 1296, 1298 },
  { 402, -0.33251355588436127, 4, 1297 },
  { 511, -0.5523841083049774, 3, 4 },
  { 341, -0.23274722695350647, 1299, 4 },
  { 835, -0.3744807243347168, 23, 13 },
  { 546, 0.19167258497327566, 1301, 27 },
  { 527, -0.5018394142389297, 1302, 1303 },
  { 924, -0.44940437376499176, 3, 17 },
  { 928, -0.6221627295017242, 13, 1304 },
  { 763, -0.26421523094177246, 4, 1305 },
  { 685, -0.5975856482982635, 3, 4 },
  { 1021, 0.7850966155529022, 1307, 1409 },
  { 438, 1.8782247304916382, 1308, 42 },
  { 521, -0.42935314774513245, 1309, 1353 },
  { 1022, -0.5177200138568878, 1310, 1329 },
  { 439, -0.41080884635448456, 1311, 1323 },
  { 564, -0.45200714468955994, 1312, 1322 },
  { 879, -0.21605294942855835, 1313, 1320 },
  { 674, -0.6109651625156403, 1314, 1315 },
  { 987, -0.4299878031015396, 4, 3 },
  { 1001, -0.522695392370224, 42, 1316 },
  { 291, -0.16301949322223663, 27, 1317 },
  { 598, -0.4833415597677231, 1318, 13 },
  { 108, -0.2860836014151573, 1319, 23 },
  { 406, -0.4387025088071823, 43, 44 },
  { 849, -0.15183871239423752, 17, 1321 },
  { 773, -0.23235639184713364, 43, 4 },
  { 279, -0.13439349830150604, 43, 13 },
  { 526, -0.5849566161632538, 42, 1324 },
  { 163, -0.06703466176986694, 1325, 42 },
  { 36, -0.2019151858985424, 1326, 1328 },
  { 120, -0.2387000098824501, 4, 1327 },
  { 938, 0.15583453327417374, 27, 19 },
  { 708, 0.04518907889723778, 43, 27 },
  { 150, -0.42395640909671783, 1330, 1339 },
  { 240, -0.25050652027130127, 1331, 1332 },
  { 200, -0.27917294204235077, 27, 19 },
  { 653, -0.5809105038642883, 1333, 1335 },
  { 762, -0.2780633419752121, 23, 1334 },
  { 607, -0.4993585795164108, 17, 13 },
  { 872, -0.1802956387400627, 1336, 4 },
  { 856, -0.06640032678842545, 1337, 27 },
  { 929, -0.614586591720581, 1338, 17 },
  { 966, -0.5870281159877777, 23, 17 },
  { 127, 0.19628705084323883, 1340, 1352 },
  { 661, -0.3078061044216156, 23, 1341 },
  { 454, -0.19808976352214813, 1342, 1349 },
  { 74, -0.4587363451719284, 1343, 1344 },
  { 710, -0.3062956929206848, 23, 43 },
  { 581, 0.231456708163023, 1345, 27 },
  { 10, -0.24592580646276474, 1346, 1348 },
  { 655, -0.24320638179779053, 13, 1347 },
  { 644, 0.27445030212402344, 19, 13 },
  { 601, -0.4814792722463608, 13, 17 },
  { 167, -0.04416254907846451, 1350, 1351 },
  { 442, 0.3752674087882042, 23, 19 },
  { 503, -0.3575166165828705, 42, 43 },
  { 790, -0.31100013852119446, 42, 17 },
  { 314, -0.25379878282546997, 1354, 1373 },
  { 144, -0.4184763431549072, 1355, 1364 },
  { 87, -0.4667021781206131, 1356, 1362 },
  { 630, -0.5536371767520905, 1357, 1361 },
  { 545, 0.18967215344309807, 1358, 27 },
  { 583, -0.6761981248855591, 1359, 1360 },
  { 837, -0.37553106248378754, 27, 4 },
  { 364, -0.3180248886346817, 13, 17 },
  { 687, -0.19520167261362076, 4, 3 },
  { 522, -0.3418554365634918, 1363, 13 },
  { 661, -0.4532519280910492, 27, 43 },
  { 762, -0.28059297800064087, 1365, 1370 },
  { 907, 0.34502507746219635, 1366, 1368 },
  { 6, -0.31439919769763947, 1367, 27 },
  { 607, 1.0410871058702469, 19, 27 },
  { 374, -0.07291717454791069, 13, 1369 },
  { 841, -0.09456785768270493, 43, 27 },
  { 706, -0.3197597563266754, 13, 1371 },
  { 282, -0.17652247846126556, 19, 1372 },
  { 633, -0.25104234367609024, 4, 42 },
  { 397, 0.13782130181789398, 1374, 1401 },
  { 179, 0.017795320600271225, 1375, 1395 },
  { 610, -0.286137655377388, 1376, 1384 },
  { 432, 0.3576808199286461, 1377, 27 },
  { 356, -0.17754589021205902, 1378, 1380 },
  { 708, -0.18909669667482376, 44, 1379 },
  { 595, -0.5887671113014221, 17, 43 },
  { 307, -0.235464908182621, 13, 1381 },
  { 1003, -0.10064102709293365, 1382, 1383 },
  { 430, -0.49555304646492004, 23, 17 },
  { 656, 0.13108257576823235, 19, 27 },
  { 826, -0.28187116980552673, 1385, 1386 },
  { 576, 1.7320877686142921, 42, 43 },
  { 5, -0.2821797579526901, 1387, 1390 },
  { 899, -0.19248008728027344, 19, 1388 },
  { 543, -0.11870245635509491, 27, 1389 },
  { 701, -0.2082471251487732, 17, 44 },
  { 392, -0.2756468951702118, 1391, 1393 },
  { 903, -0.21400457620620728, 1392, 13 },
  { 123, -0.327622652053833, 43, 44 },
  { 555, 0.7897656559944153, 1394, 13 },
  { 109, 0.27459919452667236, 43, 44 },
  { 733, 0.3048088997602463, 1396, 1400 },
  { 657, -0.03719804435968399, 19, 1397 },
  { 1017, 1.4956274032592773, 1398, 43 },
  { 712, -0.002366679720580578, 44, 1399 },
  { 445, 1.208127200603485, 13, 19 },
  { 550, 0.034564998000860214, 17, 19 },
  { 568, 0.7338886857032776, 1402, 1405 },
  { 805, -0.27058757841587067, 42, 1403 },
  { 761, -0.14984647184610367, 13, 1404 },
  { 485, 0.36599522829055786, 23, 42 },
  { 861, -0.02614501304924488, 27, 1406 },
  { 962, 1.3896272778511047, 1407, 43 },
  { 889, 0.19528828561306, 44, 1408 },
  { 874, 0.45333443582057953, 19, 42 },
  { 454, 0.08070486225187778, 1410, 1414 },
  { 431, -0.4801027327775955, 1411, 1413 },
  { 726, -0.31465132534503937, 27, 1412 },
  { 378, -0.21442271769046783, 43, 23 },
  { 862, 1.3123546838760376, 23, 19 },
  { 128, 0.6464091837406158, 1415, 1417 },
  { 793, -0.29447905719280243, 23, 1416 },
  { 5, 2.758755922317505, 19, 42 },
  { 643, 2.5595585107803345, 1418, 44 },
  { 220, 0.014676332473754883, 27, 1419 },
  { 250, -0.03319131024181843, 23, 17 },
  { 3, 2.7896727323532104, 1421, 23 },
  { 958, -0.5218462646007538, 17, 1422 },
  { 168, -0.2609710022807121, 43, 1423 },
  { 746, 0.3269784450531006, 43, 44 },
  { 190, -0.29024064540863037, 1425, 1429 },
  { 934, -0.592156320810318, 1426, 1428 },
  { 44, -0.7278616726398468, 1427, 3 },
  { 180, -0.4047004133462906, 3, 4 },
  { 808, -0.31869007647037506, 4, 13 },
  { 742, 0.4087033122777939, 1430, 1555 },
  { 140, -0.30846157670021057, 1431, 1482 },
  { 510, -0.39861807227134705, 1432, 1466 },
  { 508, -0.5698129236698151, 1433, 1453 },
  { 372, -0.3268945962190628, 1434, 17 },
  { 706, -0.3952035754919052, 1435, 1441 },
  { 444, -0.5707281231880188, 1436, 1439 },
  { 332, -0.4019806981086731, 3, 1437 },
  { 703, -0.4942234009504318, 4, 1438 },
  { 577, -0.6917534172534943, 13, 4 },
  { 468, -0.6337933540344238, 1440, 27 },
  { 404, -0.3896517902612686, 3, 4 },
  { 864, -0.3488921970129013, 1442, 1451 },
  { 502, -0.7226302027702332, 1443, 1445 },
  { 41, -0.6264169812202454, 1444, 17 },
  { 495, -0.7745445072650909, 42, 44 },
  { 598, -0.5536745190620422, 1446, 1449 },
  { 968, -0.5537624359130859, 1447, 43 },
  { 792, -0.32021668553352356, 1448, 4 },
  { 826, -0.36907318234443665, 19, 23 },
  { 599, -0.4584929198026657, 13, 1450 },
  { 299, -0.12789618223905563, 3, 27 },
  { 401, -0.4289160966873169, 27, 1452 },
  { 321, -0.300248920917511, 4, 42 },
  { 667, -0.3074668049812317, 1454, 1460 },
  { 756, -0.3186355233192444, 1455, 4 },
  { 1022, -0.7186117470264435, 1456, 1457 },
  { 864, -0.39058417081832886, 3, 27 },
  { 25, -0.6672780215740204, 1458, 13 },
  { 978, -0.7124628126621246, 23, 1459 },
  { 500, -0.30120421200990677, 27, 4 },
  { 355, -0.2776881009340286, 1461, 43 },
  { 509, -0.6699227392673492, 19, 1462 },
  { 466, -0.7114337086677551, 27, 1463 },
  { 271, -0.13142280280590057, 23, 1464 },
  { 476, -0.39323799312114716, 17, 1465 },
  { 527, -0.3326446935534477, 3, 13 },
  { 32, 1.0266510248184204, 1467, 4 },
  { 2, 0.40852805972099304, 1468, 1479 },
  { 493, -0.01756639569066465, 1469, 1476 },
  { 12, -0.1564588099718094, 1470, 1474 },
  { 115, -0.431154802441597, 27, 1471 },
  { 673, -0.18587961047887802, 1472, 27 },
  { 245, -0.11657343432307243, 17, 1473 },
  { 736, -0.17322582751512527, 43, 17 },
  { 396, -0.3344055116176605, 1475, 43 },
  { 148, -0.26004213094711304, 13, 17 },
  { 568, 0.14857640489935875, 1477, 4 },
  { 697, -0.1760120466351509, 13, 1478 },
  { 912, -0.45944590866565704, 3, 44 },
  { 779, -0.20097683370113373, 1480, 23 },
  { 851, -0.5879853367805481, 17, 1481 },
  { 184, -0.44015437364578247, 27, 4 },
  { 515, 1.386539101600647, 1483, 1551 },
  { 523, -0.4057284742593765, 1484, 1505 },
  { 700, 0.08753400295972824, 1485, 1504 },
  { 459, -0.057015664875507355, 1486, 1501 },
  { 554, -0.48042744398117065, 1487, 1494 },
  { 81, -0.4510132819414139, 1488, 42 },
  { 613, -0.4216759502887726, 1489, 27 },
  { 455, -0.5886539816856384, 4, 1490 },
  { 186, -0.21547378599643707, 43, 1491 },
  { 536, -0.3509344011545181, 1492, 19 },
  { 173, -0.3664686679840088, 17, 1493 },
  { 705, -0.25692277401685715, 42, 44 },
  { 494, -0.4529499262571335, 1495, 1497 },
  { 998, 1.7379576563835144, 1496, 19 },
  { 764, -0.16658534854650497, 43, 23 },
  { 1022, -0.6947396993637085, 43, 1498 },
  { 976, -0.2855325788259506, 1499, 1500 },
  { 936, -0.15580464154481888, 13, 27 },
  { 288, -0.18567322194576263, 19, 17 },
  { 890, 1.0863041579723358, 1502, 17 },
  { 838, 0.2462518811225891, 42, 1503 },
  { 1006, -0.43230998516082764, 19, 42 },
  { 252, 0.051466554403305054, 19, 44 },
  { 124, 1.2146226167678833, 1506, 1549 },
  { 793, -0.28717587888240814, 1507, 1522 },
  { 825, -0.2437494546175003, 1508, 1514 },
  { 753, -0.17748787999153137, 1509, 1513 },
  { 1, -0.4861295521259308, 1510, 1511 },
  { 647, -0.38427795469760895, 27, 43 },
  { 820, -0.38862092792987823, 13, 1512 },
  { 719, -0.15754904597997665, 27, 42 },
  { 163, -0.011161522939801216, 27, 43 },
  { 117, -0.3342873156070709, 13, 1515 },
  { 1014, -0.39926742017269135, 27, 1516 },
  { 761, -0.21058211475610733, 1517, 1520 },
  { 528, -0.4518957585096359, 42, 1518 },
  { 555, 0.8139707446098328, 1519, 19 },
  { 904, 0.7683721780776978, 43, 23 },
  { 402, 0.04388146894052625, 13, 1521 },
  { 864, 0.3093406409025192, 27, 19 },
  { 195, -0.18094637989997864, 1523, 1527 },
  { 58, -0.3583728075027466, 1524, 1525 },
  { 644, 0.17009533010423183, 19, 17 },
  { 16, 0.5545486062765121, 13, 1526 },
  { 250, -0.18898926675319672, 43, 4 },
  { 459, -0.4622034728527069, 23, 1528 },
  { 956, 0.5767076015472412, 1529, 1543 },
  { 564, 1.1060200333595276, 1530, 1542 },
  { 11, 0.07727834675461054, 1531, 1538 },
  { 5, -0.15536775439977646, 1532, 1535 },
  { 628, 1.3496232330799103, 1533, 17 },
  { 592, -0.2823602855205536, 1534, 19 },
  { 683, -0.2306729108095169, 23, 43 },
  { 668, -0.012470138259232044, 1536, 17 },
  { 106, -0.3289823830127716, 13, 1537 },
  { 518, 0.3010486625134945, 43, 42 },
  { 575, 0.04402077943086624, 1539, 23 },
  { 356, 0.13176266103982925, 1540, 44 },
  { 435, -0.29147833585739136, 23, 1541 },
  { 882, 0.37020543962717056, 19, 17 },
  { 32, 0.15728840231895447, 13, 4 },
  { 53, 1.87611985206604, 1544, 1546 },
  { 541, 1.2199999690055847, 43, 1545 },
  { 824, 0.031515419483184814, 27, 19 },
  { 221, -0.03210250521078706, 1547, 13 },
  { 147, -0.03687961399555206, 44, 1548 },
  { 374, 0.06701948679983616, 19, 42 },
  { 726, 0.246534563601017, 42, 1550 },
  { 698, 0.5627725720405579, 23, 43 },
  { 459, 0.2550496533513069, 1552, 1553 },
  { 443, -0.4988155961036682, 27, 23 },
  { 127, 0.6471064984798431, 19, 1554 },
  { 915, 0.5556168556213379, 44, 23 },
  { 467, -0.1507602408528328, 1556, 1559 },
  { 301, 0.40367400646209717, 1557, 17 },
  { 881, 0.42579832673072815, 1558, 23 },
  { 968, -0.3041166663169861, 44, 23 },
  { 736, 11.753879070281982, 44, 17 },
  { 834, -0.44712023437023163, 1561, 1586 },
  { 329, -0.1421729251742363, 1562, 1566 },
  { 106, -0.47860684990882874, 1563, 4 },
  { 986, -0.5134640485048294, 1564, 1565 },
  { 298, -0.23848649859428406, 3, 4 },
  { 745, -0.2791079431772232, 4, 3 },
  { 98, -0.537337601184845, 1567, 1569 },
  { 56, -0.6455025672912598, 4, 1568 },
  { 873, -0.37763096392154694, 3, 27 },
  { 397, -0.4408489614725113, 1570, 1573 },
  { 715, -0.36247751116752625, 3, 1571 },
  { 44, -0.6867539584636688, 13, 1572 },
  { 612, -0.48893001675605774, 3, 4 },
  { 552, -0.25237730890512466, 1574, 1583 },
  { 650, -0.21656476706266403, 1575, 1576 },
  { 943, -0.6768723726272583, 3, 4 },
  { 487, -0.5337201356887817, 1577, 1582 },
  { 109, -0.4887889325618744, 1578, 1579 },
  { 802, -0.29374024271965027, 23, 13 },
  { 796, -0.36010444164276123, 43, 1580 },
  { 1018, -0.36407802999019623, 17, 1581 },
  { 642, -0.5306801199913025, 27, 3 },
  { 578, -0.7155753970146179, 27, 4 },
  { 584, 0.8850362151861191, 1584, 27 },
  { 542, -0.018083788454532623, 13, 1585 },
  { 226, -0.15360188484191895, 17, 3 },
  { 784, 0.44489631056785583, 1587, 1698 },
  { 160, -0.1547672599554062, 1588, 1630 },
  { 530, -0.5378110706806183, 1589, 1607 },
  { 510, -0.549920380115509, 1590, 1599 },
  { 332, -0.3499729633331299, 1591, 1598 },
  { 675, -0.21762773394584656, 1592, 1595 },
  { 619, -0.481729120016098, 1593, 4 },
  { 532, -0.6369049251079559, 1594, 13 },
  { 106, -0.43301622569561005, 44, 42 },
  { 711, -0.2757255584001541, 1596, 1597 },
  { 597, -0.6523914337158203, 27, 43 },
  { 307, -0.2581615373492241, 17, 3 },
  { 227, -0.07376617006957531, 42, 43 },
  { 882, -0.6293638944625854, 27, 1600 },
  { 460, -0.4553348422050476, 1601, 1604 },
  { 220, -0.21075941622257233, 1602, 1603 },
  { 974, -0.6503165662288666, 27, 19 },
  { 678, -0.12532146647572517, 17, 43 },
  { 477, -0.4125543534755707, 1605, 1606 },
  { 1008, -0.7662716805934906, 27, 23 },
  { 786, -0.23227713257074356, 19, 43 },
  { 365, -0.21113763749599457, 1608, 1629 },
  { 889, -0.27764154970645905, 1609, 1624 },
  { 600, -0.38493016362190247, 1610, 1622 },
  { 484, -0.4708870053291321, 1611, 1615 },
  { 358, -0.48588909208774567, 1612, 1613 },
  { 637, -0.4854159504175186, 13, 23 },
  { 109, -0.4649885445833206, 27, 1614 },
  { 462, -0.5512423813343048, 19, 23 },
  { 483, -0.2484005242586136, 1616, 1618 },
  { 675, -0.19347185641527176, 17, 1617 },
  { 803, -0.09030795097351074, 44, 43 },
  { 60, -0.36585475504398346, 1619, 1621 },
  { 732, -0.2872007489204407, 1620, 23 },
  { 942, -0.516312912106514, 19, 13 },
  { 44, -0.21085838228464127, 43, 4 },
  { 3, -0.684365838766098, 1623, 13 },
  { 845, -0.42668555676937103, 27, 4 },
  { 811, -0.21790925413370132, 1625, 1627 },
  { 541, 0.09146668761968613, 17, 1626 },
  { 432, -0.3713698163628578, 43, 13 },
  { 788, -0.150396429002285, 27, 1628 },
  { 278, -0.23115482926368713, 4, 44 },
  { 287, -0.19363364577293396, 27, 17 },
  { 438, 1.8782247304916382, 1631, 42 },
  { 515, 0.7821726500988007, 1632, 1691 },
  { 236, -0.08035707846283913, 1633, 1668 },
  { 453, 0.48968981206417084, 1634, 1665 },
  { 545, -0.6775248646736145, 1635, 1636 },
  { 1021, -0.4206275939941406, 42, 23 },
  { 238, -0.19092091917991638, 1637, 1648 },
  { 385, 0.15780851244926453, 1638, 27 },
  { 0, -0.6299893260002136, 1639, 1640 },
  { 793, -0.3031485974788666, 19, 43 },
  { 81, 0.07411941420286894, 1641, 42 },
  { 959, -0.6456490457057953, 1642, 1644 },
  { 263, -0.12600387632846832, 17, 1643 },
  { 742, -0.2782159298658371, 43, 23 },
  { 672, -0.05185017175972462, 1645, 1647 },
  { 512, -0.5308541655540466, 1646, 19 },
  { 115, -0.17915235459804535, 42, 19 },
  { 944, -0.32483959197998047, 23, 42 },
  { 514, 0.3720877021551132, 1649, 1663 },
  { 386, -0.03161298204213381, 1650, 1661 },
  { 553, 0.5773464739322662, 1651, 1659 },
  { 645, -0.2434157431125641, 1652, 1655 },
  { 935, -0.3870678097009659, 1653, 13 },
  { 523, 0.5505317375063896, 1654, 27 },
  { 618, -0.52231565117836, 4, 17 },
  { 108, 0.09827671945095062, 1656, 19 },
  { 234, -0.24717553704977036, 1657, 1658 },
  { 826, -0.26021959632635117, 23, 43 },
  { 816, -0.14708629995584488, 42, 43 },
  { 150, -0.3730737119913101, 1660, 13 },
  { 434, -0.10005424544215202, 17, 19 },
  { 727, -0.31817494332790375, 27, 1662 },
  { 150, 0.9307752549648285, 23, 17 },
  { 141, 0.6499934941530228, 1664, 42 },
  { 504, 1.6305855810642242, 23, 42 },
  { 994, 0.014948386931791902, 42, 1666 },
  { 517, 0.1061664167791605, 1667, 27 },
  { 555, -0.2656176183372736, 42, 43 },
  { 508, 0.12524813786149025, 1669, 1687 },
  { 831, -0.24180541187524796, 1670, 1673 },
  { 77, -0.4067804664373398, 1671, 1672 },
  { 579, -0.389278843998909, 13, 17 },
  { 481, 1.4066437035799026, 19, 43 },
  { 767, 0.009970954153686762, 1674, 1683 },
  { 277, -0.09686701372265816, 1675, 1679 },
  { 618, -0.22542688250541687, 1676, 1678 },
  { 529, -0.1417788229882717, 1677, 23 },
  { 921, -0.17579620145261288, 43, 4 },
  { 703, -0.311403289437294, 44, 17 },
  { 710, -0.024166347458958626, 1680, 19 },
  { 537, -0.13367759436368942, 44, 1681 },
  { 797, 0.03087710728868842, 1682, 23 },
  { 276, -0.04540025070309639, 13, 19 },
  { 622, 0.30013030767440796, 1684, 1685 },
  { 637, -0.4161185026168823, 13, 43 },
  { 442, -0.03167267143726349, 17, 1686 },
  { 67, 0.21889787167310715, 23, 19 },
  { 225, 0.059154629707336426, 1688, 1689 },
  { 998, 0.8802483677864075, 43, 4 },
  { 790, 0.003243647515773773, 13, 1690 },
  { 654, -0.19942288845777512, 17, 23 },
  { 839, 0.17518072575330734, 1692, 1697 },
  { 50, 0.5467134565114975, 1693, 1694 },
  { 562, -0.543864905834198, 27, 23 },
  { 673, 0.37212035059928894, 42, 1695 },
  { 925, 0.9554698914289474, 27, 1696 },
  { 369, 0.8514216244220734, 23, 44 },
  { 583, -0.22739260271191597, 17, 19 },
  { 245, 0.22468847781419754, 1699, 1706 },
  { 451, -0.4224040061235428, 1700, 1701 },
  { 453, 0.31960068084299564, 44, 4 },
  { 776, 0.4727853387594223, 23, 1702 },
  { 879, 0.004398233722895384, 19, 1703 },
  { 326, 0.2030472308397293, 17, 1704 },
  { 32, 0.14613690227270126, 1705, 42 },
  { 722, 0.34518782794475555, 23, 43 },
  { 736, 8.848248481750488, 1707, 1712 },
  { 494, -0.20484061539173126, 1708, 1709 },
  { 523, 0.7136507928371429, 44, 23 },
  { 49, 2.8029500246047974, 1710, 43 },
  { 506, -0.02114027738571167, 1711, 44 },
  { 331, 2.9669538736343384, 19, 44 },
  { 445, 3.796731650829315, 23, 17 },
  { 198, -0.3095986545085907, 1714, 1719 },
  { 515, -0.7159358561038971, 1715, 1718 },
  { 582, -0.6218709349632263, 1716, 4 },
  { 585, -0.7726693153381348, 1717, 3 },
  { 516, -0.8538890182971954, 3, 4 },
  { 368, -0.5610824525356293, 4, 3 },
  { 228, 0.5798598825931549, 1720, 1848 },
  { 834, -0.44760240614414215, 1721, 1740 },
  { 961, -0.2002943828701973, 1722, 1735 },
  { 712, -0.3921426385641098, 1723, 1728 },
  { 1013, 0.21543852239847183, 1724, 1727 },
  { 566, 0.655210331082344, 1725, 19 },
  { 513, -0.3023822605609894, 1726, 23 },
  { 692, -0.5060308873653412, 3, 4 },
  { 573, -0.6634106636047363, 4, 13 },
  { 841, -0.26909661293029785, 1729, 1732 },
  { 658, -0.21964434534311295, 1730, 3 },
  { 472, -0.5911376476287842, 4, 1731 },
  { 282, -0.18510718643665314, 17, 23 },
  { 858, -0.5146876275539398, 4, 1733 },
  { 72, -0.6802831590175629, 27, 1734 },
  { 85, -0.5864889919757843, 43, 17 },
  { 531, -0.29498041421175003, 1736, 1737 },
  { 822, -0.19804275035858154, 3, 27 },
  { 231, -0.16835439205169678, 1738, 17 },
  { 498, -0.5920189619064331, 13, 1739 },
  { 976, -0.3058173507452011, 23, 4 },
  { 509, 0.8291416168212891, 1741, 1833 },
  { 169, -0.5543044209480286, 1742, 1756 },
  { 1015, -0.42544563114643097, 1743, 1750 },
  { 274, -0.17572381347417831, 1744, 1748 },
  { 144, -0.5442928969860077, 1745, 17 },
  { 590, -0.6484892666339874, 27, 1746 },
  { 519, -0.7176080048084259, 1747, 13 },
  { 576, -0.6814407408237457, 44, 43 },
  { 215, -0.2002958431839943, 1749, 4 },
  { 240, -0.2037699818611145, 13, 43 },
  { 158, -0.29727083444595337, 27, 1751 },
  { 278, -0.24736354500055313, 1752, 1753 },
  { 6, -0.06616399250924587, 13, 43 },
  { 263, -0.12364080548286438, 3, 1754 },
  { 527, 0.629696398973465, 1755, 13 },
  { 787, -0.3644341826438904, 27, 17 },
  { 817, -0.14348187297582626, 1757, 1796 },
  { 175, -0.07455982640385628, 1758, 1793 },
  { 14, -0.20490216463804245, 1759, 1779 },
  { 59, 0.06429290398955345, 1760, 1776 },
  { 439, -0.5343963205814362, 1761, 1766 },
  { 877, -0.26424191892147064, 1762, 43 },
  { 250, -0.24308780580759048, 1763, 43 },
  { 606, -0.6913141310214996, 23, 1764 },
  { 566, -0.43545325100421906, 1765, 17 },
  { 778, -0.343093603849411, 19, 27 },
  { 731, -0.36650656163692474, 1767, 1773 },
  { 1022, -0.4423903226852417, 1768, 23 },
  { 372, -0.19341127574443817, 1769, 27 },
  { 399, -0.08261305838823318, 1770, 19 },
  { 350, -0.3646600991487503, 1771, 43 },
  { 736, -0.3130660951137543, 17, 1772 },
  { 802, -0.29146410524845123, 42, 13 },
  { 271, -0.13227150589227676, 19, 1774 },
  { 211, -0.13885387778282166, 27, 1775 },
  { 145, -0.1015801653265953, 19, 43 },
  { 355, -0.19749245047569275, 42, 1777 },
  { 523, -0.18762895092368126, 1778, 43 },
  { 76, 1.0614789921964984, 42, 17 },
  { 725, -0.2163836881518364, 1780, 1789 },
  { 373, -0.4365076571702957, 13, 1781 },
  { 261, -0.15464051067829132, 1782, 1783 },
  { 410, -0.28126809000968933, 17, 43 },
  { 7, -0.5453559309244156, 19, 1784 },
  { 77, -0.03557928837835789, 1785, 1786 },
  { 37, -0.6178321838378906, 13, 27 },
  { 184, -0.40184588730335236, 27, 1787 },
  { 588, -0.1339278295636177, 42, 1788 },
  { 297, -0.23400773108005524, 43, 13 },
  { 766, -0.28821298480033875, 43, 1790 },
  { 909, -0.41698838770389557, 4, 1791 },
  { 260, -0.10453761368989944, 27, 1792 },
  { 898, -0.17693959176540375, 13, 19 },
  { 579, -0.5700022280216217, 43, 1794 },
  { 450, 1.2954177856445312, 1795, 23 },
  { 112, 1.32845538854599, 42, 27 },
  { 10, -0.08885533735156059, 1797, 1820 },
  { 21, -0.1671498417854309, 1798, 1813 },
  { 137, 0.031727508176118135, 1799, 1812 },
  { 73, 0.0033824071288108826, 1800, 43 },
  { 891, -0.2242094799876213, 1801, 1808 },
  { 38, -0.4488089382648468, 1802, 1807 },
  { 202, -0.10493393987417221, 1803, 1806 },
  { 492, -0.6303557753562927, 42, 1804 },
  { 456, -0.5118120312690735, 1805, 43 },
  { 939, -0.5089037716388702, 44, 23 },
  { 287, -0.10896732658147812, 13, 17 },
  { 321, -0.30861903727054596, 13, 17 },
  { 969, -0.36979104578495026, 1809, 1811 },
  { 943, -0.2912694066762924, 23, 1810 },
  { 425, -0.390192449092865, 43, 17 },
  { 84, -0.041438549757003784, 19, 23 },
  { 286, -0.14482171833515167, 23, 17 },
  { 1023, -0.37717628479003906, 1814, 1817 },
  { 422, 0.04435075190849602, 1815, 43 },
  { 598, -0.11049712635576725, 13, 1816 },
  { 810, 0.11141693592071533, 27, 44 },
  { 541, -0.20450028404593468, 42, 1818 },
  { 503, 0.048375317826867104, 1819, 17 },
  { 653, -0.40375176072120667, 43, 19 },
  { 393, 0.15539094805717468, 1821, 1831 },
  { 499, 0.4844396859407425, 1822, 1829 },
  { 518, -0.29259707033634186, 1823, 1827 },
  { 533, 0.20974859781563282, 13, 1824 },
  { 4, -0.24532798677682877, 1825, 43 },
  { 245, -0.09487838298082352, 4, 1826 },
  { 430, -0.40336646139621735, 17, 19 },
  { 1005, 0.26556677743792534, 1828, 44 },
  { 248, -0.19881100207567215, 27, 43 },
  { 1004, 2.990371584892273, 1830, 17 },
  { 776, -0.23001214116811752, 13, 23 },
  { 929, 1.1429392397403717, 1832, 42 },
  { 875, 1.0906237959861755, 23, 43 },
  { 715, 0.19968915730714798, 1834, 1846 },
  { 426, 0.5693202018737793, 1835, 1844 },
  { 804, -0.28188563883304596, 1836, 1838 },
  { 935, -0.21521048992872238, 27, 1837 },
  { 292, -0.19409393519163132, 23, 27 },
  { 229, -0.041752247139811516, 1839, 4 },
  { 66, 0.2714104726910591, 1840, 1841 },
  { 1002, -0.45483478903770447, 42, 23 },
  { 348, -0.09937790036201477, 43, 1842 },
  { 964, -0.01945481449365616, 19, 1843 },
  { 382, 0.06479781121015549, 42, 27 },
  { 898, -0.033105138689279556, 1845, 42 },
  { 998, 0.3787245973944664, 19, 13 },
  { 35, 3.3319966793060303, 1847, 43 },
  { 911, -0.12295764684677124, 19, 23 },
  { 85, 3.4179301261901855, 1849, 43 },
  { 514, -0.02739857230335474, 19, 1850 },
  { 41, -0.37133584916591644, 23, 1851 },
  { 519, 0.21142031252384186, 1852, 44 },
  { 504, -0.22647575289011002, 44, 1853 },
  { 188, 0.8566220104694366, 43, 19 },
  { 177, -0.3013905733823776, 1855, 1859 },
  { 2, -0.7347303628921509, 1856, 1857 },
  { 508, -0.6369883120059967, 3, 4 },
  { 950, -0.6906808316707611, 1858, 3 },
  { 506, -0.7622068226337433, 4, 13 },
  { 263, 0.2208542600274086, 1860, 1989 },
  { 173, -0.5244344472885132, 1861, 1878 },
  { 511, -0.47970566153526306, 1862, 1875 },
  { 546, -0.37652699649333954, 1863, 1870 },
  { 445, -0.7358171939849854, 1864, 1865 },
  { 993, -0.7427222728729248, 27, 17 },
  { 496, -0.8431961834430695, 44, 1866 },
  { 3, -0.8578076362609863, 19, 1867 },
  { 437, -0.5098021030426025, 4, 1868 },
  { 107, -0.40606100857257843, 1869, 4 },
  { 2, -0.685276985168457, 3, 23 },
  { 977, -0.17777954787015915, 1871, 4 },
  { 711, -0.30131596326828003, 27, 1872 },
  { 272, -0.24949970841407776, 1873, 1874 },
  { 181, -0.45097436010837555, 3, 27 },
  { 600, 0.5085197165608406, 13, 17 },
  { 111, -0.41250284016132355, 1876, 1877 },
  { 318, -0.23888470232486725, 27, 13 },
  { 15, -0.54099240899086, 17, 42 },
  { 111, -0.3050795644521713, 1879, 1913 },
  { 526, -0.7485031187534332, 1880, 1885 },
  { 687, -0.23844792693853378, 1881, 1884 },
  { 191, -0.3197007477283478, 1882, 19 },
  { 544, -0.7064679265022278, 4, 1883 },
  { 829, -0.38270802795886993, 43, 23 },
  { 402, -0.3171975463628769, 19, 42 },
  { 513, -0.44243624806404114, 1886, 1897 },
  { 177, -0.2154139205813408, 1887, 27 },
  { 630, -0.5081195831298828, 1888, 1894 },
  { 1018, -0.614414244890213, 4, 1889 },
  { 316, -0.26888006925582886, 1890, 17 },
  { 818, -0.2442721500992775, 1891, 1892 },
  { 253, -0.15920894593000412, 19, 43 },
  { 973, -0.6452430188655853, 23, 1893 },
  { 638, -0.5209037065505981, 13, 4 },
  { 605, -0.09194598207250237, 43, 1895 },
  { 821, -0.3146784156560898, 1896, 17 },
  { 729, -0.3442894369363785, 13, 27 },
  { 965, -0.5634024441242218, 1898, 1901 },
  { 973, -0.4968167096376419, 1899, 23 },
  { 141, -0.3651884198188782, 17, 1900 },
  { 833, -0.4247529059648514, 44, 19 },
  { 507, -0.30043670535087585, 1902, 1906 },
  { 28, -0.21947231143712997, 1903, 1905 },
  { 810, -0.33970363438129425, 23, 1904 },
  { 528, 1.6218365728855133, 17, 4 },
  { 256, -0.0736418105661869, 13, 19 },
  { 639, -0.31229037046432495, 1907, 1912 },
  { 597, -0.38576170802116394, 1908, 1911 },
  { 910, -0.28057101368904114, 1909, 43 },
  { 214, -0.22326060384511948, 13, 1910 },
  { 145, -0.1629444882273674, 44, 23 },
  { 168, -0.3893093019723892, 23, 13 },
  { 352, -0.0733643937855959, 27, 13 },
  { 811, 0.14121266454458237, 1914, 1976 },
  { 526, 1.0266233682632446, 1915, 1967 },
  { 720, -0.02424172591418028, 1916, 1963 },
  { 0, 0.25247013568878174, 1917, 1954 },
  { 930, -0.12363333255052567, 1918, 1937 },
  { 415, -0.16715515404939651, 1919, 1932 },
  { 413, -0.13016531616449356, 1920, 1930 },
  { 567, -0.5944443643093109, 23, 1921 },
  { 507, -0.24212974309921265, 1922, 1926 },
  { 510, -0.5073134303092957, 1923, 1924 },
  { 560, -0.23675183951854706, 42, 19 },
  { 200, -0.2102341204881668, 1925, 19 },
  { 396, -0.10169580206274986, 17, 23 },
  { 256, -0.09854733571410179, 27, 1927 },
  { 920, -0.3375463932752609, 1928, 43 },
  { 430, -0.22116690129041672, 1929, 13 },
  { 371, -0.3391929864883423, 44, 23 },
  { 22, -0.4442938566207886, 23, 1931 },
  { 511, 0.04335710033774376, 19, 44 },
  { 561, -0.1307314783334732, 1933, 1934 },
  { 939, 0.09400810673832893, 42, 23 },
  { 631, -0.17675967514514923, 19, 1935 },
  { 140, -0.212266456335783, 4, 1936 },
  { 835, -0.2331501767039299, 42, 44 },
  { 725, -0.22309625893831253, 1938, 1941 },
  { 56, -0.06282389909029007, 1939, 1940 },
  { 12, -0.4209125339984894, 43, 27 },
  { 238, -0.19203700125217438, 19, 4 },
  { 536, -0.2687044143676758, 1942, 1948 },
  { 517, 0.9696910381317139, 1943, 1947 },
  { 647, 0.326013907790184, 1944, 17 },
  { 566, 0.13826309889554977, 1945, 43 },
  { 102, -0.1050480492413044, 13, 1946 },
  { 998, -0.4831099212169647, 23, 42 },
  { 24, -0.45342953503131866, 42, 23 },
  { 964, 0.46167227625846863, 1949, 1952 },
  { 379, -0.1394098773598671, 13, 1950 },
  { 378, 0.18484950810670853, 1951, 42 },
  { 987, -0.4451333284378052, 42, 43 },
  { 487, 1.9954440593719482, 1953, 43 },
  { 381, 0.4529036208987236, 19, 42 },
  { 49, -0.17454319447278976, 1955, 1956 },
  { 223, -0.07263507321476936, 23, 17 },
  { 292, -0.12009621411561966, 1957, 1961 },
  { 396, -0.11171724274754524, 19, 1958 },
  { 599, 1.3282517194747925, 1959, 23 },
  { 1014, 1.68938809633255, 42, 1960 },
  { 264, -0.19089755415916443, 23, 27 },
  { 775, -0.156119205057621, 1962, 23 },
  { 1015, 0.3446236248128116, 13, 4 },
  { 833, 0.014182563871145248, 1964, 1965 },
  { 761, -0.08076786994934082, 13, 43 },
  { 690, -0.09898629412055016, 1966, 19 },
  { 916, 0.22490309178829193, 23, 13 },
  { 19, 0.23812027275562286, 1968, 1972 },
  { 1014, 1.417365849018097, 1969, 13 },
  { 698, 0.0946124941110611, 1970, 42 },
  { 501, 0.6181676387786865, 1971, 4 },
  { 592, 0.24795007705688477, 43, 27 },
  { 806, -0.32869212329387665, 27, 1973 },
  { 45, 2.7642204761505127, 1974, 27 },
  { 348, -0.18360459059476852, 17, 1975 },
  { 70, 0.4208655506372452, 43, 13 },
  { 261, 0.18233656883239746, 1977, 1984 },
  { 552, 1.6863805651664734, 1978, 1982 },
  { 509, -0.12563542649149895, 1979, 1981 },
  { 214, 0.00900657451711595, 13, 1980 },
  { 216, 0.11244575679302216, 43, 17 },
  { 873, 1.1594117879867554, 23, 42 },
  { 17, 3.38596510887146, 1983, 44 },
  { 542, 3.4051033556461334, 43, 19 },
  { 1023, 0.03458771854639053, 1985, 1987 },
  { 382, 0.26576265692710876, 19, 1986 },
  { 475, -0.363693967461586, 17, 43 },
  { 696, 0.5798024833202362, 17, 1988 },
  { 508, 1.6760357916355133, 44, 23 },
  { 285, 0.268612340092659, 19, 1990 },
  { 463, 2.625651776790619, 44, 43 },
  { 249, 0.2029067724943161, 1992, 2127 },
  { 190, -0.2902402728796005, 1993, 1999 },
  { 986, -0.5134640485048294, 1994, 1998 },
  { 319, -0.4290710389614105, 1995, 1997 },
  { 598, -0.6639048159122467, 1996, 3 },
  { 852, -0.5663745105266571, 3, 4 },
  { 464, -0.6672127842903137, 4, 3 },
  { 234, -0.25534363090991974, 4, 3 },
  { 362, -0.5417130887508392, 2000, 2037 },
  { 515, -0.6683436334133148, 2001, 2008 },
  { 996, -0.3849909156560898, 2002, 2006 },
  { 12, -0.7614420056343079, 42, 2003 },
  { 41, -0.6489995718002319, 43, 2004 },
  { 688, -0.609313040971756, 2005, 4 },
  { 812, -0.3439246267080307, 4, 13 },
  { 595, -0.14613170269876719, 2007, 27 },
  { 424, 0.1955665647983551, 3, 4 },
  { 423, -0.4286140948534012, 2009, 2034 },
  { 24, -0.19530711323022842, 2010, 2026 },
  { 497, -0.40542376041412354, 2011, 2022 },
  { 91, -0.44756433367729187, 2012, 43 },
  { 621, -0.537892609834671, 2013, 2021 },
  { 1018, -0.4559776782989502, 2014, 23 },
  { 890, -0.40894655883312225, 2015, 2019 },
  { 369, -0.2454451099038124, 3, 2016 },
  { 174, -0.2900771200656891, 23, 2017 },
  { 122, -0.3021232336759567, 44, 2018 },
  { 43, -0.49929971992969513, 43, 4 },
  { 748, -0.15551453083753586, 2020, 17 },
  { 711, -0.2490379437804222, 13, 42 },
  { 70, -0.6118519604206085, 27, 17 },
  { 210, -0.15794597566127777, 2023, 2024 },
  { 129, -0.25060752034187317, 4, 13 },
  { 883, -0.4829633980989456, 17, 2025 },
  { 803, -0.11532507184892893, 44, 23 },
  { 358, -0.5407510995864868, 2027, 2029 },
  { 71, -0.2358851432800293, 2028, 17 },
  { 459, -0.5335533916950226, 13, 4 },
  { 253, -0.1595510020852089, 27, 2030 },
  { 26, -0.21496393159031868, 19, 2031 },
  { 870, -0.5655097663402557, 23, 2032 },
  { 566, -0.4300123006105423, 4, 2033 },
  { 719, -0.1585633009672165, 43, 44 },
  { 930, 0.8932821452617645, 13, 2035 },
  { 767, -0.3134680837392807, 2036, 17 },
  { 813, -0.21517686545848846, 27, 13 },
  { 66, -0.137603260576725, 2038, 2086 },
  { 921, -0.10159585252404213, 2039, 2075 },
  { 445, -0.585899293422699, 2040, 2049 },
  { 467, -0.5430789887905121, 2041, 2046 },
  { 19, -0.44568635523319244, 2042, 2045 },
  { 822, -0.17938049882650375, 2043, 2044 },
  { 118, -0.2654113918542862, 43, 23 },
  { 389, -0.3318876177072525, 42, 17 },
  { 183, -0.13111453875899315, 4, 27 },
  { 27, -0.47376544773578644, 23, 2047 },
  { 406, -0.2895793318748474, 17, 2048 },
  { 407, -0.23191367089748383, 43, 13 },
  { 17, 0.03246805537492037, 2050, 2070 },
  { 921, -0.2188810557126999, 2051, 2067 },
  { 973, -0.20653214305639267, 2052, 2061 },
  { 720, -0.1304270625114441, 2053, 2055 },
  { 949, -0.5209198594093323, 2054, 43 },
  { 417, -0.27675480395555496, 13, 3 },
  { 819, -0.04334845067933202, 2056, 43 },
  { 866, -0.21241461485624313, 2057, 17 },
  { 979, -0.6192439794540405, 42, 2058 },
  { 267, -0.13081970065832138, 27, 2059 },
  { 666, -0.3841920495033264, 2060, 13 },
  { 304, -0.07936763763427734, 23, 43 },
  { 132, -0.11368311755359173, 2062, 23 },
  { 498, -0.5784570276737213, 19, 2063 },
  { 583, -0.47506384551525116, 17, 2064 },
  { 74, -0.382331907749176, 44, 2065 },
  { 557, 0.0754484673961997, 2066, 13 },
  { 170, -0.22934558242559433, 4, 42 },
  { 600, -0.44464264810085297, 19, 2068 },
  { 562, -0.32995377480983734, 2069, 27 },
  { 427, -0.2787638157606125, 17, 43 },
  { 963, -0.3636033833026886, 2071, 2072 },
  { 747, -0.1701977252960205, 19, 44 },
  { 956, -0.5087229609489441, 2073, 2074 },
  { 651, -0.3693288564682007, 27, 42 },
  { 713, -0.11633326858282089, 13, 19 },
  { 60, -0.148148775100708, 2076, 23 },
  { 921, -0.04858967289328575, 2077, 2079 },
  { 534, -0.4694547951221466, 17, 2078 },
  { 980, 0.3247951716184616, 23, 44 },
  { 113, -0.05076310969889164, 2080, 2084 },
  { 520, 0.7950847260653973, 2081, 44 },
  { 949, -0.3831518292427063, 2082, 13 },
  { 802, -0.22046636044979095, 2083, 17 },
  { 29, -0.42064760625362396, 27, 43 },
  { 861, -0.0218022633343935, 19, 2085 },
  { 776, 0.2678910940885544, 42, 23 },
  { 743, -0.3018748015165329, 2087, 2089 },
  { 944, -0.37872786819934845, 2088, 42 },
  { 262, -0.27716442942619324, 43, 27 },
  { 438, 2.2355812788009644, 2090, 42 },
  { 710, -0.23920686542987823, 2091, 2101 },
  { 987, -0.16797062754631042, 2092, 2095 },
  { 468, 0.11113045364618301, 2093, 2094 },
  { 546, -0.16510334983468056, 42, 23 },
  { 947, 0.9575682878494263, 13, 17 },
  { 585, -0.19057362899184227, 43, 2096 },
  { 850, 0.1847359985113144, 2097, 2100 },
  { 134, 0.1325071156024933, 2098, 2099 },
  { 1009, -0.6200743913650513, 19, 27 },
  { 496, 0.9119807481765747, 4, 43 },
  { 74, 0.6635372042655945, 43, 4 },
  { 489, 1.5231147408485413, 2102, 2123 },
  { 426, -0.028339154087007046, 2103, 2106 },
  { 806, 1.5923461318016052, 2104, 17 },
  { 514, -0.45425477623939514, 2105, 19 },
  { 388, -0.21184808760881424, 13, 43 },
  { 718, -0.17111795395612717, 2107, 2109 },
  { 500, 0.19248399510979652, 42, 2108 },
  { 8, 0.6806137263774872, 43, 27 },
  { 1023, 0.2932678461074829, 2110, 2119 },
  { 715, 0.15754208713769913, 2111, 2118 },
  { 937, 0.10642237961292267, 43, 2112 },
  { 40, -0.10623394139111042, 23, 2113 },
  { 264, -0.1566668450832367, 2114, 2115 },
  { 889, 0.38447320088744164, 19, 27 },
  { 493, 0.15777473151683807, 43, 2116 },
  { 763, 0.008385847846511751, 2117, 42 },
  { 807, -0.11707630380988121, 4, 44 },
  { 291, 0.2536576837301254, 19, 43 },
  { 463, -0.13752496615052223, 2120, 2121 },
  { 566, 1.6808840837329626, 17, 44 },
  { 530, -0.35074689239263535, 2122, 23 },
  { 965, 0.282761330192443, 42, 19 },
  { 997, 0.3714398890733719, 13, 2124 },
  { 970, 2.678769111633301, 2125, 43 },
  { 703, 0.09412261843681335, 17, 2126 },
  { 402, 0.7881888151168823, 44, 42 },
  { 830, 5.362697124481201, 2128, 2129 },
  { 489, -0.3863946944475174, 23, 44 },
  { 354, 11.953813672065735, 23, 17 },
  { 208, -0.10970307141542435, 2131, 2136 },
  { 511, -0.5521245002746582, 2132, 2133 },
  { 602, -0.5921562910079956, 3, 13 },
  { 574, -0.6689515709877014, 2134, 2135 },
  { 670, -0.4490128606557846, 3, 4 },
  { 766, -0.2938171774148941, 23, 3 },
  { 249, 0.2705669552087784, 2137, 44 },
  { 145, -0.13897116482257843, 2138, 2185 },
  { 1022, -0.43069571256637573, 2139, 2172 },
  { 936, -0.5003690421581268, 2140, 2161 },
  { 837, -0.3656715303659439, 2141, 2151 },
  { 37, 0.14468463510274887, 2142, 3 },
  { 95, -0.42941589653491974, 2143, 2148 },
  { 436, -0.5834006667137146, 2144, 2145 },
  { 563, -0.7237730324268341, 4, 13 },
  { 318, -0.2415400817990303, 3, 2146 },
  { 437, -0.44219961762428284, 4, 2147 },
  { 575, -0.20637056231498718, 13, 27 },
  { 692, -0.4889356940984726, 2149, 23 },
  { 785, -0.18634425103664398, 3, 2150 },
  { 850, -0.5066643357276917, 17, 4 },
  { 80, -0.4963923841714859, 2152, 2158 },
  { 60, -0.6477320790290833, 2153, 2156 },
  { 798, -0.2312057763338089, 27, 2154 },
  { 102, -0.44350630044937134, 2155, 4 },
  { 452, -0.655202329158783, 44, 17 },
  { 1007, -0.7816259562969208, 42, 2157 },
  { 191, -0.31674495339393616, 43, 27 },
  { 7, -0.8355111181735992, 4, 2159 },
  { 892, -0.4013037532567978, 17, 2160 },
  { 446, -0.5386203229427338, 23, 42 },
  { 552, -0.2572288066148758, 2162, 2168 },
  { 704, -0.1867612525820732, 2163, 2164 },
  { 843, -0.5759560763835907, 43, 4 },
  { 893, -0.47668880224227905, 2165, 3 },
  { 987, -0.22978734225034714, 2166, 27 },
  { 411, -0.3987489640712738, 13, 2167 },
  { 976, -0.5518478453159332, 4, 43 },
  { 505, -0.6779278218746185, 2169, 2170 },
  { 939, -0.07442618161439896, 17, 27 },
  { 438, 0.2294439934194088, 13, 2171 },
  { 841, -0.2634493410587311, 27, 13 },
  { 282, -0.17957591265439987, 2173, 2178 },
  { 522, 0.6861208826303482, 2174, 2177 },
  { 212, -0.2413364201784134, 2175, 2176 },
  { 530, -0.7204630076885223, 23, 27 },
  { 894, -0.5438673198223114, 27, 17 },
  { 811, -0.21331974118947983, 13, 27 },
  { 919, -0.49292556941509247, 2179, 2181 },
  { 416, -0.49982430040836334, 2180, 4 },
  { 111, -0.3846717029809952, 17, 43 },
  { 521, -0.147003086283803, 2182, 43 },
  { 405, -0.34843726456165314, 2183, 23 },
  { 531, -0.3017617017030716, 13, 2184 },
  { 477, 0.03443546546623111, 17, 44 },
  { 278, -0.17106494307518005, 2186, 2231 },
  { 1017, -0.6179719269275665, 2187, 2192 },
  { 512, -0.3009824901819229, 2188, 2190 },
  { 908, -0.43610990047454834, 17, 2189 },
  { 667, 0.3489506468176842, 42, 17 },
  { 810, -0.34085528552532196, 23, 2191 },
  { 754, -0.35656093060970306, 19, 42 },
  { 419, 0.9760664403438568, 2193, 2229 },
  { 58, 1.628186821937561, 2194, 27 },
  { 602, -0.5328300297260284, 2195, 2197 },
  { 795, -0.25607235729694366, 2196, 44 },
  { 32, -0.7398333847522736, 43, 27 },
  { 455, -0.365597739815712, 2198, 2206 },
  { 150, -0.3805076777935028, 2199, 2203 },
  { 950, -0.38624750077724457, 2200, 27 },
  { 474, -0.4087218940258026, 2201, 17 },
  { 474, -0.4840037077665329, 2202, 23 },
  { 807, -0.3127420097589493, 13, 43 },
  { 198, -0.15871042013168335, 2204, 2205 },
  { 379, 0.18014423176646233, 43, 27 },
  { 940, -0.2674023285508156, 19, 27 },
  { 1000, -0.44863317906856537, 42, 2207 },
  { 631, -0.1515432596206665, 2208, 2216 },
  { 111, -0.03375031740870327, 2209, 2215 },
  { 438, -0.07273729704320431, 2210, 2212 },
  { 509, -0.012911709025502205, 2211, 43 },
  { 964, -0.5042153298854828, 17, 13 },
  { 283, -0.1644245982170105, 2213, 43 },
  { 377, -0.2632359564304352, 2214, 27 },
  { 165, -0.4518934190273285, 4, 42 },
  { 471, 2.2116414308547974, 19, 43 },
  { 478, 0.050596513552591205, 2217, 2221 },
  { 434, -0.4201727509498596, 2218, 2219 },
  { 890, 0.5493504852056503, 17, 27 },
  { 59, 0.48288023471832275, 23, 2220 },
  { 855, 0.5329237058758736, 42, 19 },
  { 363, 0.27549557387828827, 2222, 23 },
  { 13, 0.08578308671712875, 2223, 2225 },
  { 818, -0.1702260971069336, 2224, 19 },
  { 341, -0.10439281165599823, 43, 42 },
  { 909, 0.29307902604341507, 2226, 27 },
  { 689, 0.5193021595478058, 2227, 13 },
  { 919, -0.18468822166323662, 2228, 43 },
  { 836, -0.12645284086465836, 19, 27 },
  { 179, -0.1439083255827427, 2230, 42 },
  { 262, -0.2665596604347229, 27, 17 },
  { 107, 2.890863537788391, 2232, 42 },
  { 964, 1.304362714290619, 2233, 2259 },
  { 916, 0.4792451411485672, 2234, 2254 },
  { 656, 0.5652478486299515, 2235, 2252 },
  { 1008, -0.3710777014493942, 2236, 2243 },
  { 584, 0.02908356860280037, 2237, 43 },
  { 300, -0.10161825641989708, 2238, 2241 },
  { 809, -0.017020419239997864, 2239, 43 },
  { 762, 0.07402325421571732, 2240, 44 },
  { 825, -0.17414677888154984, 17, 13 },
  { 457, -0.12704743444919586, 2242, 23 },
  { 629, -0.07143800891935825, 19, 17 },
  { 104, -0.20971093326807022, 2244, 2246 },
  { 883, -0.446870818734169, 2245, 23 },
  { 43, -0.4408997595310211, 19, 17 },
  { 607, -0.3947295844554901, 4, 2247 },
  { 447, -0.17250018939375877, 2248, 2251 },
  { 1009, -0.3139592856168747, 43, 2249 },
  { 959, -0.4503910541534424, 17, 2250 },
  { 66, -0.32505621016025543, 44, 23 },
  { 988, 1.6047053933143616, 19, 13 },
  { 907, 0.6435091644525528, 17, 2253 },
  { 766, 1.115384355187416, 44, 43 },
  { 910, 0.6171127557754517, 2255, 2258 },
  { 179, -0.07397988438606262, 2256, 2257 },
  { 275, -0.1063123308122158, 17, 44 },
  { 251, 0.27752024680376053, 23, 44 },
  { 43, -0.06570068746805191, 17, 19 },
  { 484, 1.1579951047897339, 2260, 44 },
  { 460, 0.8356233984231949, 2261, 2262 },
  { 784, -0.010700851678848267, 19, 43 },
  { 220, 0.24351848661899567, 13, 44 },
  { 718, -0.24771755188703537, 2264, 2270 },
  { 445, -0.6942089796066284, 2265, 2268 },
  { 827, -0.3518257588148117, 2266, 3 },
  { 854, -0.5030339360237122, 3, 2267 },
  { 182, -0.371307373046875, 4, 3 },
  { 415, -0.5702641904354095, 4, 2269 },
  { 763, -0.2667679935693741, 19, 43 },
  { 255, 0.45454174280166626, 2271, 2400 },
  { 112, -0.32388871908187866, 2272, 2330 },
  { 427, -0.3659905642271042, 2273, 2321 },
  { 1020, -0.7794254124164581, 2274, 2276 },
  { 170, -0.28482572734355927, 13, 2275 },
  { 894, -0.3561345040798187, 4, 17 },
  { 78, -0.6108996868133545, 2277, 2279 },
  { 841, -0.26445986330509186, 2278, 27 },
  { 284, -0.29161038994789124, 13, 4 },
  { 517, 0.4341820478439331, 2280, 2318 },
  { 1023, 0.4639242887496948, 2281, 23 },
  { 552, -0.4302063584327698, 2282, 2303 },
  { 129, -0.2365838587284088, 2283, 2288 },
  { 696, -0.5842024981975555, 4, 2284 },
  { 633, -0.3466573506593704, 2285, 2287 },
  { 203, -0.2740268111228943, 2286, 17 },
  { 14, -0.7587149143218994, 13, 43 },
  { 8, -0.8170350790023804, 17, 27 },
  { 593, -0.6190188527107239, 2289, 2292 },
  { 598, -0.6131757497787476, 2290, 2291 },
  { 456, -0.6241972148418427, 17, 44 },
  { 592, -0.5371936857700348, 23, 43 },
  { 293, -0.3060314804315567, 2293, 2295 },
  { 268, -0.2132876142859459, 2294, 23 },
  { 736, -0.3135545253753662, 42, 19 },
  { 930, -0.6651135087013245, 17, 2296 },
  { 766, -0.08095014747232199, 2297, 44 },
  { 890, -0.2568729892373085, 2298, 13 },
  { 983, -0.6469051241874695, 42, 2299 },
  { 266, -0.27531304955482483, 2300, 4 },
  { 445, -0.6244054436683655, 27, 2301 },
  { 199, -0.16351749002933502, 3, 2302 },
  { 775, -0.19734082370996475, 23, 43 },
  { 32, -0.3304264396429062, 2304, 2311 },
  { 576, -0.6615812182426453, 2305, 2307 },
  { 601, -0.5240882635116577, 2306, 19 },
  { 835, -0.3228966295719147, 4, 23 },
  { 389, -0.4861486107110977, 2308, 2309 },
  { 782, -0.3342459052801132, 13, 23 },
  { 375, -0.1516931802034378, 17, 2310 },
  { 338, -0.189512737095356, 13, 19 },
  { 84, -0.5131693184375763, 2312, 2314 },
  { 145, -0.16015087813138962, 3, 2313 },
  { 39, -0.44302405416965485, 13, 44 },
  { 9, -0.3361146077513695, 2315, 2316 },
  { 474, -0.23543498665094376, 23, 17 },
  { 289, -0.14840441569685936, 2317, 44 },
  { 925, -0.17413855344057083, 4, 13 },
  { 727, -0.3363051414489746, 2319, 2320 },
  { 636, -0.5796034932136536, 13, 27 },
  { 65, -0.42149049043655396, 43, 4 },
  { 679, -0.35098326206207275, 2322, 2324 },
  { 701, -0.37096287310123444, 17, 2323 },
  { 408, -0.4263010025024414, 27, 4 },
  { 920, -0.3821975886821747, 2325, 2326 },
  { 266, -0.2976086735725403, 43, 13 },
  { 522, 0.01522500067949295, 2327, 2329 },
  { 909, -0.43148180842399597, 17, 2328 },
  { 791, -0.2359323799610138, 19, 43 },
  { 471, 0.6842674612998962, 13, 27 },
  { 1021, 0.7850966155529022, 2331, 2392 },
  { 906, 1.209000825881958, 2332, 2390 },
  { 14, -0.4991858899593353, 2333, 2345 },
  { 986, 0.1235643308609724, 2334, 2343 },
  { 462, -0.22373361885547638, 2335, 2341 },
  { 393, -0.07017466053366661, 2336, 2338 },
  { 911, -0.3958878815174103, 2337, 23 },
  { 112, -0.07150271534919739, 42, 43 },
  { 446, -0.16790881380438805, 17, 2339 },
  { 897, -0.15720815397799015, 42, 2340 },
  { 740, -0.3238436430692673, 19, 43 },
  { 2, -0.19239475578069687, 2342, 23 },
  { 564, -0.46753180027008057, 43, 42 },
  { 393, -0.050034163519740105, 19, 2344 },
  { 55, 1.107004553079605, 23, 42 },
  { 57, 1.7829567193984985, 2346, 2387 },
  { 487, 1.8547738194465637, 2347, 43 },
  { 726, -0.34019137918949127, 2348, 2353 },
  { 905, -0.28340859711170197, 2349, 2352 },
  { 466, -0.3602607697248459, 43, 2350 },
  { 1019, -0.5728372186422348, 23, 2351 },
  { 612, 0.5942538157105446, 19, 4 },
  { 768, -0.1784532591700554, 13, 27 },
  { 517, 0.24989519268274307, 2354, 2377 },
  { 471, -0.4772510677576065, 2355, 2356 },
  { 727, -0.27795223891735077, 42, 17 },
  { 66, 1.11646568775177, 2357, 13 },
  { 566, 0.32764971256256104, 2358, 2374 },
  { 512, -0.6225490570068359, 43, 2359 },
  { 195, -0.1665913388133049, 2360, 2366 },
  { 108, -0.17105769366025925, 2361, 2364 },
  { 695, -0.2328161746263504, 4, 2362 },
  { 395, -0.34055760502815247, 13, 2363 },
  { 89, -0.1930455844849348, 17, 43 },
  { 622, -0.07279952429234982, 42, 2365 },
  { 827, -0.25972460210323334, 19, 43 },
  { 368, 0.013797468040138483, 2367, 2368 },
  { 73, -0.06615139450877905, 19, 13 },
  { 479, 0.09132884442806244, 2369, 2371 },
  { 369, 0.17954998463392258, 23, 2370 },
  { 76, 0.004063073545694351, 17, 44 },
  { 489, 1.2110084295272827, 2372, 44 },
  { 34, 0.7137792855501175, 2373, 43 },
  { 534, 0.2373257540166378, 19, 4 },
  { 906, -0.17254096269607544, 2375, 19 },
  { 856, -0.11582018435001373, 2376, 13 },
  { 360, -0.3362637311220169, 44, 43 },
  { 419, 0.7043858170509338, 2378, 42 },
  { 18, -0.4143308252096176, 2379, 2380 },
  { 297, -0.18481683731079102, 27, 19 },
  { 11, 0.07604933436959982, 2381, 2383 },
  { 554, 0.5840503424406052, 2382, 17 },
  { 806, -0.3588530570268631, 42, 43 },
  { 12, 0.484446182847023, 23, 2384 },
  { 564, 2.5521702766418457, 2385, 13 },
  { 313, -0.14970304816961288, 43, 2386 },
  { 191, -0.019777357578277588, 27, 4 },
  { 533, 1.2395960688591003, 2388, 2389 },
  { 977, 0.30928394943475723, 42, 27 },
  { 969, 4.725107550621033, 43, 27 },
  { 496, -0.3981543630361557, 17, 2391 },
  { 23, -0.2343149185180664, 27, 42 },
  { 50, 0.09971582889556885, 2393, 2394 },
  { 118, -0.3169039785861969, 27, 23 },
  { 453, 1.1671941876411438, 2395, 2396 },
  { 966, -0.25548799335956573, 23, 19 },
  { 840, 0.9453102052211761, 2397, 23 },
  { 563, 2.0787856578826904, 42, 2398 },
  { 29, 1.494793176651001, 2399, 27 },
  { 689, 1.2888827621936798, 19, 17 },
  { 515, -0.2521732747554779, 43, 2401 },
  { 875, 2.5016764402389526, 2402, 2404 },
  { 933, -0.27254413813352585, 19, 2403 },
  { 854, 3.4167895317077637, 44, 23 },
  { 830, 0.8970755189657211, 17, 44 },
  { 273, 0.17175880819559097, 2406, 2547 },
  { 702, -0.44743484258651733, 2407, 2428 },
  { 881, -0.3613158315420151, 2408, 2409 },
  { 1022, -0.7069823443889618, 3, 4 },
  { 822, -0.198617622256279, 2410, 2412 },
  { 860, -0.4583008140325546, 2411, 3 },
  { 652, -0.5072408020496368, 4, 3 },
  { 737, -0.2806541323661804, 2413, 2427 },
  { 2, -0.4656048119068146, 2414, 2424 },
